0.09241537440773008	0.07230663864257623	0.03557901189336669
0.3349910065462991	-0.10631116461920413	-0.08184517298255835
0.003102047154817909	-0.06273273672962132	0.025006159938270437
-0.061457082539306394	-0.15999054347861558	-0.08884354560382648
0.08105034716696348	-0.07030682197521387	0.09779642436186514
-0.09025373515694965	-0.04649633408287424	-0.14579980814982085
-0.0338166666540417	0.03995588052034825	-0.031160856770782952
0.14926188621419714	0.10507437354407023	-0.01378686212370997
0.057602755918811845	0.009234719414893454	-0.03706808334836678
0.04957931828577485	0.11025382246934279	0.0171559763713276
-0.05684946369362715	-0.10779119943314545	0.04866004264976018
-0.09501370992278821	-0.10442854434515442	-0.034918698393187404
0.16304867609899215	0.43422422800734783	-0.37906251042838734
0.13224863771169001	0.06546173432887488	-0.013966309823697374
-0.073397784962447	-0.06662241785238025	0.09945643840317671
-0.04392956081091639	-0.07922533549617843	-0.07396473899701657
0.032764329749276254	-0.05203196971119191	-0.03734773110111238
-0.1046387173946279	0.06329425377425224	0.030542169751686613
-0.0083509694602052	0.052590084578903414	0.04770173381286978
-0.03835240449354004	-0.09146323952102162	0.09723415792776272
0.09379528858934244	0.043356902715125496	0.008209981808861955
0.08949573093560902	-0.09551829164477926	0.1481539420021639
0.18566111409675307	-0.5496953012162458	0.3847976656487867
-0.05547125258291997	0.12126908093827643	0.05975118056220162
0.03140466060582237	0.14343979520351743	0.09496862819919888
0.030296200177122198	-0.03463025540219599	0.05204533227438012
0.013331197697346775	0.019219804656998744	0.029411458488448863
-0.008753162272477131	0.034305354557044455	-0.18474432313292666
0.26284493207090287	-1.4158394557030927	0.934724432737366
0.05845736345016122	-0.05224415233179491	0.10664958449849792
0.13163514890338576	-0.01097597381068411	0.08578431414176262
-0.11615719562926174	-0.0038317504870414173	0.12336766275784838
0.009698731381738199	-0.02356369885560981	0.0756894957574454
0.05736071587053562	-0.0207035049722634	0.13016839791187237
0.07265585335209389	0.1270535699243611	0.21927059342046587
0.06667211557880347	0.003845500357422577	-0.041423198014450165
-0.06551028029748414	-0.1638970875822489	0.02096958416108416
0.17801715636925455	-0.0320089279920393	-0.06458960410933984
0.07565314666090261	-0.10632825518598951	0.0076985497452299
-0.13796046562879502	0.1567983046010694	0.0010830424972214868
0.19659274146154637	0.15863735088680317	0.14606536095201836
0.21910102292391195	-0.6332468695750495	0.49526754423047625
0.1313355253368163	-0.05452913291601091	-0.04203815472109029
-0.16902559136011192	-0.12944500381999532	-0.08965460319848788
-0.10770142949922343	0.03017957497443554	-0.07951249102683022
0.016726795761799584	0.008473793454313185	-0.01555177497066683
-0.08750394760697879	0.03496530362618174	0.19871922218503207
-0.005896566081145442	-0.0423220140363388	0.05570464318488536
0.014635892899077841	-0.014242279183601778	-0.026474937030685403
-0.047782783431720204	-0.01807554368924887	-0.025305174064336924
-0.01018057126744289	-0.034626877539310486	-0.03154239679897012
0.04512986464166474	-0.7111287062622527	0.4371363793005207
0.16035040704195724	0.06858325563678888	-0.005097863353930276
-0.05957777851997911	-0.09603713048422939	-0.17153863581127746
0.15993284475424716	0.1262850463844975	0.17707807146902887
-0.03096628786598809	0.12003403093893181	0.11893535099780443
-0.11364657706317068	0.0012907933642583784	-0.012347872534456003
0.062224050123354316	-0.1305196290642185	-0.09365849305733462
-0.08708466250731657	-0.08037325955344714	-0.028693054806495335
0.08359908110656482	0.0001269876462274444	-0.024285542033620752
-0.05139239396689912	-0.010932589096931877	0.038853100123657024
-0.06162704845221434	0.010904671144521082	-0.04002169493932093
-0.009376154072178797	-0.007822271303286802	-0.10916556603781546
-0.055123956811736624	0.030505505337614678	-0.12910549687586886
-0.016929715206560517	-0.039482864176845475	0.03557476741520962
0.08542082067267263	0.019824803190735697	0.06086405421933589
0.03240779091598373	0.06219607131757205	0.085288705338042
0.27055499323470744	0.051479277620837635	0.08672784392365775
-0.044870286003139095	-0.030143878374648287	-0.10117062320726754
0.0014201764827676462	-0.021607910093381446	0.11842539769406969
0.07367089963610922	-0.1366135149631194	0.19138927635642233
-0.05078171371974551	-0.1760221578396553	-0.09373532306402091
0.014998071779072378	-0.046624390189282945	0.13080800998354056
0.08720204920630115	0.060469650974371784	0.02416791610017806
-0.06774663556298707	-0.008036068246637692	-0.06398299731392026
0.039519894242868614	0.11619310955923548	0.20388884702607032
0.17112944682083622	-0.18663081574767237	-0.2319666309517275
0.035155545228330407	-0.006891990908560901	0.11478239809057031
0.049671976047493155	-0.1626271344034849	0.09709497804841104
0.1879860002493099	-0.049366352496951	0.13719147118165034
-0.10124153970950948	-0.07922440262720684	-0.09313265400093197
-0.11109238112342375	-0.011810624557763542	0.029139103494655236
0.17474004581927335	-0.07285418190983885	-0.07539136117748707
0.013114300613403266	0.012027383105161629	-0.07939546427523934
-0.0038841788668641836	-0.0566474278228078	-0.17703961566706092
-0.14035126077884677	0.1491751359961993	0.24057642028642365
-0.11731661480893363	-0.04961173691186245	0.08255703902061956
0.013413574373352862	-0.20203637267263944	-0.1343588634858503
-0.0741996063515508	-0.046730321403627366	-0.03228295048901059
0.028018366808179686	-0.2059395586796298	-0.17212201016840367
0.04720627971206724	0.053036832107476416	0.03867400038492939
-0.2889424306141125	-0.026329930801357832	0.2815139776987398
0.0038797011566017955	0.018795122321396643	-0.012827756415726015
0.06546264723235333	-0.15008924406703514	0.08795798493380975
0.3063050558107558	-0.7752718392957525	0.6561269375156121
-0.03231250134527789	-0.10433725698519312	0.03940047694647574
0.14278964482538517	0.13544024547529906	0.09194176388474376
-0.08681485725845034	-0.11199995513737132	0.13226531181625276
-0.015775311718520323	0.0770976994204697	0.03201296264304091
-0.06596395218855354	0.025045270403746805	-0.07605637428858734
-0.18725234338388425	-0.0034427230432774866	0.010068633793202468
0.1496720058049547	0.032950555976381225	0.15477408840360568
-0.054357507383818136	-0.10299629214643441	0.0819201066447945
-0.007282574584456727	0.1692998987355426	0.027112695779141684
0.08136043223634822	-0.10056128219269882	0.008078673194970853
-0.11937925386366689	0.006869182562795232	-0.06967201885692782
0.06473366451957004	-0.03862242097907337	0.07665901585099119
0.05315355860930841	-0.02020226721665723	-0.0755016897789448
0.01211144453478871	-0.1438447499198667	0.04040579810476102
-0.035894178205411215	-0.18763750243370245	0.014386866719770769
0.10131072136298952	0.039123606635555565	-0.0006848185484364702
-0.0383604482066887	0.11583562491384557	-0.11383049527145453
0.15267016887699583	0.023879424941952426	-0.07954683194698264
-0.04067698648778806	0.09766793826360362	0.025425499608815853
-0.09072394209906755	0.017279540528395972	-0.1408890104811458
-0.16156931150142728	-0.08973676309245576	-0.15015370341709353
-0.004676458433838003	0.1457699212819907	0.002618014291523551
-0.012469775998436673	-0.02805473138028279	-0.16868298513375868
0.0023353801607748593	0.031476115213315656	0.023972768262813277
-0.06856252311156225	-0.07044632146965958	-0.06278806626789576
-0.002405305713164575	0.049606773952355604	-0.06191139724388771
-0.06374671428658234	0.05869506991367158	0.0795527001264169
0.04474699357408242	0.10337777939957928	-0.0024831915042910937
-0.018717731456947474	-0.03680590334462114	0.0009588684984498401
-0.015522470176664272	-0.12344658908958266	0.14877637365820032
0.06565367364653442	0.015123309835739781	0.12066177446018833
-0.08109273684918908	0.009449393188764879	-0.15617856290123758
0.10147694282070628	-0.04624952145605089	-0.0569633946309203
-0.025537487135567992	0.03640743422796194	0.11976180569427111
-0.05611930548310821	-0.08390134086069607	-0.022921565836697584
-0.07159529641522555	0.08734660083510382	-0.10946856420036115
0.18008280147699052	0.1233886564609472	0.04916066854185322
-0.08957797908338559	-0.14751322689939478	0.21363318463944575
-0.060349092610266386	0.01476999475691008	-0.08698616016112277
0.022850882322415497	0.07183449807171215	-0.007332216297370894
-0.08304796435609986	-0.07348291969872334	-0.14132080036020978
0.07384617424499729	0.04234045446445493	0.03895427296002078
-0.03178748564869632	-0.05130563653367871	-0.0008014813561329413
-0.008836805331663368	0.06967503422267213	0.11687706400483233
-0.018486070632258496	-0.06436555792371061	-0.0186051212633503
-0.05383912151207455	0.04171481130175073	0.06661131765515894
-0.1622038398001222	0.06424870506117597	0.20019527703491644
-0.12702361188958078	0.03157628525085672	0.03100309557186494
0.07460249174672794	-0.017162661134860556	0.08198039828365582
0.026623580272854754	-0.10814889484933968	-0.0019844491970065323
-0.13536843579148128	0.01996148926386348	0.029525250378078405
0.029998622452810864	-0.092958059353474	0.011492421118010094
-0.1643499229639424	-0.21210707587425365	0.3291315794381825
0.018480452504849785	0.024895518046517517	0.11868412246645461
-0.036986707476715834	-0.2435632473202577	-0.03732855600673531
-0.1840159247882444	0.1543245936801551	0.05376275128060882
0.15031816755024324	-0.12353495124264777	-0.12018302474313892
0.043315588810035686	-0.04852992940862813	0.12785623866749712
0.011198125935655586	-0.07227236354251709	-0.19557075702591015
0.005465551649443713	0.018437561325617916	-0.03238606565190774
0.050231885256988344	0.009446711609968019	0.10307415169651275
-0.0765435976647867	-0.0713872470408047	-0.1675369368204965
0.25097049701484014	0.031444558236601985	-0.08842787521282333
0.017352293515863825	-0.11332543239089035	0.0913500593720844
0.12912922168074906	0.15446547429806096	-0.01583231926277692
0.06046187958914496	0.06177559225435817	0.023404137134148913
0.027556065354074954	-0.012455252675406377	-0.027788429493543248
-0.04864853700249139	0.07761593583726585	0.10318497283428903
-0.08194224456366196	0.04262292328006852	-0.18241585139619773
0.18536095755312726	-0.08497286880196414	-0.10420527284115558
0.012531775151051602	-0.17255666582429807	-0.16416958946243532
0.1932631932993107	0.04747333042090209	-0.05526577851037318
-0.005546026715644591	0.04209757421477627	0.0218543734359944
-0.005628231539334748	-0.11115576257025372	0.023605679816599338
0.07848683513605766	0.12029805993824438	0.12741252086431856
-0.022036367607185837	0.13902681926298222	0.11700518527184718
0.01136882688154357	-0.10742612830033722	0.044765714864814524
0.06854104555595804	0.06081916182903286	-0.07739262929504222
0.07478173640337625	-0.057471898594168264	0.059135909210480536
0.11647758025324256	-0.1154298595886728	0.05321476581230363
-0.03551521872866962	-0.08003321153897718	-0.12455947076936534
-0.043494992026410724	-0.027421558365053594	0.26337462926954697
-0.0010750751599716154	-0.005233217885571628	-0.030751291016111956
0.18642063198772155	0.24069349088257275	-0.39764925319705735
0.24979017228988729	0.009878205854314892	-0.0325207215180258
0.10510009303469174	0.06651297305844235	-0.035851741240957996
-0.06802877826815877	-0.12394177440769469	-0.05261963289343916
0.1605791084012937	-0.04863735212275732	-0.06171874953773432
0.00820355107046194	-0.026036362240191912	-0.03993124638779053
-0.07613357335741934	-0.17412760576199948	-0.1433271242542589
0.07312388839342808	0.06444821728357052	-0.04762400260494003
0.07463453977130749	0.09359260123729683	0.0721506807109514
-0.05352591408767209	0.16404162493215535	-0.021521101593301478
-0.05331851300632509	-0.052859992730551295	0.02403772477532984
0.010373653574944412	0.01048011039479066	-0.013334375116733105
-0.024015387251587552	0.06807653104435611	-0.02592303509473239
0.13046446155127372	0.023332586028003734	-0.10090569488064959
-7.008956616446259e-05	-0.07631956659091584	-0.0024535020934932606
0.023194707596178418	0.08640083739445203	-0.20761453107074956
-0.03926038899539525	-0.00830444640861628	-0.01235542414393726
-0.12173005730311058	0.023535741867964834	0.07752074476572417
0.18083596983978673	0.0650137526251661	0.010388782124641067
0.08473958578743548	-0.10875270343730128	0.021884585740267113
0.0036908300395479517	-0.026488159481135344	0.11794367118170684
-0.008459777448859972	0.07789951564651014	0.12720164454922397
0.0026265010033405052	-0.11103658153457298	0.03601634181099645
-0.048026213468798554	0.1918086378125231	0.015507192535580484
0.07423891005397561	0.19158193164044832	0.045004579981713214
-0.08902941925310966	-0.16264864567439885	-0.10794832886536998
-0.24598026495771422	-0.19243499516468573	0.2136595664187533
0.12054394004642972	-0.07231837504767447	-0.02456350202886766
-0.06865904553049354	-5.8944215814971874e-05	-0.12306348175723993
0.036477503133346655	-0.16353276541765788	0.014618080199773493
0.0643150110737006	-0.13046106400365565	-0.012113332146771362
0.06144807057191701	-0.029711008486772838	0.010427636287704578
-0.020862129870534787	-0.07085441924689256	0.12940081823078292
0.11995788887907698	0.0342532733647043	-0.08931849199997438
-0.09580509644711481	-0.05867633613872174	-0.08773442065231059
-0.03364077601401964	0.07656867710758575	0.0001574659683939619
-0.16311853502328091	-0.19849551985621586	0.3733653820076197
-0.041147835784511456	-0.14225555914498358	0.23715816272929924
-0.0741297129663117	0.07327667915272465	-0.026219954945236882
0.12909646456488894	-0.050893762762258314	0.1489791515187678
0.059195683130901185	0.12138738794909257	0.05200248381085365
-0.03395397303152485	-0.051379418272650836	0.010762982766539744
0.04739632703387804	-0.09351924900723466	-0.18230648838573338
-0.11316859909450318	0.004394292856360482	0.013732844240599937
-0.3530405864880648	-0.07843016605784292	0.3336286506478648
0.010330903058111822	0.012088413045408395	0.12742883583592704
-0.10662183547045495	-0.008585978725893178	0.048321405457292854
0.11625381057146107	0.02532777591588514	-0.021245533038511996
0.061516454708530975	-0.1793665634210255	-0.09450629569129984
0.1299227044706436	0.09083255041992451	-0.03790110984259806
-0.09882229389659755	-0.00567673302629319	0.17146007163284707
-0.04982657995804503	-0.1210905132761166	0.005768654743676439
0.002958614933249776	0.013760074102311996	-0.05463754151823205
0.11677580735238147	-0.02229661276041398	-0.14075790363048843
-0.009055891760555065	0.08942520533632958	0.06209193672352278
-0.009105878079082988	-0.0013978579615124215	0.1831709815947845
0.029145834449089962	0.10310744534521625	-0.09369645273882424
0.026451535343012197	-0.04814172842041596	0.07875077244801186
0.09449591742403944	-0.03416241335461099	0.21975601009389026
0.04022292926192478	0.02033310200483832	0.020603064984433407
0.04355042055255218	0.04205865130270968	0.08581467974103084
0.13348365059448594	0.13792821436922412	0.04934418096117145
0.1640260070830663	0.08626206789968152	0.11253038976071254
0.020013649216651868	-0.08615762211799417	0.283077861029684
-0.027039882119882695	-0.01062373727469126	-0.12422131591491162
-0.04227784560010439	-0.007629978987301496	0.02153477058055812
-0.07719629551142491	-0.07833676354545749	0.0385965533728213
-0.022267465130569108	-0.15426272797961976	-0.04497160358333159
0.15522382856159903	0.11966182622862574	0.16181742670905863
-0.007824435673961723	-0.03992620751049151	-0.1157477231980695
0.04141869349346502	0.05238387693787112	-0.11842905984674804
-0.07212631655044564	-0.12708113599132975	-0.052825046568857476
0.16182474448705705	0.0831419544867121	0.04543677015626214
-0.08009995017555853	0.060496806167022514	0.10627270422563022
-0.01902609664226966	0.16935804559450354	-0.1902688627358154
-0.12034753606367538	-0.08465890735603933	0.10567802424693302
0.06760499281298235	0.11795771700915729	0.16968589098571057
-0.04094978347938857	0.09692933701558709	0.0766231742679505
0.23600614659832736	0.2732197612172305	-0.42209673406324394
0.0923258523471111	0.061890205596679224	-0.07991962908415738
-0.19763375245024697	0.051065205071042424	0.12211460869732543
-0.09955887851357142	-0.029025042149081012	-0.05958746372704021
0.1316803715799339	0.015299775827853078	0.00899953209091774
0.032803046647296046	-0.17821880250662803	0.09559737794101002
-0.0222227800069051	0.014421317383459366	-0.049102784289377845
-0.023523216639681013	0.09570204988283594	0.10105972990606825
0.09126960260559916	-0.053178907338971786	0.05639134868647164
0.013290417358643947	-0.0989009362947472	-0.023552009669854518
-0.17895915033979734	-0.07088918010120926	-0.20242591279978742
-0.426585524521315	0.0412961197123009	0.21665560448483856
0.004144850861024133	0.029783230274465767	0.030644914701045932
0.014728064091572448	0.0310119927418224	0.013724189832758568
0.1968850558514537	-0.06546339947854896	-0.09657967588380048
-0.15506808365859823	-0.03885197863521167	0.1658052823605695
0.009463708199163482	-0.01669909100336949	0.12006792291282747
-0.05005287836584987	-0.07043001532761439	-0.1278696074488031
-0.01749518189111715	-0.12177926428616398	-0.01286795559190596
8.004689473322723e-05	-0.01768165348877615	0.09443704204099111
0.03190194189682793	-0.10531265367926108	0.023836774941783545
-0.09648300284720869	-0.19700503187705815	0.03492534761845754
0.11488026480816386	0.02827556264282776	0.11799582403741506
-0.11198253784261791	-0.25255942507005	0.0319239887669701
-0.01956513907973285	-0.056146037873008016	0.0852432251392686
-0.023241706596918644	-0.06370932721285284	-0.08197624077272081
-0.011502972148327661	0.14846214102708294	-0.17908950951751335
-0.013277733079286817	0.0310933501668323	-0.09670485081937949
-0.08787533166958719	0.11468966288681222	0.1277807883475338
-0.025412127233032253	0.021126026902309306	0.057465537847361144
-0.07121413434925544	-0.03232750964734137	-0.035654165110579845
-0.020465403925459473	0.06061208441203805	-0.15499336864667607
0.02846178013953677	0.16410278114357565	-0.47584639524735795
0.1966442338705091	-0.1110635606299836	-0.07866953713098492
0.11208436857666598	0.018038243376505867	-0.15516309218014424
0.06533407103725891	0.038916679250460634	0.081589612701788
-0.21332629976191372	-0.1874636637358875	0.04916643428808101
0.07390541218637585	-0.06610242434688982	-0.058377156212932546
-0.008303787478057763	0.05605720163672989	-0.02613575362516892
0.007218182013453611	0.09446897819084807	-0.03675523751222229
-0.006219186272833123	-0.02856370178942766	-0.22746610219874394
-0.07273151603441036	0.012079022952292674	0.012302688344147602
0.024118930062511815	-0.046148611089457205	0.2953102866761116
-0.04287051250024447	-0.03384362331487632	-0.02479729471921421
-0.08735306676900477	0.10881146268102482	-0.21582493273451753
0.03367250801902369	0.001316540857315193	-0.019738351302201706
0.08664435567238701	0.10085353030399302	-0.0008087888105829514
-0.08428410651871131	-0.09806599341249875	0.044699290439912505
-0.00342461574995979	-0.050048506459877004	-0.07129876150215286
0.007954877748316193	-0.323150091460519	0.012086715065248952
0.028155665798995307	0.03143993786131248	-0.10011884399480533
0.11452471440279355	0.11217430949941258	0.1351459305152693
0.10152950366354901	-0.08594410287446061	-0.15723011725243194
-0.02572085112948485	-0.018900642986945274	-0.0005870773842655889
0.1698773108309697	0.0024797845131444276	-0.06076105317218662
0.09934686899619696	0.08023325675197261	0.014615422883149733
-0.01994959281722488	0.03864143094255134	-0.16903540110736373
0.016278691740073393	0.027097596707168863	-0.05084217849539636
-0.0024065518180284105	0.0034465478767822973	-0.020137413258103518
0.16932268697934863	-0.19933720819264997	-0.10497862769453586
-0.08075478981786496	0.05200848613042345	0.07172718290421028
0.007479220327032617	0.06515009726349136	0.06929785244547298
0.05016265020514636	-0.06721474248605434	-0.046574998801652216
0.029436028315670045	0.03129424063697186	0.21103421675092246
-0.10469576402958591	0.04655126957451282	-0.007635721061523895
-0.047242036229437956	0.08185935505824214	-0.046198857177462374
0.13426423756051906	0.024310300946295084	-0.09711772760412668
0.0707692732857107	-0.07494149514928039	-0.05296333840600631
-0.06846897430180014	-0.06346975154467925	0.021316828474019923
-0.10824352540066637	-0.028279602035849727	-0.058773515411538205
-0.0664426526638805	0.01716282731484939	-0.08972578100231482
0.00035789388521946644	0.2082523294565631	0.12313434488914372
0.20683280759448772	0.11388652266045066	0.17186126001948251
-0.0354076787433669	0.00951854751930126	0.05628878263171084
0.07470050547827829	0.03912240727166017	-0.031573503100851705
0.07681279317055227	0.16072823883674714	-0.12899549969366514
0.018646721256819668	-0.23276188853805888	0.06223604902035807
-0.0167889777901026	0.05059533066163005	0.034218430825344794
-0.011058716954824072	0.09775559011610538	0.017213684264305213
-0.02161804194115622	-0.017368800815665945	-0.023702210332978826
-0.02719225209191862	0.10794810260927473	-0.05632891335341596
0.011244236743011045	0.03484057853966505	0.051727087284580656
-0.12350483602613292	0.03632123701114818	-0.009914105665641399
0.051051516912012866	-0.18242516254486482	0.020802468626106532
-0.005991082254185003	-0.14684136257774283	-0.10993924217380194
-0.0004513956649756897	-0.07726815957212287	-0.25511907862116767
-0.1466818879890042	0.00890577351645813	0.16033361786941466
0.14948114545538785	-0.13432323215456285	-0.061611950278600607
0.03672233529805476	0.01948280741900151	-0.04231900060614748
-0.01894111087552773	-0.011819786750439064	-0.02615909140867537
0.0006617945506121011	-0.0024958376822399016	-0.003046857313626814
-0.18528008301496687	0.1017813753208879	-0.0021858260027856355
0.025989605242977484	0.027313001800647205	-0.0095489450029884
0.019317383939000368	-0.23902647780707273	0.4993464718280322
-0.11962733723481513	0.030883628052142675	-0.013470641062654727
0.14380207270209325	0.15074058642583618	0.08485329884269412
-0.09613244550887402	-0.14609893359189713	-0.04148392724353666
0.023176583438907432	-0.10548112558980383	-0.046931709747924016
-0.04523920365102546	0.16944458172720908	0.08641488187893055
0.09502676101597218	-0.0183040004052963	0.060039063377221646
-0.039057788515476526	0.09453995280374321	0.15943727217760148
0.07469256302433842	-0.003973590546022142	-0.007693516954103318
0.05706846756949668	-0.09057305332612732	-0.00200863125974734
0.12742701598030307	0.0025961163977138604	-0.04131172162516036
0.18765584651851952	-0.07269056349792768	-0.11916312767180866
0.025066475279219076	0.06505619164890912	0.15094139842125898
-0.010631032330913073	-0.11767098144921727	-0.1932256769970196
-0.11613031236475639	0.15403438248731238	0.0697078420361051
0.14555629722854163	0.0009159297543987661	-0.1377818380713595
-0.1127307953592722	0.00526139204339613	0.08120225659402451
0.15853815802646448	-0.08204793500345336	0.033340448498233775
0.13451492966961365	0.03840424486416482	0.06926035365104403
-0.163394293430928	0.005169519620614266	-0.043268474173289266
-0.06308318577179356	0.015105851125788551	-0.012309422641845966
-0.19344903138347552	-0.003188849998147345	0.030195765736915736
-0.06433775856940757	0.06256648280934865	-0.018838033452502848
-0.12231544928274757	-0.021787880418851293	-0.018349552499281038
0.08773920942307542	0.10816240125871927	0.015373257309377544
-0.03892592691650366	-0.034305399898907865	0.10688380486321385
-0.2786627384223605	0.022710625497830872	0.24289110670424718
0.08703806714269893	-0.020593259837108822	0.11446641109958608
-5.545380949823323e-05	-0.008163101228748155	-0.06776386702352116
0.005586048530938996	-0.07144587692291404	0.006568381320599521
-0.039120802385358776	-0.11416334769528919	0.053281995263939244
-0.0038948269226502814	-0.07347186544393337	-0.009510910964369667
0.09077281539066592	-0.10251656996451612	0.11429558466856683
-0.29550424380874124	-0.20436559912791946	0.1029410617422119
-0.03091786087528176	-0.0037148403493194905	-0.08519077454938943
-0.23180386712239429	-0.17529453944504916	-0.002275949301161603
-0.07016231181552915	0.09566873218909526	0.01125331667379671
0.13664464429247425	-0.037373800495658416	0.05266377418806034
-0.1457366146322799	-0.08785960660695226	-0.07726954165126478
-0.059922910701332356	-0.07567432733147558	-0.042328828086087004
0.04530159291703984	0.03805457647484124	0.07309255780635289
0.05690956231695494	0.07572856324146061	-0.1422299006897997
0.21907958867695657	-0.09039575419177588	0.0012544953579795325
-0.11906574284916291	0.09505919334388874	0.083825441858394
-0.013964068971372267	0.0691883740914872	-0.07811651874312169
-0.07823169278814093	0.07464642124104334	0.08151972150218134
-0.10868958412494334	0.00017252450271767003	0.005906853540126626
-0.06802090050491465	-0.04928264956987804	-0.07595897916659536
0.0448820046456572	-0.04854420486872448	-0.004041716885871175
0.09230042506607693	0.06603849091178594	-0.01667968033945777
0.10102691355280478	-0.0023878962098093674	0.07635577991603519
0.011931893841391587	0.013876938831281103	-0.04011750728911682
-0.08556567925583157	-0.12181092257577829	0.006478655364045911
0.011631637656256482	0.04742134230808912	-0.0650436464136802
-0.044329540120330024	0.13454473582454082	0.1831821209557415
-0.007252903254144565	0.03301779348786844	0.2274497144580801
0.037855536215220364	-0.10409533872697548	0.061975125081590705
0.19382566183993885	0.024255935814301178	0.1271309444508811
0.06342457360958725	0.07101846375231059	-0.06709197673122287
-0.001107231165906821	0.12981957008884137	0.0294526032661078
0.15861736581053298	0.07223151767987813	0.05842082092707662
-0.10735314994192258	0.09222085338911847	-0.13275465700594233
-0.11792271969849517	0.008625626701871303	0.07482946873704574
0.12298853495399842	0.16546754605903571	-0.06622554654112836
-0.3287502406673112	0.00623915932816375	0.02123681309379314
0.04327649961190815	-0.06865730847379461	-0.05193629688019624
0.012403660876767779	-0.061097911155491916	-0.14909987784092238
-0.02978748193088073	0.016529175486117525	-0.12911389351896255
-0.04706421664816299	0.03084453192399595	-0.07475661305858988
0.059610879633917424	-0.014590759188388919	-0.10202889413055258
-0.030797035572465575	-0.08197057397216187	0.08250022423600034
0.13473351738375222	-0.13409086671416537	0.10084923930977122
0.05576347370177245	0.07482536855752471	0.10436901542185249
-0.08995857614122549	0.14591509795491778	0.009490008036627336
0.12986096569395256	-0.056587304958481584	0.10354978991593618
0.10921338535098232	-0.09495323482511284	0.11597556469076646
-0.3048254792040119	0.047162195192116195	0.05121984077966752
0.006679202522876722	-0.03272671257154299	-0.08707322374505044
0.16616260266063634	-0.25114613959865945	-0.137682964003532
-0.007679646167430518	0.11591970174519046	-0.0769688725979941
0.11649227196007092	-0.11999100748414657	-0.00617385751382208
0.052919475420299296	-0.07980500527643268	-0.02372629941604649
-0.06870795822525684	0.006295665254521007	0.18812688303458433
0.10249924834368847	0.08161347300221668	-0.03250541103164437
0.09543136893705285	0.09834227997052084	-0.02873986359734295
0.04553572766304584	0.04053689501265509	-0.21181300569879957
0.1260044902971325	0.13832833298903147	0.20345006754261785
-0.08089264545130213	0.05947638425153698	-0.0509647453907072
-0.03243348923711749	-0.046928063717981854	-0.12033019104427312
-0.03027496264464421	0.1326540175915557	0.05028216821377643
-0.0002226665340417755	-0.12769701587063834	-0.14682494705472365
0.08618092008032761	-0.022664805091336986	0.014067578030225403
0.04484126100079807	0.057548164658309794	0.08786629340110834
-0.16413489500961098	0.05990210169877918	0.017263904439727053
-0.0017821751286258578	0.021133312231336288	-0.09746519331879565
-0.06640532601370021	-0.0064497150653342415	0.020757775880247915
-0.10110103893322166	-0.07328619998748404	0.027923102250471905
-0.015601789962648055	0.18374662105666426	0.02766627874959798
0.0678916144563286	0.06655647345594547	-0.0095091882665103
0.029537151447015464	-0.01538717089683009	-0.0061550135568542415
-0.1322856665399131	-0.027415863940782933	-0.2128656458123766
0.23903192850457577	0.026400757076850644	-0.0659261776230585
0.033902508071772065	-0.05697045910376789	-0.17771341316826253
-0.00022877154756271613	-0.06345405449693757	-0.015691530823106804
-0.20615820179557948	-0.08385138515884269	0.00701272676272309
0.062198285369397165	-0.17689224740497828	-0.16821300917546791
0.10872006961303857	0.028436352002343485	0.10644488688815827
0.13837706503822994	-0.06338104797797618	0.20200127847207786
-0.0509810050860276	-0.1211788181790103	-0.05901774801740957
-0.03573340038566892	-0.10910096304955412	-0.017765013662948973
0.15893394854388576	-0.048943195262118024	-0.008156793274298036
-0.11838641776543796	0.1321776229725469	0.014894478674427713
-0.09714806622231202	0.1361140486180204	-0.10497912814801423
-0.04896893999300018	-0.0023758344602542378	0.18055651063272224
-0.12370122194048755	-0.14607438997366745	-0.13537221319925444
-0.03952480799266888	-0.02860920648612323	-0.07561632918121432
-0.1552169441035597	0.016047495229151217	-0.0781873406890391
-0.18288002161964906	0.04119361632006863	0.04873708806585599
0.051196567312796655	0.05108192427523246	-0.05070435914567599
0.12212301273040065	0.09396163343805976	-0.2124521395202169
0.06058339025290926	0.15191141986058299	0.06642077899069486
-0.04849117035542189	-0.02297250920100952	-0.06523468171184064
-0.03247722547274081	0.1414000735987566	0.004631650001289562
0.10289536344919491	-0.11185091071631564	-0.18707033464391706
0.20389700176117584	0.2828461105188244	-0.46391607832223264
0.10975206967485215	0.0241586487521353	0.046045450784952584
-0.040554728409949406	0.21368493318004766	-0.0017765293275986901
0.042135690024249335	0.12504216346306804	0.054156261518521334
0.04068247534008904	-0.06991211343566568	0.05971054039584247
-0.17155558306580138	-0.03139250792344767	-0.028212799300516456
0.1753073614936813	-0.05011976482629892	-0.0169483464238878
0.0805728450527421	-0.11944152064017752	-0.08297092177232437
-0.0515160743706403	0.06593930727228263	0.004697091914256955
-0.04385280669109617	0.02125796954363311	0.16661497600236258
-0.01166949187071293	0.02947221755601812	0.0898611663073763
0.07896583492720453	-0.08283060494895311	-0.04555108100682412
0.05305583417896333	0.0937795844682499	0.16473902426529885
0.1409253164574274	0.05082308431434961	0.035948083469827044
0.08634925081273666	-0.03047872021474811	0.16741277952062414
0.013858979264196545	0.05164860149439821	-0.10195040131219095
0.02876622803717323	0.022300173789439184	0.033023187395413295
-0.01573873165966476	0.10954885523886591	-0.07817221891365027
0.00579994749274744	-0.021286145886410993	0.14415162617447497
-0.2487206892629893	-0.07456086196710603	-0.07677926789360982
0.10273315529351681	0.009983345281360651	0.03655852911185269
-0.09505640433570174	-0.00933205995446721	-0.012743489682532206
-0.10515207506849046	0.09833772021195063	0.23992327468488783
0.00814101597261854	-0.0391698169259248	-0.14693955726590366
0.12857299086927249	0.2776293687013858	-0.12662757656364135
0.10445272232048781	0.026238309444789765	-0.15891258982174533
-0.0016595125689621779	-0.08467853887068602	0.04327196350371641
0.08498872374592006	0.09036727733627492	0.07522071412323408
-0.2080770213910438	0.013151415502997395	-0.03025021336526186
-0.039678403752040674	-0.03677972205812204	0.10752790106917012
-0.11722031754118875	-0.056511992422602665	0.1826454006751575
0.012031534474718069	0.02559388418731115	0.07717056977681828
-0.0631524888008098	-0.012760510056087656	0.05041159759867161
-0.037293626950877186	0.02515699722030885	-0.24433633020992163
0.08492571083577519	0.10210093829302512	-0.05393102773783723
-0.08464111387944674	-0.02608092108726659	-0.21943008119869917
-0.029474985106028407	-0.09526212995817611	-0.0001530433726806836
0.05288591591799616	-0.14935985536061425	-0.019027630640974673
-0.12866882889510697	0.1807454629175439	0.06839053313365392
-0.07260978481989178	0.06832859338748423	0.05101927666652083
0.04210583794619182	-0.16441623049557888	-0.11035117178527036
-0.03675073940243885	0.0443671134726522	0.04243620830797738
-0.022209705107416707	0.04388842632393075	-0.01188656876659752
-0.013117787035582678	0.029778543950864406	0.16260537211192932
0.0898250591985799	0.04356932848236068	0.08153241261359953
-0.2158609654065852	0.12657802710321994	0.04953795558474917
0.14271784008537844	0.11624721283441591	0.24741860315634442
-0.060184519216481096	-0.045655523732587244	-0.08584142598459392
-0.036316322068798895	-0.08626433818626221	-0.060936602251312214
0.1265038472298671	0.013488496050087277	0.03672490997442478
-0.1066163014048101	-0.054031946627124176	0.054073670777984244
-0.06388177846627784	-0.11696472472849374	-0.008643921565583836
0.03787338237594825	-0.13028976795134017	-0.05651267038034458
0.021387095653594475	-0.08166350511450231	0.13672363738642374
-0.038322345800867005	0.06490350135578062	-0.12382527714789765
-0.31599839455104917	-0.03265860429534897	0.2047878223801157
-0.08405119550763097	0.022882006469462	0.10667214488159629
0.17691180497209727	-0.022861415496981157	0.03921695909826245
-0.05191770380854298	-0.05177347517607266	0.049683664406002616
-0.20317317446298241	-0.06381997195320073	0.009304575985898967
0.07561863265408615	-0.04586633370138797	-0.005287804877550568
0.0722922127610725	-0.008460078405431294	-0.09388906526058304
-0.02518458431246689	0.043596563321594665	-0.09527245709593539
0.03735494216809629	0.21295409472412866	0.12300634990818496
-0.10385838315991221	-0.09345825901504731	0.05960636155805097
0.04032372283470972	0.03175545306608604	0.06743796796781384
0.11483721031638228	0.017459632951127322	-0.07867879295473114
-0.10047759558622442	-0.02961752234113353	0.14184308636575535
-0.1095224319490055	0.09468077947236914	0.049031448972016965
0.019140931100259585	0.061968710565462694	-0.021872595077214306
-0.13959484446679601	0.0031427123145965096	0.0863372727203088
-0.020520136305256453	-0.02504807074225947	-0.08936599697175145
0.0738866830455782	0.04694988806464816	-0.007068067590995353
0.15948029519048476	0.03882507390431559	-0.04063439647704997
-0.0752732803541386	-0.19058045967182793	-0.0853899671939519
0.07360751794695335	-0.08847740920074197	-0.09906911316045676
-0.06080252935208491	-0.18422434554258243	0.10191310771204547
0.010922091795863856	-0.0842892580416802	-0.11523353096668651
-0.030716564869638464	0.10298330186759942	-0.014199572027854051
-0.12089565878358764	0.011135484859310986	0.09997756450937845
0.0960935905561537	-0.0031014090452226796	0.137874418933333
-0.11214457235754291	-0.0692610413634543	-0.04162995445423161
-0.17426010347864265	-0.11049614989910655	-0.013096740237745102
0.0023744159588755943	-0.04252763789559568	0.0781097862941177
0.1562624974482926	0.09104433534805828	0.09235118038659564
0.18080973730871785	-0.09615530945506214	0.06702738642747053
-0.07734812026245143	-0.06781341587323778	-0.13680647493779632
-0.10564743461336494	0.031364929537377184	-0.023622922373703375
-0.28163536600000383	-0.11363315639272815	-0.02782491622402391
0.12217730337044859	0.023193751835026557	0.27351967021171913
-0.14527934889048336	0.11128975093808216	0.08356508046609089
0.12306020185639928	-0.0632426411170735	0.03109405089033501
0.07874384609944841	0.05201235775743702	0.059115445341627756
0.05291854947118534	-0.08975638428750146	0.27190465622916155
0.06343252079428154	0.11833318608989576	-0.056423356600364696
-0.07109060130566972	-0.11738617151182372	-0.0013513254262039716
-0.014290151129257814	-0.055514759701216124	-0.09243565980669152
-0.02385610913016724	-0.031184704418795433	0.0272914893829578
-0.046256170018127866	0.10796149682978239	0.06587806098912656
0.03978481048727732	0.11687335897434845	0.020588042159090002
-0.01830439935250568	0.08984707368246375	-0.11083894101786777
-0.06174621777878983	-0.1953660835836684	-0.07895734958799241
-0.08282011225463938	-0.21077339239748305	-0.039125327708780896
0.16026457764794924	0.04688204275985229	0.08510924434906478
0.10832489076124846	-0.0037796439509049534	0.06480918744766419
-0.06767262315763141	-0.04582350072817441	0.03655942856243949
-0.02140600621688476	-0.08734608971685558	-0.058669125786821326
-0.10859498834307879	-0.11651504226275176	-0.026629982137241822
-0.09504545616209548	0.014913886246867318	0.03617702549883573
0.052178209859487935	-0.005287189837300381	0.02322653643202023
0.03875296413132812	-0.014959567295229797	-0.08320367929210802
0.19061102985378997	-0.06604172227653318	-0.11035023846948017
-0.12834615511655262	0.10602898234346	-0.2079713855812018
0.010567676055871616	0.07856065717806061	0.19726101225852122
-0.0953812864505591	0.10692224118423958	-0.028162177505219876
0.09968890096098436	0.002673513373211116	0.05667037636458511
-0.15884809033609823	-0.0234230237028094	-0.0018255740896956792
-0.0962876417154025	0.06506778776643429	-0.024252618170565433
0.1185488363539113	-0.056384974997178844	-0.12929091766864517
0.06937721986822534	0.07394753143190551	0.02813835062921775
-0.04638420927209006	0.011929873503136429	0.07752873835492077
-0.00044362877652604047	0.08535506551443019	0.008842909810466443
0.07766626140143337	0.13063882277804792	0.08859412216359461
0.06945472049153259	-0.08064164299430424	0.08776326127329387
0.06927271771365169	0.05958802386265335	0.04546666800151132
-0.06789801465465015	-0.10343884489375561	0.06667460244673329
0.0390907681590309	-0.06632020610151038	0.15323609757961845
-0.08040253018995519	0.1405755048241821	-0.11767180321061482
0.035145927793075765	-0.019330050258477133	-0.09555627819260525
0.09790169517742074	0.033621767256565904	0.133888392460878
-0.19222152747893803	-0.01415170540476503	-0.07956362725403068
0.0866457487734747	-0.03935605649479438	-0.0981014259440219
0.05097598659762664	0.04055825325537988	0.10864974058902135
0.08669964797314927	0.05966623160147615	-0.005689899288799911
-0.024690350609235395	0.06658446864979951	-0.08502718143074774
-0.1153766439653543	-0.023053791080081047	-0.006572606675015549
0.060078973062834086	-0.04256806418467071	3.7615006122444306e-05
-0.005255903132671435	-0.13111797185994392	-0.07203504397281461
-0.14686483668602732	0.03759021651350037	-0.11370072713301355
0.05825718204014894	0.020534025040242425	0.09349728581752122
0.031783511852020385	-0.05052516305279493	0.11352114241392604
0.027722314121364	-0.0021968756142592425	-0.1146955766758353
-0.06600628659953384	-0.041446009086844905	0.035619175031953935
0.10734555068586078	0.06823831622678239	0.0690590026864142
0.09849813814743116	-0.06601580834179184	-0.040709685317078255
-0.045285899057360406	-0.0537976200132793	0.17179047146492812
0.0930568800887003	-0.028720416610995544	-0.048443495917888636
0.004813486034352045	0.057281742074172325	0.13165986789193151
-0.06684511937972282	-0.029438855750549175	-0.16707993644240546
-0.053883631689251914	0.015629516684932215	-0.06003324671356162
-0.07399252880867842	0.0669694058310301	0.0020737604622361257
0.07604164668011253	0.1537615844633672	0.21422346977429005
0.08153371838746677	0.05354218374216517	0.12792059316603036
-0.08003045799525862	-0.01757028647802199	0.05461771598316244
0.09472618586140252	-0.02857408935190151	0.04948421959466674
-0.01885340190560177	-0.02425644059811798	-0.09936185671443314
-0.013849647950944037	0.028516571841894614	-0.05352314349105774
-0.10260128612540749	0.022717114773239233	0.09617002807837946
-0.060944316336389685	0.043852921976991074	0.03697901643275465
0.10653123295657335	-0.12718912576755342	0.08494560681212696
0.06109133027673804	-0.03421647982452517	-0.12825729724345886
0.046812618172787694	-0.10056060697670888	-0.1772963625448542
-0.13789556168213002	-0.05467889021474781	-0.025109897481580035
0.08011084734774548	-0.12092911326179483	0.012601533325324741
0.11725199446653416	-0.04662044196866008	0.0673986870847718
-0.1413871589395573	0.12516857781343477	-0.11834439595393736
-0.1481579133887917	-0.05539210057867885	-0.12287031768271144
0.06461617477118926	-0.04983790114807195	0.03646137460058852
0.04996607998061118	-0.022616051134351205	-0.13231840423159755
0.1358240505166726	0.05267314842365695	0.020254782728793313
0.029586010695275784	-0.04642403884781742	0.1317304209748262
0.050943204211841564	0.11153567945262394	0.08175520044648386
-0.1604701390641404	-0.13730442265599477	0.022547201387962672
0.030179262585158784	-0.0923876154375391	-0.015448899790908062
0.07569442171408251	-0.03289010580321375	-0.022931101641645326
-0.05268876500679359	0.0008372096351035536	-0.05458739590020831
-0.09696620328007009	-0.05120863899382251	0.06535247066358732
0.007713419626792083	0.04917589815542213	0.054914796372701094
-0.0050044636643406465	0.029966795213648707	0.06213336227883809
0.08863884247413086	0.07259071436394603	0.08758547950570604
-0.00412521793337466	-0.00824141231317637	0.016965811127443987
-0.095963963882864	0.16982238626972174	0.13889017055842443
-0.02690001795416973	0.04469594311725079	-0.04253588219671873
0.04802225351820702	0.07880911841344339	0.0023187022935724656
-0.047817749099351214	0.1778054272920826	-0.13001883101573236
0.09135406054694217	-0.08391815408497978	-0.03169397141463493
-0.08985254056324816	-0.05583835720481533	0.028851769591757174
-0.009087274528575969	-0.20796138166692085	0.044626426162188884
0.04211605233805611	0.050429411736221626	-0.08164153932080714
0.18479497529112257	0.07700645685567607	0.03289482460145105
-0.027041769550226958	-0.08273465719070398	0.019621717581283976
-0.05026152014735219	0.014280812678202234	-0.0425462649627613
0.1798947846882489	-0.07419290684092583	-0.03000082791361137
0.000608585081302616	0.19541265157491708	-0.025425301842383265
0.11326464126533069	-0.1456168865100469	-0.16688040733076337
-0.15510862014191973	0.039820087814267435	-0.07223525930562544
0.055469776921523585	0.061382768521433755	0.08794449144056497
-0.15792234233324345	-0.006305722634345525	-0.1317674316597151
-0.12584217989449026	-0.11710426908673413	0.08341596647724572
0.13352830207141722	-0.08421660029930632	0.07962697104853171
-0.16496895436335515	-0.1780151284146847	-0.018298945169452976
-0.09448044461655855	0.07521749480072915	0.05271187536917467
-0.16066191525940096	0.048335375032603	-0.09409837657778096
0.16698698506689044	-0.11361822493904325	0.021030963429568093
-0.058374771005028615	-0.11450992174155881	0.07499018795215835
0.059066232709214975	-0.06910536099336745	0.0482554524154592
-0.14718116497252218	-0.07758695002052349	0.02029237078228922
0.08949399767704161	0.024441472185694736	-0.09450338972364211
0.03309428471940451	-0.1909815412438353	-0.04047909833278113
-0.05454529649336496	-0.033597144598616395	0.09033339197319559
-0.15716743384749352	0.05869483964931495	0.09406349952615442
-0.10126358286011362	-0.05617672029610385	-0.09820692693711384
0.061212840023334346	-0.05715148241719428	-0.08463673517139704
-0.20472354919035898	-0.17439551452178448	-0.026527128685683795
0.0020288247329398996	0.1069294727790734	-0.11829922959063449
0.17014766334936196	0.05895152150820135	-0.041199854008561416
0.03141958957201577	0.12504821167767416	0.0685293762897741
0.12119547518579575	-0.08135577756722048	-0.11803277863784128
0.09750830254219406	0.13542197952008717	0.10078979921422784
0.05648793215131329	-0.23743268294537645	-0.02966772270918082
-0.0569745730906837	0.12182553001004348	0.0645028848088804
0.1223670904881496	0.2193318821913094	-0.25420814102314726
-0.081831718712243	-0.09480798839123997	-0.011263598327440715
-0.14641296134274265	0.15809169894810843	0.027987337898752556
0.054510784879825296	-0.09746958776372877	0.061417686741608676
-0.0005991263128355067	0.04737955578669301	-0.07812147677297628
0.1265689925450499	-0.1448408710940551	0.07746705303024175
0.0978442001921186	-0.12539265740761427	0.18457915399848776
0.021591075321866843	-0.04074347552180465	-0.0024910944165075976
0.1982622944876164	0.17951132158025015	-0.04325274649838247
-0.08498409717287418	-0.0694030780082476	0.08674326319393617
-0.05077549709328592	0.018633166262887822	-0.05328579733696153
-0.08446192772527421	0.05831923455379425	-0.2769043526379163
-0.0945071712887638	0.048463433136787006	0.1498943113301169
-0.039116235484727584	0.012457898962344402	-0.04085779937151167
0.16031078444960703	-0.04680483872062567	0.038538777058218676
0.054838480347387725	0.22080370599411503	-0.11257156250059289
0.10409107802904462	0.14107713112622947	-0.09432314371459177
0.0609543203980114	-0.03364938510161784	-0.04054724305414115
0.12851625605842668	-0.09327820529071776	0.036469015738374064
-0.020856012362459927	-0.05499205497213187	0.09408625254547813
0.03395777819535941	0.0668392063122837	0.046808240339476025
-0.043989382127289	0.05069578681723024	0.05605908045483109
-0.026593049103729307	0.0257049339836414	-0.0032200591225277336
-0.048763439584517614	0.006692883309719223	0.05877708056107027
0.04072171745051322	0.01788328405767247	0.09247271525144829
0.027959445165423282	0.0788994280543621	0.04355452073865224
0.22107095093120394	0.029905331035043118	0.0007985547619082925
-0.016990304532474274	-0.02992956291423387	-0.029946008378294305
-0.13131446471482394	-0.052970875783152106	-0.15509363406565121
0.21123111586851473	0.1511274497505205	-0.005960333147053873
0.03835473211651393	0.14474096723796456	-0.046276782921403914
0.13187833446611003	0.0852847724543543	-0.014921517816414955
-0.016410397902445275	-0.14265722476984957	-0.009311770793919325
0.05567866339326705	-0.06915574746960275	-0.17877029176009798
0.024201332810854615	0.002325342095396344	-0.0706885612961397
-0.08779563005886805	-0.0801597467255905	0.08351016566674112
-0.136490723191863	0.08305297292227175	-0.026693190212369003
0.06992518591770962	0.048271725910767185	0.24979552561480006
-0.05292316739746252	0.047374561192131015	0.038259431517967
-0.07308898543541992	-0.13699878432306187	-0.05980464610802584
0.046248339550433726	-0.04482874791208714	-0.018804964385963914
-0.04910587110052027	0.10050070547093098	-0.04571026273127566
0.001075615335059471	0.03995912588982115	0.05170028682904859
-0.07805033894213874	-0.13085295443786443	0.10452633544474906
0.010857893429009332	-0.16901219817326785	-0.06526741650984254
-0.1009964215337262	0.016818028113285095	0.051396361299061215
-0.11571789344620363	-0.06220259805310133	-0.25907300194635896
-0.052149122057053056	-0.2258846041921282	-0.05370048194443878
-0.2605650243694967	-0.009033842264156032	-0.02804589400400091
-0.03216032928718386	0.026339098686901104	-0.1721974764971723
0.04025380540359271	-0.23042820876998063	-0.10872148390077682
-0.10471602218939649	-0.1530901995682791	0.07068475445499492
-0.003909231944886175	-0.06513067022120177	-0.2910320992623579
-0.07945873258573552	-0.017522839244366952	-0.05210468979371216
0.09779524258381284	0.07662888833902051	-0.0420771104164153
-0.04920819207227889	0.021234145460468437	-0.09638396685229003
-0.08753524815894488	0.224989876065179	0.11409322211432266
-0.13331200379944608	-0.09491219093796632	-0.03904253741599143
-0.055108367382939706	-0.06169871601754208	-0.06049544471672878
-0.0069062373002503116	-0.07838633297149666	0.044833562461748085
-0.14431097641737642	-0.04850917021754449	0.2193513154666823
-0.19337670278367694	0.0472169509450959	-0.16056919528021119
-0.016677931739724185	-0.09353694489788598	-0.033626811027379716
0.14912088376847257	-0.0660104483273578	0.14679597493277463
0.004391812646685926	-0.03338803350827294	-0.00036353752772234443
-0.05071041590063802	0.04857881103308259	0.12418445454715052
-0.06035110045160107	-0.11380248036748115	0.03021994133057131
0.005018448065814405	0.047287931254379925	0.044837783964131385
0.055037076573927035	-0.033170984071912754	0.012405263962779476
0.04884055524465378	0.030305957027660518	-0.103155593836064
0.01323823350770777	0.05203069301054311	-0.03188266986054495
-0.19835644746746414	-0.08416167369419311	-0.10445593924386518
0.09061824849838197	0.035316094990669955	0.1066764405169864
0.02448085658512177	0.11877427067833873	-0.12974918853748715
0.10008181350972724	-0.055704645767121745	-0.002561202459899694
0.16865902240934716	-0.009012124251838866	0.08032119546754653
0.28601542375349365	0.16027935787279254	0.012136546083959254
0.07153581887768841	-0.07834794294607242	-0.00024002961386336327
-0.08960707760855201	-0.12367131381882927	0.07944918651836896
-0.031529854679146936	-0.12662163322282777	0.1354145760992728
0.004357476027537375	0.0757923054130241	0.1303999823022812
0.010468027686453683	0.05596449013264135	0.00916331682332017
0.07654892525185597	-0.1329126822668092	-0.09555104079429809
-0.13334844775529456	0.043448655502534725	0.045323937483276094
-0.14528590918589046	0.04753377782271994	-0.054552033597240486
-0.12206441347079655	0.10228492942793083	-0.012123823898275493
0.14852109912479367	-0.07977054569869167	-0.04307306203187668
-0.049503338305614	-0.007543571162229595	0.0037837578652826814
-0.05045963888579522	0.03369049323273227	0.0803506714102082
-0.017384730290196975	0.14184424608421947	0.012905856979003174
-0.044335015242508526	-0.02796357340707746	-0.09779810360238311
0.035740335636886625	-0.07644357720206298	-0.03449156836976996
-0.05946448291058863	-0.15236765473676456	-0.08491149923570859
-0.07697890931553757	-0.053739529754385555	-0.04996403846212845
0.09291130586060625	-0.002622796807334584	-0.012391524991143838
-0.08084272066428315	-0.10703887400954477	0.04654404916572319
-0.04815637138441515	0.01271309544249064	0.09262075516702475
-0.019751808657283654	-0.024211430253802235	-0.07434190337978976
0.14978601497376332	0.02475064060799897	0.027223847293437423
-0.031094004720433784	-0.15031879754654026	0.15077802954306507
0.08119888803495155	0.02176001056352544	-0.21188478712937478
0.146996281975746	0.10300619419297363	0.08656355091825846
0.09289673428211785	0.021960645602837597	0.04400440148160597
-0.01852279046856699	0.0005630070793521217	-0.08488978426424122
0.11256828419359625	-0.18650368131337508	0.09264336533727588
0.07703790493605789	-0.0765778504445795	-0.12600802236285677
-0.037193095439774226	0.07315556106505668	0.12820434627559898
0.04056074497342394	0.11497066556100459	-0.024534479198426506
0.08866360656007974	-0.01022570956748528	0.1469847549146345
0.057947445073910066	-0.11860710702867272	-0.1040620609463823
-0.10726091627304074	0.05623946284299129	0.11002709485146113
0.19489119846251743	0.0802715085667555	0.0648639832320633
-0.20371971542445444	-0.06066877044332272	-0.002656667973001368
0.19218516057604088	-0.07264664742369885	-0.04271589577318936
-0.14308494499305033	-0.14992377118100053	-0.10989780671985037
-0.00992849620918287	-0.04329957852341173	-0.04676480154802287
-0.14011859125496307	0.002490562271704535	-0.006143516293969237
-0.05425391601825987	0.035189291794383376	-0.1545011716707604
0.12229003377079913	-0.03578978910062138	-0.04660159613643356
-0.04939441572060272	0.047465121694995914	-0.05792705142923572
0.05314255322550588	0.0005117209684904813	0.022049751452043947
-0.07638808163806976	-0.17174034888109924	-0.05958390382467118
0.1232558079935952	0.023440107463815016	0.13963200148252364
0.23575899000438894	0.02937434642824129	-0.06815405554345823
-0.049346506480993146	0.20356532860262314	-0.04478368854965632
-0.045916222771819955	-0.12302475052574076	-0.09247739559200009
0.044983556984070465	0.018322413667380015	0.03169840775422371
0.012639068749147407	-0.1391578383150091	-0.06692194596622615
0.0505213064112697	0.0005466198582447265	0.05466524438125804
-0.020111421476316192	-0.03944125568175771	-0.13283495334610912
-0.025314266910907428	0.10229097762761793	-0.063307075621485
-0.08396190435404775	-0.015133473267352095	-0.004443979249340573
-0.11033842167965707	0.06906786282784516	-0.15293718196259318
-0.09688373284216155	-0.17793514528802748	0.27355731523821103
-0.022908693365567837	-0.10009518004900685	0.018501916339442627
-0.013584850875815608	-0.01681808725736762	-0.09495759336249067
-0.1289908544504809	-0.07885156772243519	-0.2127666145853841
-0.013569998341835867	-0.11317002507530859	0.09955405062973352
0.06287301100223566	0.037663214680532145	0.15915450858550573
-0.12807213886412178	-0.03642854050249487	0.11087890119671556
0.036453131540114016	0.10888488295516603	0.12699823115308376
-0.12361781574872402	0.1757939433438776	-0.007512628189131524
0.08407384252250134	0.04064952403558319	-0.029810865186566483
0.12250982017451166	0.03399424239962293	0.21114737995724694
-0.001959593359905132	0.04304149048288306	0.18487687313757947
0.011982125614327219	-0.057794063406282	-0.09296902147240939
0.12026099281159645	-0.18364422468903135	-0.11238128015170139
0.046143663338753145	-0.005610922363424223	-0.12083947975773396
0.15124860138626117	0.04540974731112896	0.04872003906754609
-0.053503825075733334	-0.02206442485802661	-0.11246749870089302
0.016222482435455057	0.09198596423596526	0.0491948852843482
0.21413785311920308	0.0349628975562467	0.04106379376005139
-0.03206511164375057	0.07896900336300784	0.060917058616506814
0.07059935876740939	0.10317599071381509	0.023205063229635142
0.035936980772427345	0.12815177141824222	0.11774177832205189
-0.070640184626755	-0.08613094155963646	0.08486561177768717
-0.12573990918011632	-0.037171438699262024	-0.027618844201976495
0.1130890754407502	0.10419019251537637	0.04968330843496076
0.030899891724371173	0.023113390952975703	-0.057643835596291076
0.10400093862502358	0.09212782885069867	0.08229259202756328
0.128855869693011	0.07744233198004123	0.11590817854987434
0.06360791497003561	-0.026427740438162102	-0.09880286727080509
-0.03174900902351048	0.007383739933977222	-0.10760056886465685
0.06675534882690294	0.04948135805409085	-0.09612785814304893
0.07461365920497244	0.08266244032415453	-0.06662068460537021
-0.007181426239493783	0.033032712663992984	0.03590803272973227
-0.060233156828990345	-0.06556158184805679	-0.04310074540395374
-0.19053657160312754	-0.037191650770077564	0.015322794842105239
0.12760810110426352	-0.011785389687817125	-0.029360505289569995
-0.16468210224788501	0.15123351623546874	-0.11434757016400608
-0.015479032412830369	0.0043196360472239894	-0.12368415138626492
0.0038314292682903495	0.13703236984181932	0.12502526916519419
0.13610045190026113	0.017554688896830498	-0.045630049237716026
-0.09374203412663339	0.005080086189144442	-0.04775633179653782
0.1987978362148021	-0.032575414766538933	0.012190670321638645
0.1067734305894063	-0.015048275700035292	-0.07860044425717759
0.1045097600120172	-0.005418768063990663	0.05702152601956767
0.010613538674021922	-0.03413943244747279	-0.007648342896794429
0.011190377228506729	-0.08685136397300094	-0.06442415970570443
0.20187391102925992	0.36650770647383557	-0.4190522813455801
0.1863182988616009	0.09782450182510544	-0.012353060122376287
-0.08237566389549417	-0.06990276324376275	0.031176653549224994
0.1382728911443722	-0.13729477195853904	0.06250858716011051
-0.0014844589015222964	-0.008705013824591235	-0.05374693179548765
0.17031104345148315	0.12523794507263583	-0.2391763796542106
0.13196228719800446	0.03215794530688082	0.03175635732157576
-0.014783900375870756	0.0016409638654894109	0.03360314144967086
-0.14320804997646977	0.016334793083469346	0.009729156921436425
0.03768895689174262	0.07418911652805371	0.12594546384338542
0.08472560507280683	0.01719450901531745	-0.11184483047742592
0.019078398379946182	0.06148270971469547	0.04535286764067009
-0.007296127766957259	0.07131132602529888	-0.006363230194209299
-0.03876891857351875	-0.06736550357122534	0.1537762048047775
0.0568363642915553	0.03888378179024576	-0.0222541145946278
-0.006726311478839381	-0.15209489567460788	-0.12327417009535997
0.13456952331091943	-0.045498818543712564	0.04884249441954731
-0.07096896368675513	0.0373126978806899	0.024965765896494088
-0.051857974049741906	0.02575287294830928	-0.06805958764441686
0.09173390325419364	0.12341056535283791	-0.03237745660718925
0.10478289377173346	0.021280495034936123	0.06131042661417512
-0.09688347411580286	-0.02525059210307757	0.07988385082156693
0.06422437990577615	0.17391684583884126	-0.0421448444860696
-0.06329201736670784	-0.06504723294147696	-0.07680555995532719
0.07733299750644844	-0.06087830199228179	-0.16588054615507417
-0.17108072942982464	-0.05620067621676817	-0.10478210462588455
-0.10925266806002962	0.042850971292256616	0.0369468264723471
0.04278849271798761	-0.022864551767933356	-0.02865411984666193
0.0845268196026373	0.06432577863732968	0.17012110435240207
-0.05839630251455582	0.1270217476785237	0.18437848809016538
-0.14498269460927632	0.04848704103268955	0.10672811883375587
-0.01922957330741885	0.055917986689821585	-0.13181456599347263
-0.06370150778570279	0.15792874466168513	-0.049822628700981954
0.11058191349962683	-0.06689525275868219	0.06450805971978442
-0.008347077775561573	-0.08933848025908149	-0.00037058543831868673
0.0827078545075797	-0.13849130869459741	-0.002792873740499946
0.13215809017068836	0.10593597540179592	0.012239608325162226
-0.03445816912929795	-0.012075878569043842	0.05163186501636633
0.044520162236324816	0.08312231214356065	0.16333944072985432
0.05631829855636726	-0.049347913590907504	-0.04709505631724059
0.08470820784762301	0.06325495493992536	0.021345263698340295
0.1082494284071423	0.06398113743771393	0.16967238394904857
0.17366817143967914	-0.09591921638515923	-0.12816203440727453
0.18118967435242528	0.08909128146944856	-0.07918761924855461
-0.3125996805698605	-0.05616071480280914	0.09746746549054301
0.0407192878037513	0.06281417064725969	0.12368724505039276
0.05719188458345164	0.08621465643944	0.0031834230370624142
-0.05373797700937429	-0.03189327029064858	-0.06374972463382078
-0.1384182810474876	-0.1321009661548188	0.10490574098895493
0.18398666412295767	-0.09378494381754214	0.13580018375652775
-0.042376227316843484	-0.06751945283409896	0.07385476342835803
0.08089917007655105	0.03892937710282168	-0.05482465643223739
0.12817964913042676	0.1084266404812729	0.12676311267041873
-0.19896157597213113	-0.004891682343665249	0.029192043048434924
-0.08075220552926349	-0.017416215074290038	-0.044525609593382164
0.06416317129692402	0.05800300461901242	0.02473200813920598
-0.12152944456179877	0.06510741842569359	0.10235004818922812
0.01906825655999627	-0.12847682992422663	-0.0010676381786025148
0.07564895145190156	-0.04159293071728093	0.023442552379071623
0.041686797094251896	-0.06073750306595739	-0.12517835688176135
-0.10817640202778651	-0.06686214507455925	-0.006380383112907614
0.04798719994185047	0.1933228602693639	-0.08823958085022228
-0.0815447490618965	0.03246000356029795	-0.034983869572965634
-0.3103666928210457	-0.07473484397834408	0.04649674561319954
0.007077305701662038	0.008207776590609821	-0.18879051402691913
-0.013655978470623777	0.028792470292426917	0.0821248405373587
0.03691275762067861	-0.016782154999707834	-0.12459129054355399
0.08844225791598107	-0.0938756028993885	0.07692650689871865
0.10651641533536622	-0.056325920978205206	-0.0159638132479777
0.14421069876183415	0.08719796161591568	-0.28110043375115656
0.027532673404273088	0.04717317460724112	0.1539712958752573
0.07369051156938501	0.14222200615525404	-0.17778181340323357
-0.17872033448115135	-0.09627815748794703	0.03175693609277816
0.028442032007898025	-0.006500267085677199	0.07667741383316903
-0.002449609015254549	-0.0849196226668831	0.026617308177356466
0.1300038155213687	0.09224911395377544	-0.009401959128071853
-0.1182608791870212	-0.045301140755245724	-0.17865884868793938
-0.16729810871927625	-0.12389780664757997	-0.08680816199662295
-0.019614725281995343	-0.06616555999766412	0.1442199904179666
-0.058681810603849284	0.034333647111115626	-0.055325087938661276
-0.08009651928883046	0.0896997360021305	-0.07635742086021162
0.05716683843556113	-0.351393613140323	-0.1732745179243407
0.07187620099098074	-0.07775074128041312	-0.12723851032215744
0.06845054382578217	0.013918599146654446	0.12977180525807533
-0.0032080879461696527	0.0046378958800831795	-0.13444978117927034
0.19233507657397883	-0.016978474454381855	-0.021602511400836417
0.0769400455785057	0.041202990938287526	0.09920640503470668
0.13888067016977165	-0.07104639382153514	-0.04739058525718525
-0.4951103017461393	0.0188895983322677	0.3029429683968284
0.11900937480734222	0.09049371857981818	-0.07723081740564222
-0.18439850908036867	-0.0036772555590662945	0.005714380683407113
-0.1515432556958796	-0.03704587618975124	0.050770863987484
-0.025248404592320025	0.0020526711586906668	-0.04893222308401421
-0.06362901849772512	0.035638363086731226	-0.12486321687607585
-0.10048139817993582	-0.08488751736658602	0.1640805980885625
-0.1082976524595467	-0.1290337885117412	-0.04396023676408834
0.0883719597420484	0.18746678581715928	0.05059480553027872
0.03018252919422104	0.13244238791998375	0.1962518085009471
-0.06340785239535467	-0.02455354999533466	0.09636377650349628
0.014550681755398595	-0.18432089796819567	-0.037887410939616895
0.0774669328850664	0.026316465884341146	-0.034974256569527656
-0.03919031888788407	-0.0845518723452964	-0.10396401664538059
-0.09062023162313264	0.006104210472752539	-0.2150810784857695
0.07573368845534391	-0.10862845274070367	0.020197205959725864
-0.05149441836184839	0.04740975997757762	-0.11786922595590107
0.2215655423211034	0.11382310610018107	0.1241075036380449
-0.017609828428626066	-0.1423850656908474	0.0008508537504761082
0.23800370984434643	-0.010340522187752875	0.08356425143764529
0.0939935693946792	0.14874055556843252	0.13409949821242356
-0.2349933295159518	-0.24725175947194888	0.017202326056346015
-0.03342160185928978	0.05708804344450005	-0.0026125844623193467
-0.06333222864182485	0.05729910063080627	-0.06395455830328936
0.07671901052651701	0.05886559579326308	-0.07003552334222381
0.013102661246631639	0.11788857969345555	0.037499564282936236
-0.08912684549935926	-0.004595449914060154	-0.0092743276613985
-0.17641006731390593	-0.1492284792787152	-0.06361671803718989
-0.019568331028098487	-0.014257026034400686	0.152834028194169
0.049330618175555146	0.051654558865068	0.03981835292161501
-0.15752968591245012	-0.012629585219313622	0.06668851054426794
0.022139745388191395	0.09096215066534898	0.05798011252716927
0.08309139703985742	-0.04158957544998144	0.04738910866744688
0.005522103699470355	-0.13174519169453477	0.029798135022329034
-0.018464928786652526	-0.12659658297108559	-0.03461180014622686
0.008525581295195013	0.05606098672626045	0.04516725967111586
0.25758707139523723	-0.07274969554753878	-0.06404999353512221
0.025700500812205294	-0.025103950679928533	-0.005535019577624004
-0.12502006167955299	0.08933994295042842	-0.031234133286026335
-0.08683734813083233	0.12837692115821292	-0.06877951172607563
0.050642779929363356	-0.016741631378218894	-0.16237016053118491
-0.05413557128470653	0.05354791456231412	-0.050339017820111305
0.062157531781441594	-0.001252587655956955	0.05572917902428933
-0.06397418172394255	0.1590851556438349	0.02954142934526933
-0.07070033606757822	0.008030159772272684	0.046689837617081974
0.06579657665759184	-0.02859871561967606	0.1589200591422998
0.08601723049941691	-0.024483952410131432	0.010712814943239073
0.020250966697450353	0.03070732774109144	-0.09413738739273625
0.010054173157678831	-0.049850631259544566	0.14473057878021578
-0.04081372130945956	-0.07081534097872842	-0.14416625569766525
0.25421962603496684	-0.07187066424263258	-0.0871484312320926
0.0917065571871869	-0.06161647866532387	-0.035681202335952185
0.04551846226932593	-0.00918965025340289	-0.06654247886781155
0.1374780263587682	-0.009654256629650484	-0.0064123598415446615
-0.24540808077586562	-0.008046423031582622	0.037146767551049883
-0.1568088211542816	-0.06401463934823741	-0.03422795507672659
-0.10634797821948198	-0.08562989671167966	-0.07296212090362246
0.12193032568853002	-0.04236176301462071	0.040139693152181286
0.14295156031060421	-0.06332037208974316	-0.022128049999551994
0.04259490778544109	-0.07053770181407819	-0.020805187998218504
0.04733768490930821	-0.01447326161730306	0.1597019896078925
0.03007817444705572	-0.020406098116581294	0.11159706692843642
0.028220415859162056	0.02322730505123017	-0.010345565587577033
-0.0027276489984732863	-0.12014819056285553	0.04947694037756145
0.127672121576724	-0.1227168594437935	0.017906304275411494
0.06873924711915066	-0.12916134269811136	-0.12754045683624307
-0.01979757429066885	-0.00570792930262551	-0.037131413850719094
0.06666752198725132	0.028321511459317543	0.13110171335572016
-0.06894951676452633	-0.061004075177646604	-0.13615476401971838
0.06053972633335907	-0.0345931757553499	0.007103794357873629
-0.017389806723676203	0.23682588177112146	0.19931545868709713
0.012005088046011681	-0.0908027421265472	0.07660435835285627
-0.04882363765458208	-0.11042932769919754	0.15745699062553084
-0.3458917934547296	-0.003982564592331018	0.13325344048298982
0.10992287934386742	0.0880139923004115	0.15094554399196536
-0.06306103218919698	-0.08505527924891226	-0.1297269146810369
0.14503170129441004	0.001741022920810983	0.05070996397235308
0.059575172230034605	-0.1274796634676922	0.07236198450747913
-0.017104418891797167	-0.04124148895233081	0.1260973521643018
-0.06968544053957183	-0.0034239705986904507	-0.04376720789008354
0.07634692358748225	0.05875786970932085	0.06550638433315088
0.10392569120790637	0.07213786011319079	-0.063858071216441
-0.06706009065627688	-0.0603109168646163	0.03074946915374079
0.0736979699192835	-0.20419456981365458	0.033764073960268516
0.04178090597242432	0.08727476698691158	-0.08533675553361515
-0.03976203631355121	0.08486019590401307	-0.038106684950096455
0.0735341232772868	0.02184677850334227	-0.006080991674632428
-0.050285993632914604	0.08337011425375472	-0.05425033453656582
0.0169916470690487	0.20972887726363212	0.10329125192926747
0.11372004616475163	-0.07551185622970742	0.12804441009312695
-0.030695376151621614	-0.04846225671440023	0.05299490362497264
-0.11248249909030485	-0.06532430762523816	0.13614122140171778
-0.11560521506416796	-0.056597286550880095	0.003935084593845156
-0.17962864125848174	-0.06496043238264088	-0.1753098940328716
0.034939863167394156	-0.008895457068280991	0.25080309906284604
0.13352364613636958	-0.09773770329451766	-0.08044518762109183
-0.0037498277367428385	-0.04723276875498268	-0.06908150392339019
-0.05318641663271426	0.08397518481853354	-0.04996330175409416
-0.04541897440667962	-0.07682837379136395	-0.013782011640281823
0.007222509988318936	-0.0071377427042292494	0.053567331572276305
0.14953526188239252	-0.03335702401299563	0.0015921618959431729
-0.10846892868609449	-0.21515346090019585	0.05016133573840032
0.1841783607141542	-0.03396125094487624	0.1689000752102511
-0.0034057065354287457	-0.00509707343474205	0.14226138704008173
-0.0909772759422724	-0.07365155417454548	-0.048843837104658346
-0.06929342174895049	-0.11569224919024768	-0.00814497411020023
0.05723638188763849	-0.23116119417025333	-0.022019193487253834
0.2198425827432753	-0.2801634640536384	0.04154968004346007
-0.12786518640155664	0.02040443526359072	0.025771086599756386
-9.70624371666962e-05	0.14964676323866521	0.10418441553372808
-0.013441064771648234	0.07301658419403018	0.031953328060508705
-0.054973448323860724	0.11217672096732938	-0.0072744204959462174
0.0008454220529418983	-0.03688553034220834	-0.05413385152085533
0.15209096120997884	0.007732128753090581	0.031365896514262144
-0.05422716971259707	-0.06314534493766025	-0.030326981077848755
0.03144354374956896	0.05996831353747419	-0.11862402438625878
-0.04718845087083983	0.02401822065575316	-0.09682381634275111
-0.18139106419195086	-0.06031100549448796	0.021704986567535254
0.02299785218027007	-0.2596038121939439	0.11048028443110089
0.0380504561458008	0.19151005526907483	0.09869190183168167
0.1902797907946106	0.002714429719282361	-0.18767024709348964
0.09234884777784876	-0.05971006792947229	-0.008243454964369032
0.05400281010961091	-0.08515109948816595	-0.004020959917762459
0.20475127810602284	0.17278849438312094	-0.09909772634819285
0.25265037655669553	-0.07328916670089138	0.13975226344489675
0.022749744102006742	0.00409223515840457	-0.0729047712477397
0.08412574697788058	-0.03362054005456913	-0.18052516334223845
0.02672709313041893	-0.01356834204330232	0.08287270823642659
0.04417153146659226	-0.12150233006387816	-0.0018791943519970561
-0.010663200568273416	0.06744142766081217	-0.06113985487827842
-0.19654518865012147	-0.12244208807975765	0.06570408331231548
0.09184388343813846	-0.12969082413836147	-0.163589219171702
0.05176337773131004	0.11450193570282761	0.10766035023846357
0.0630210645371702	0.056314054904704314	-0.01142372996669728
0.06002424894360084	0.06549504911028388	-0.08683980067520675
0.22561012910435227	-0.05353223332354843	-0.029991170439274704
0.005355666103566697	-0.006043807383091249	-0.07715886129210349
0.08221940706353406	0.06714009782415227	0.13018632435268834
0.01011129715051982	-0.16886668872796964	-0.0032648759900359764
-0.09418276376261356	-0.2865578849503631	0.2564549417954785
0.055105033329949205	0.13646391648157546	0.10190652382175187
-0.03590619554316208	-0.08010579782722393	0.13895585078821932
0.0036857210337581	0.06873857358741824	-0.005300581263344512
-0.02895029434803732	0.04733366398313466	0.001911828043602983
-0.05881908108770823	-0.03882116999374544	-0.10349705304674901
0.19289515915570737	-0.08335740487872867	-0.2730454959626868
-0.1447104035590079	0.09623127325880447	-0.0666572617268865
-0.11617082420069504	0.08601114836645571	-0.14598581043322645
-0.011948051161618376	0.10192143117696902	-0.032964953012079294
-0.18041683589283547	0.010362286828599781	-0.2302274540657561
0.09321455666856462	0.10769038218193924	0.10853939932825343
-2.700294859992874e-05	0.04251474957737207	0.012932733435646954
0.032327159373150935	-0.1449926775385286	0.058316035802987866
0.05962757179901344	-0.058766426068866257	-0.06350962155926973
-0.02770009217879392	0.0311583657209021	-0.05484787646426656
-0.004389542235465751	0.003922046781869416	-0.33222222458573025
-0.14785491664373843	0.052932674430981104	-0.04488101894795979
0.05742332210825195	-0.06038658534906247	-0.0011005026337647197
-0.10120825975961673	-0.017929032843260438	0.018143850687724603
-0.019240954233370133	0.04695777908997021	0.14458054090941083
-0.01335567300282086	0.03520813794385895	0.1182849578121747
-0.041122139933009526	-0.10070570349578412	-0.06570446876959946
0.06727500272905315	0.07327633262225829	0.09040615304256434
-0.07458603233692253	-0.027865744934364785	-0.11994047181795117
-0.01941867939453553	0.023018411305163144	0.013810702688356472
0.04356125652164988	0.12539226296351674	-0.03990559284184428
0.05690269080397587	0.10240871212473715	0.1959340372854868
0.11759332788600252	-0.12786730335472768	0.03295796897077081
0.1633508109229628	0.07290078840396136	0.22435794183833657
-0.06070469428427409	-0.07602445694942213	-0.008501306419548462
-0.11878445400303751	0.23343629404788052	-0.11236239264283282
-0.0940628341346716	0.008074075164606622	0.06443961283509173
-0.058123530445274296	0.030269287027527663	-0.11309071590947288
-0.10931704173621926	-0.22718036398084399	0.0389954622205495
-0.1135511856000524	0.03151723868466022	-0.05442099886379277
-0.0347771025585934	-0.11536562679808963	0.05535398296159183
0.02183416108112695	-0.025894070175233437	-0.049972283904022106
0.11520757360630585	0.08226941127038918	-0.1027889498738825
-0.29094480262530087	0.042734199006392436	-0.10595700523064121
0.15922465278262857	0.02456074885622993	-0.05468026220662697
0.12449327962003683	0.017223197378714347	-0.07577598488751806
0.05177536233408694	0.056885917367415814	-0.15444814390251158
-0.02234035663314141	0.04911576227858812	0.1393877148690021
0.09452489148712956	-0.01897602834312088	-0.10113857514047322
0.028693803978625143	0.06886127314727478	0.016215272523137897
0.06239805374538933	0.18892729079555373	0.06379543749060133
-0.021529858303951845	0.07642078008935967	0.1590415179895022
0.07015570486184919	0.010617313311829867	-0.0912320077737316
0.18839176075133895	0.12061513788630888	0.08080079778406443
-0.008986602647339461	0.10594098667603405	0.01136155108112061
0.00213853772628419	-0.018670885849797068	-0.03491199517471954
-0.11436895832236592	0.0899322867287888	-0.15066941643750378
0.14061296174879587	-0.13941301885362953	0.002282401095050118
-0.016116413477276346	0.06268943947289747	0.016889833629674528
0.08806382466933889	-0.092452726358451	0.017137076867222358
0.08714718647955565	-0.04927049165306506	0.10447897724147874
0.15635407112186755	-0.134960598378073	-0.26100986981519003
-0.09387410418236168	-0.033021543628785885	-0.027527534823952298
-0.005735912261547114	-0.0718750831074823	0.03910633445185886
0.016251676985828273	0.044518518151768605	0.07582663640561874
0.021007231916094625	-0.0457750268274658	-0.03769777462443918
-0.22961355487802748	-0.018258167318890694	-0.0849677888404632
-0.08218428204039492	-0.14680516347400296	-0.05169896283459063
-0.07101316134096768	-0.11227975941704404	-0.12245039561780842
-0.10523529507642707	-0.1301866609499828	-0.17135621879651014
-0.12336409628279334	-0.17464108148502575	-0.058620256514841484
-0.03594699373195436	-0.011754393162849357	0.017902172780042077
0.21478573661433786	0.21727318365287943	0.045322463098887315
-0.022476820848554693	-0.004702587381178529	0.09670243586651033
-0.06313740570433209	-0.12048874157876575	0.0001872730582633475
0.08765948249369147	0.008324256072573527	0.048438581413549134
0.11303575679978056	-0.03374754988927725	0.04908142090077679
0.02404846102822201	0.09177899327242219	0.12887275942960005
-0.014405017202583546	0.03017769076955882	-0.008765492319281882
-0.02777486760658713	0.02186000905497178	-0.06848511942300521
-0.01077478850803026	0.11797227768830276	-0.09849388501231433
-0.016247234089113438	0.03641571136403839	-0.1415077613053059
0.1670573807865825	0.019530480995442287	0.021257093673612126
0.055834467367793725	0.012109439845522443	-0.032805449589449656
-0.04545807292823416	0.11071773535439941	-0.065643732497104
-0.14606342625255003	-0.08143889236419154	0.06571863187265795
-0.07876728518172467	0.06765383240297992	0.015355827318427169
0.071751022123979	-0.20984853474890647	-0.19158126412663048
0.24153706624951538	0.036741738925990246	-0.1451579708468471
0.09846573650439348	-0.01977755944691835	-0.17925343713150413
0.0925277235433473	0.014326062242939298	-0.027686974867129205
-0.011063229159112224	-0.04087146110684787	-0.09744936416272088
0.06966284312902402	0.04891516293575396	0.19356529875143136
-0.16123540973796976	-0.14159519812963867	0.0686964741467515
-0.11383087578201413	0.04355567819175258	-0.05505274836943552
-0.01765722440811918	-0.1884586534378224	-0.015027026646640747
-0.028526750808007928	-0.07172294448353732	-0.03596915825340288
-0.057944400535758236	0.06905761604475166	0.07259668438392308
0.08858004260797278	0.0634668878393635	0.019511149885849215
0.061532001578541336	-0.039149950341284906	-0.0024981106766088592
-0.002582884491849084	0.04565088827361217	0.07160272464436702
-0.13456485551058894	-0.07010835272192215	0.007041885851004059
-0.019711278506021324	-0.07509879571837015	0.05092639713103535
-0.005661596197249051	-0.09138278583642956	-0.057840495806573605
0.01001813396750164	-0.13634784948326728	-0.0642266264480638
0.19941450917300743	0.10591259356416062	-0.01923104800881631
-0.019338257484919463	-0.0002493473152048732	0.013357341329616986
-0.10421855290909691	-0.017695043873973276	-0.048762629962272666
0.01684174546237019	0.025279590871840136	-0.10612540494024
-0.009222706507540908	0.08663461742019662	-0.05704301685612917
0.1857336016516394	0.10528857479142957	-0.007575800582442181
-0.01222788011279588	-0.09181379294499037	-0.008067813945497332
0.009401304750436195	-0.04373662945710055	0.00328268373404129
-0.028578484892579196	0.05987330771087679	0.005701125145139542
-0.10443165570970397	0.04085537415679173	0.15731746479710548
-0.12330195950326515	-0.08430868524664435	0.08262656984573331
0.04658494819717775	0.08060743856036443	-0.009572964049769133
0.056837571208225454	-0.13013313237492727	0.10594696214913316
0.21434889258953937	-0.09232275562713547	-0.1131856476685124
0.12827437010638454	-0.0774789736711591	-0.008722112796175203
0.025682227296389942	-0.0642583963855356	-0.14300328333315876
-0.04363251736412115	0.07468962777097736	0.12191878816802681
0.013493263592840005	-0.04301961247312651	-0.12845337196189624
-0.12543086937333023	0.06513685410559981	-0.031142521634210187
0.0903852356445035	0.1896359124518876	-0.1341743219428488
0.058119735170730935	-0.10245030935110779	0.09253517382947044
-0.00802655852351276	0.2258823859945199	0.12246745049842576
-0.13690362993181293	0.030852354363750105	0.10620239137329163
-0.1087189752519161	-0.11098973938557478	-0.038381639604163395
-0.16040149326054542	0.04101646998678191	-0.23467542256226964
-0.1819523372393146	0.1497115122552261	0.05534445076986863
0.10160607672141381	-0.059383506779711354	0.19222122628018345
-0.07809779102265121	0.030322734973074954	-0.022925088475110548
-0.05817950741464686	-0.08530645497986034	-0.00439407847333827
0.05328333287294396	0.05581344778497129	0.14998119335909305
-0.02300402324848694	-0.10318856130873189	-0.06730435027763206
0.011278899161018518	0.11145462046589223	0.028808342703330703
0.07315720433616836	-0.12450877362861319	-0.03884123406981026
0.17203059183518615	-0.12481951269910457	-0.011079905384473024
-0.1264709667809541	0.08407084629516147	-0.14386936866664415
0.016242912400254744	0.07723316744968928	0.1925460809266167
-0.06535544150346208	-0.14022727080802924	0.027167573136622603
-0.005462555609332854	-0.007287516418987808	0.031226247862579697
-0.04804647137326082	-0.14913177378983888	0.06719084935363973
-0.144392840178727	0.023153922321814128	0.04275341998332698
-0.24943181015604157	0.18023776852630327	0.12949529373051832
-0.027567064591165428	-0.03241825497812874	0.025109869452838215
-0.15049489672827834	-0.04077539147473435	0.04749534096828351
-0.043266326074911085	-0.05755530163612028	0.1350826895066222
0.069307201676287	0.015237790354596766	-0.1459036847895579
0.1551304449006084	-0.010658773535421606	-0.0039236887221469775
-0.09489150729579868	-0.10407848126947501	-0.02907401211687891
-0.015565154473631066	-0.03885052386123978	-0.10954098199101127
-0.034048316452921557	-0.23361821562947238	0.01639771299659147
0.15737474064568263	-0.12021721991160586	-0.04911694254349749
-0.04373334724908292	0.04456568123932949	-0.09744282599186421
0.04267362648416936	-0.08506146357308407	0.08574322955666933
-0.0367336891808995	-0.23773938965834487	0.14807409596062351
0.046408013628954366	0.10957723807080383	-0.005320729379271143
-0.09083517412078901	-0.06002035710927503	0.13872725581199696
-0.06149937879012882	-0.08840171465074972	-0.1055956141069661
0.06290325227835776	-0.06669617612622705	-0.06351078525621315
0.01021608324958784	0.07405307346708517	-0.06465957579452682
-0.09285204188299494	-0.06245083116824486	-0.03128890155719789
-0.031086388847748003	-0.16162092071674694	0.05891829844626942
0.07297733751668872	0.0045766417489263205	-0.014509976286272298
0.0012464428662966058	-0.037824399767437754	0.13776451188751562
-0.07785243487003005	-0.26185567230976836	-0.06792132948251876
-0.07571374352363529	0.035176523138758124	-0.029313799890133194
-0.05438495469998695	-0.10387854529442657	-0.014808574842377825
0.02331537748803811	-0.08566573988626788	-0.03246320199858413
-0.1010750529176889	-0.08228614642492002	0.09635245788133526
0.1496279582804868	0.029671223519016104	0.10575971120202102
-0.11216700816172402	-0.05734325264653259	0.03767907192120227
0.04289294144330725	0.029165076545853773	0.06058734601154711
0.02676153008858404	-0.007417051256041803	-0.09334204671825082
-0.0021597408490409155	-0.017239491313819633	0.11476587595700062
0.07454734904115723	-0.005596839389832333	0.05138666911626244
0.011798139449532525	0.20123707483846662	-0.012221403114101768
0.009758149687584552	-0.09759823223678246	0.12065708110322142
-0.10561653825855016	0.012569583535857203	0.07199061962514247
-0.1393956885400502	0.04657172479843456	-0.13517411395665446
0.04599850974192734	0.049872842219794065	0.08733531254315957
0.051693933462014174	-0.06196426069696032	0.04899692177465445
-0.09278175425153228	-0.005218288490541337	-0.14139030768602895
-0.1041698464704122	0.05719234021492459	0.05283377377674579
0.0584407269163106	0.0767757952531208	0.0634057342740226
0.10163269390554637	-0.008966111195451645	0.13351654496788282
0.044595444278793646	0.08392549877318548	-0.07605988244300518
0.014681379207748715	-0.04330823905870751	-0.12647546732659184
0.22924448488752247	0.13309138892251393	-0.1673934775329498
-0.07651249422046216	-0.11518705710605578	0.09748793935446737
0.09590065830013943	-0.07220066383537244	-0.08761110571963251
0.039609448510058876	-0.0873448496293934	-0.12243238927019046
-0.014235606167009637	0.04934004110954106	-0.06602320168986188
0.1866823230404032	0.033227337237314795	0.10678891246057808
0.16374278228643688	0.09908279404887271	-0.2024785612185425
-0.04138931130677287	-0.032823805367555324	0.06907611027231471
0.07699125628613729	0.06933825257118587	0.06767360092294762
0.020789742326111055	-0.012409679179960357	-0.02335072771436335
-0.17178007499747247	0.02859428328127871	-0.07687747322655332
-0.07124111280839143	0.013931021818053592	-0.15667388425928575
-0.021100782189098777	-0.038115242572693546	0.005516482724415195
0.07065196732257295	0.14779947561562892	-0.1983090818214846
-0.03473966053877407	0.13301659257473988	0.024120770955347835
0.04700051231192735	-0.01055073374742564	-0.0013793740153662745
-0.09188907216457158	0.14194645374432222	0.0345737216014815
0.02556161483963189	0.05041566804044663	-0.24463397689493466
0.032560638129706394	-0.06493866763286034	0.012277790690419227
0.011396178164416671	-0.03887415248334095	-0.027137426385416913
-0.08445146857559929	-0.10746147112017772	0.1283025461544453
-0.04375795808572734	0.10937407386936107	-0.027165972787468462
-0.09863905612697074	-0.11249602378112389	0.04223181980854887
-0.08061656929262115	-0.10766305990909482	0.10086820043815974
-0.09778427571150194	0.13005648592960464	0.07604757583376648
0.02004583316598522	0.025545986426962708	-0.010852481421233691
-0.0050712587933542845	0.1849902196708272	0.0606562443032568
0.14780673495491295	-0.03712323988991916	0.11277726017415458
-0.06148924361407227	-0.0043363168145346435	-0.1036152384522186
-0.0012126648998607031	-0.056984190000962574	0.06328218021841794
0.05901191040701458	0.02166970980504345	-0.04120841883817654
-0.0010514958453043835	-0.07424817153191841	0.00491972427472324
0.05374539544371323	-0.2143855082108255	0.03296266671025554
0.12261533725902454	-0.07746364836370265	0.1354674538518231
0.07061616477357717	0.031327469716578106	0.012499258463168916
-0.09914461793179018	-0.19258617678145742	-0.1261336076913822
0.17684308210221142	-0.08881629315111556	-0.02872929839558914
-0.008324184604980965	0.027658251233955815	-0.15159597761519464
-0.0752965001216256	0.0007610486352079976	0.07659982042761249
-0.031530124332482805	-0.028115650196989823	0.05072942288261799
-0.05637149682560296	-0.21105534397659081	-0.11813257509918976
-0.08238962068958734	0.005157874783984039	-0.007786168266781471
0.02888125523113011	0.12870691644733445	0.14376006529985563
-0.0861905753606359	-0.06031375148111002	0.006028574370231718
0.11302859554434345	-0.20088572393963952	-0.12967874465972598
-0.04512910214002423	0.09162316472945281	0.05031869427556097
0.1721314821985164	0.0078533958585707	0.24833126896202917
0.02431808723077562	0.03527525648095914	0.1397475883405261
0.09575009420238063	-0.11319833786282679	0.0021225596830950124
-0.024441805809624212	-0.08071692478288471	-0.012155150677729641
0.04541634293584966	-0.014381553979841213	-0.17822236680802972
-0.00735593087286941	0.03096429061707492	-0.08573289603804846
-0.17621764766454776	-0.08338141653826585	-0.029074489362572245
0.08031337059647951	0.054580125031241294	-0.034196781139645804
0.02722693116295154	-0.07709086757824037	0.03538339612842279
0.1599723513353284	-0.0008408442351414626	0.012247230967711098
0.06775447359808726	-0.09426689346848913	-0.05823994759661322
-0.05094980965641189	0.004562204011120797	-0.04418399260828199
-0.11899972028537922	-0.07554714650186933	-0.05352437442292258
-0.01499178541482567	-0.05316330249626327	-0.047094969521799916
-0.02056148939484897	-0.008650709800192061	-0.04966269641025178
-0.16230800471687945	-0.1179794639092047	-0.015713979783893824
0.012454624852388008	0.010457850522601602	0.03056400890507639
0.05705180287831891	-0.08723955417018582	0.09916908041086407
-0.036906525209563876	-0.12374798023049498	0.006884400153196849
0.021915061757187687	0.08306590867152658	-0.11490529647758863
-0.019216627276442223	0.02893077047227535	0.04199337183894424
-0.0673322994943731	0.06365734130704928	0.15744286777415314
0.04672269423500523	0.03137134075387891	-0.11635896946744163
-0.0546778474252542	-4.127733522522005e-05	-0.09846575847539137
0.04578835557219153	-0.1179447793232965	-0.11892492247667553
0.15510097174185725	0.17983574107547382	-0.09383233922471393
-0.059934281021055275	0.06866770297387562	0.10583486612726103
-0.048434437388503074	-0.08703670344653347	-0.010514262280715258
0.03162889246651334	-0.051151223009380714	-0.13680727040233664
0.06751153301656301	0.03912985160379922	0.08604427025553266
0.023846996056857403	-0.09674757528697883	0.07762864908572287
-0.018193950285642514	-0.009443564844575128	0.04442292898462832
0.023227158730535394	0.004592159509059294	0.05488354154382527
0.19190406621231546	-0.05261470744130037	0.19940422655614123
0.0911513570150516	5.617338245996526e-05	-0.11020544773090664
-0.1057310227041092	-0.08854338464255752	0.14183405283704703
0.15931021790125924	0.17654617583786297	0.06748160939983233
-0.012419467711377098	-0.11473772270571951	0.015171197135239794
0.01708321794653992	-0.006631359039208261	0.08509228754742812
0.0909989180571805	0.07310964952626439	-0.04630710157758577
-0.12047639183220218	-0.23400295662307397	-0.11434275907920628
-0.054833713376360005	-0.2366851977779531	-0.1419423411904318
0.10948083390522245	0.05532480788739731	-0.04296852225530887
-0.09076312756743019	-0.1201401845289014	0.03278064448101232
0.08480562940524343	0.007910901688457908	0.011075799446937921
0.12067537946064519	0.10470884579680942	0.030048810431081475
0.0084727379976222	0.05157492478033918	0.10690353026389116
-0.015633955780670533	-0.06587175210885884	-0.1518073661106513
0.10315196565968407	-0.00886117459253136	0.14010459141383638
0.12402403566145119	0.032082413384731855	-0.1424388676854574
0.06567566347382531	-0.040967338317482074	-0.18914639120002397
-0.13928373136535266	-0.37592223126618324	-0.16713140423519232
0.05794164619676731	-0.10492371419732659	-0.0003898451606372603
-0.2739097515582975	0.14752927314099354	-0.032422162650411944
0.025188489033194365	-0.07197018787421215	0.10062371861427138
-0.02033585292688474	-0.05359509004109797	0.02618593945721415
-0.08858921160541777	0.01109014388803799	0.1162061110241991
-0.06684418310469166	-0.14519010357705592	-0.059403446852906376
-0.012017571376861479	0.06375879035160123	-0.04497619921139747
0.0535274272943856	-0.09570731747780398	-0.05066438157551818
-0.034409441236312184	-0.16043540273387707	0.0772637969173814
0.12209105592457488	0.17859041724225527	-0.04522630692488197
-0.10008547103176312	-0.11193738710264178	0.07442393715229241
0.1392468465438102	-0.04340909490774071	0.0021527638255848876
0.07298532017506333	0.04612303435076829	0.03206912191315505
-0.06316611316259839	0.04347771135614982	0.014097997415895111
0.14240005901642158	0.03993119196568455	0.2360276542014065
0.08585249200478304	-0.012002035109708773	0.00400746286276381
0.03235821484060804	0.02730134834544513	0.22061659111291798
0.10477470523531437	-0.09330481917606925	-0.010543703670386402
0.08267743174539052	-0.03498997333279666	0.05606071990965853
-0.10179112170030725	0.18177919136211865	-0.0701223492639044
-0.08833369413334069	0.07226856820927088	0.07812743954806405
-0.09486438199545345	-0.10530766208731619	-0.12627717990034587
0.023521686303291822	-0.19135509724762614	-0.09051596696452052
-0.07322069008587996	0.031220878559100815	-0.031150214422587853
0.05178036162149251	0.16439544532798095	-0.24262191305041111
0.06436606074980965	-0.015355117819410307	-0.008131039971152887
0.04246981065318304	0.1247302956885986	-0.1033648621528178
0.10885163257212334	-0.03043131255614188	-0.07759618661762838
0.05938863579680101	-0.0033456933927716063	0.051197032028639344
-0.07030303477074111	-0.02987444071728901	0.0983506513775915
0.055401699983844345	0.10610760222058628	-0.0441371205589793
-0.010294651492890794	0.14238906887167496	-0.037148340016243425
0.02308931686241622	-0.1042321298251415	0.08092695917825254
0.010502726947475258	0.06646932767622854	-0.10743464006764084
-0.06120996181567831	-0.1468188952457703	0.13010155241175056
0.09620190187379558	-0.17321050553177508	-0.0243672087876404
0.07699829920760765	0.05344167909379377	-0.15746797151410746
0.027243193425025878	-0.05228392757562527	-0.009423165153204134
-0.11131420402415565	-0.032631665680167975	-0.027551192926020054
0.11904654094212855	-0.10760588950606828	-0.0004958971725405356
0.12258601424799292	0.0254893713924696	-0.12083047241988606
0.07857993918799618	-0.13212447137677646	-0.12245120571453001
-0.015495619584624865	0.08155540263723778	0.03723600435554911
0.021998795926809405	0.03737523392525112	-0.0593436564139183
-0.019147650075673414	0.046922691514103866	-0.0490435571790827
-0.06947045265185514	-0.016098628388831023	-0.041594123917424265
-0.06045143432706476	0.07554830082756321	-0.06398251157020356
0.055399835787693634	-0.04160766363935339	0.02607805135872331
0.06290360168543005	0.01554672055395742	-0.020029378362997896
0.029845056321942197	-0.04570247681151932	-0.1010552675319123
-0.05233460141358176	0.08468829717688565	0.057895634598091765
0.09478329485646034	0.017175870552473393	0.04551733967003922
-0.02940640572595583	0.014879751899506462	-0.07361809400746758
-0.16190335309119988	-0.03051892651349934	0.15361919505353858
0.0005379720393197504	-0.07847104319727688	-0.07828335149180082
-0.02583730685147721	-0.05044717082881625	-0.0971190127346602
-0.0462888169053001	-0.09202847404554403	-0.12097131218762656
0.06584021472014011	-0.06609054092079472	-0.04011900494754012
-0.00012201801084121222	0.07417996857776456	0.10219411447725149
-0.05705418985460909	-0.0497277431387451	-0.017425415393129556
0.0954796215380518	0.24724865658408107	-0.14186772836498482
0.02076364904200195	0.044636540950893026	-0.05506715573843841
0.03257230651581722	0.021921886433461543	0.008138832373137414
0.06017916111636171	-0.02951547757288774	-0.002240867067213212
-0.022398720149274295	-0.21081063022221425	0.10639260771765212
0.02028661489572153	0.03785637898310715	0.15706144233592897
-0.020514527797464925	0.02667835575860778	0.08576582315321304
0.11726737738718479	0.18084286432642954	-0.3452616789796955
-0.006431782224200124	-0.045791064939553115	-0.08055684232302913
0.008592702409977492	-0.04813866932310674	0.04493117809167184
0.1291152000894736	-0.031223118688790484	0.1846056740785355
0.0996299208750548	-0.019764555473104743	-0.0807241844126298
0.10300711719737171	0.001424982873522937	-0.03449521964081371
0.08901409673224663	0.1299082525767732	-0.08225651214208603
-0.016039289669904953	-0.03302951991948638	-0.07493911562065446
-0.042553495041547804	0.1944955460713743	0.01386674111716046
-0.09812507816860545	-0.056214606898285654	0.1553312875952253
0.0830922230067869	-0.004320816724152114	-0.05267508502263658
-0.15171607429687442	-0.08875180721436571	-0.19461889503469523
-0.03232793845004424	0.03813328226864843	-0.02230500721702061
-0.009901407317566216	0.06310864854616413	-0.08484472430951438
-0.039370843303903086	0.08470164123989495	-0.06508895909812713
-0.10475054741731911	0.07828161094701824	-0.0745879135218614
-0.08306083045467115	0.06557838412537194	-0.11056261086510305
0.009358166605467285	-0.17218131363861391	0.08924019207405058
0.08014262525470052	0.048488484121322284	0.0319440566089141
-0.05971336783731075	-0.03569972260624631	-0.10552647346456703
-0.16546320442209744	-0.09292572257606606	0.17477703839382783
0.025131629293443706	0.0025382481049859994	-0.08976326798720266
-0.20880823265125434	0.0725313160615244	-0.0004233626207869147
0.08458159544274202	0.10457737321954295	0.12144298606220655
0.1477817022973078	-0.0637649894979076	0.08555883509696467
-0.031249428177525893	-0.1261626455223977	0.01099593409271278
0.08568882239483817	-0.1286671506520383	-0.08246425114204471
-0.009540104119415645	0.00146715142426815	-0.015882491102237477
-0.10482760935036595	-0.08003097390473277	0.11404132311722204
0.09287432736913995	-0.15112969312546984	-0.046810491448020124
-0.35542615583008497	0.08717600684002183	0.07587136629147878
0.016979060390155357	-0.003696883527982051	-0.036061756779798
0.015530397428303722	-0.1502016209699538	-0.09723772042721869
-0.061789340281401484	0.0024380388641922876	-0.009978455524571803
0.1478631950135743	0.14956454671234787	-0.09653328454122391
-0.016353181953598032	0.0555263664630811	0.07744007258154553
-0.043378553788574026	-0.10398582558439996	0.003527199029541688
0.20783677879836088	0.1763894459261572	0.012889993319208651
-0.15026299970367094	0.17839478000848263	0.2064174558844554
0.07580978393881516	0.11501022526094487	0.04841179458687873
0.03619635462358658	-0.16945195882975989	0.05048229307185966
0.0948171312368153	0.025811393405279725	-0.021777825006491086
-0.028292773271016362	-0.07228197205171731	0.09867058386541451
-0.09166085611954723	-0.031004423831869316	-0.17707790171620497
0.07356550483561075	-0.037039205987012755	-0.014196428971773908
-0.08617609203778993	-0.21745659192013753	0.06977283631404199
0.02358704749325743	0.09667824767423314	0.010620246818341545
-0.16544165905123354	0.011085543453533896	0.05141121060156354
0.10701644367126073	-0.0646207020406349	0.14474469948430074
0.07103003251249437	-0.05564831224053324	-0.2094992418791591
0.12485528854463288	0.05503941610877609	-0.03086090870552008
0.10204573063710422	0.133066521424901	-0.10235682590676476
-0.02984968894830939	0.0591348072822613	-0.005420872054291452
-0.015510800452089631	0.061411333326827036	-0.034708405201555825
0.06857629091406871	-0.10679209525988737	0.0804133902472431
-0.15253645188434448	0.04973935543922881	-0.03897282947180559
0.010828580696387667	-0.056341684206982955	0.030775409100663988
0.053975803569254584	0.10535650229090923	0.10234311625776946
-0.002755705642149633	-0.01161453667168396	-0.06280192313045176
0.08215379123339435	0.03009192789400527	0.019327890771678742
0.0630525769281334	-0.13039229175774705	-0.12098221854722545
0.17389411549745148	-0.0047448663525512975	-0.0027679864703678446
0.012598371615435587	-0.007415785873622795	-0.12688593244507196
-0.0024907021907577664	0.018097300688310232	0.07787641272029805
0.15489223878317132	0.15176417830171354	0.0675789713683871
0.03986493496170658	0.015823517166308733	-0.036084774512915085
0.10438914810210938	-0.005083820820683705	-0.0626211607338633
0.012720366523730809	-0.059955136328772994	-0.12083713112943659
0.15549931493317073	0.11727159474136638	0.009903925583711592
-0.05680432364590885	-0.059424028371485055	0.12039855915913523
0.17173410924930274	0.03283178783572613	0.03578540283319755
0.0018641909117585941	-0.15153581877474864	-0.011224363663312984
0.07080303010659562	-0.06503474509878628	0.037682706361966266
0.05989452741010773	-0.09872582706075565	0.027549051700959892
0.22083942854954602	0.19038409301671852	-0.11486526480844989
-0.15345500459331796	-0.05705224112642688	0.00889518282094779
0.013828892994594113	-0.07038767135626016	0.06317616345595148
0.0170755158146359	0.06284773437766998	0.050551911467613064
0.0005221035182507514	0.0344015432084095	0.04608232270924654
0.12186664880355957	0.058220853479938585	0.1593169289312115
0.13777591650333584	-0.011993293871518006	0.11689232829842679
-0.0008179047930703952	-0.07964722715703533	-0.1315005670816662
-0.14938143988681157	-0.13482845741912236	0.021158440484260452
-0.1440207932817197	-0.11667697743151083	-0.13455184169210602
-0.06242160905701491	-0.11902924456837105	-0.15624949697961946
-0.047087284126603124	-0.1285465133608598	0.04163582649757626
-0.11225563756627074	-0.15459932464213486	0.0002324373093784232
0.005025482848491758	0.046640055156595236	0.03437100657097567
0.09843781616442925	0.0603002336818556	0.11171174504912806
-0.12625623273290312	-0.10784425848056861	0.02209442879172245
-0.026236381837675262	0.026609589392661462	0.09931794784126712
-0.02793073708256517	-0.027845850023313717	0.09278041690721488
0.04834058620461522	0.1459048714252967	0.06898942079810151
0.14048759354770712	0.1628254650984306	0.03348820167522291
0.03818069897527965	-0.13614396095974818	0.04756260094844635
-0.06276575787513092	-0.02211602159035485	-0.03965128998549478
-0.0769343838048341	0.024961815140137025	0.21091708825962238
0.02422739794555501	-0.08735139173455725	-0.011494929987730546
0.0794673962661458	-0.13186239131125502	0.21003260784899824
-0.1260833963328186	-0.12251248506440116	-0.1255602959159293
0.06421331921667091	0.1214149158955629	0.08318407828615212
-0.014957424545504864	0.02555601339465259	0.1241960468752359
0.0357835890477662	-0.020298066250312365	0.015752920340471446
0.11625639681214452	-0.034473182534672346	0.18482693795775013
0.07986927321782052	0.08673885182355012	0.028034702759748033
0.021626512643494942	0.04199415817592198	-0.08451987418998513
0.054283055389523736	0.10733044371992122	0.06357976672138428
-0.1474058965902148	0.03820113556022891	0.11831501486202257
0.04482243164511596	-0.1425421668204902	0.05840088684790889
-0.03282132433524323	0.019158663384393704	-0.08338869985590937
-0.13722577190135934	-0.11037550421216683	-0.07010064229493083
0.07798340403144849	-0.02801447713055913	0.041552811585033204
0.10508624441171027	0.00046199939258488256	0.2796079285332296
-0.021480903085557272	-0.08307519895619125	-0.06809441556270353
-0.14331738741115801	0.14667364638909883	-0.04373557984984242
-0.09180757350300124	-0.06211233833170708	0.07432868759598606
0.0869660292368538	-0.14859531357137373	-0.08948563428203446
-0.1400672346268094	0.05006083958210574	0.02977973004042441
0.002107668141810899	-0.1280573756055547	0.16350568522846448
0.07016352114812636	-0.0013384240409081338	0.17834823865067012
0.022132122010606287	0.005844397397773516	-0.029061383262857572
-0.016705366957879504	-0.06131747407819015	-0.1689595417399458
0.019268364391782294	0.029883349779923164	0.022179196445562547
-0.24704644278627963	0.10214970855913905	0.02991042693684868
-0.032137210868325244	0.04643963149525317	-0.02935539952220885
0.10296129108850265	0.03838146704517911	0.06340568990505441
-0.08996172558158129	-0.13011953387335465	0.006338393178283111
-0.07702783365253418	-0.02638783117128477	-0.024982906780882656
-0.02275041814109828	-0.0017596591685947653	0.17853927822570853
0.051619236899850526	-0.05961222676812604	-0.06675475723460599
0.13636977682757864	-0.005411958925347177	-0.13384946024176797
-0.12317206279004222	-0.048196414031279104	-0.27064640941480805
0.07287342759075933	-0.037558716049464036	0.04827974720381577
0.04930965469630947	-0.05990205545894217	0.0061614342089994535
0.17923549298771949	0.13334099552432532	-0.02190269635759887
0.12375204055448559	0.08258223233893833	0.1648939642749708
-0.03585299869320547	-0.07370870861582332	-0.039006407788870046
-0.05581909123763867	0.07670300621206665	0.06864950494656837
0.033296289191629996	-0.2814557943960818	-0.059437939725091565
0.015537706464914286	-0.1403786788863864	-0.05610883966590481
0.16692463687801845	0.0281925798143927	-0.05363419035618667
-0.08784950055232182	0.05174554014508172	0.2456246940690213
0.07547064205278727	0.11593266390302961	0.23020372909580625
-0.11305631693054398	-0.06474443584208625	-0.0865896037580072
0.09929755308691805	0.0528250653585996	-0.011562318734478928
-0.03474501886773032	0.03643609494774037	0.04464393314422934
-0.10710069866128365	-0.04124023353141868	-0.05797011468049933
0.06995777251810656	0.12304238205681282	0.0034392956283023574
0.0357375788908033	-0.10919011466637883	-0.04268256430916624
-0.17861755350944647	0.2724793955976222	-0.09459514952998428
-0.24918914776765708	-0.03121206899178273	-0.1912608766954266
-0.048834251305514914	-0.00848649902413824	-0.05080224393632374
-0.07913660612270358	-0.06153404628138176	0.16824726075333074
0.09421135777544787	0.0010659570522353163	-0.062386933213937096
0.005920925298617416	0.03783826373677723	-0.16017233619239632
-0.04321954915862019	0.12970465740203593	-0.01921201720317573
-0.010275766962104646	-0.07294667199324047	0.0022374722040902507
0.07569416093458323	0.14106257394463484	-0.07446799105707419
0.12793885051684073	-0.03414396113325335	0.005487032525051689
0.019517014411930173	-0.1049403463221779	-0.06090787405881473
0.056580684636454597	0.11254748296775524	0.040923812555742484
