0.06042683342393399	0.028970565559285632	0.022093486999433323
0.19569730364939006	-0.07188017641463346	-0.042086505346023116
0.002539647544450075	-0.03648695675644013	0.01467471943370436
-0.027882065563795768	-0.09901240334793218	-0.04581876431527783
0.04482889418161804	-0.03988295493731228	0.05546920413126371
-0.04973849774769727	-0.02536497058351523	-0.08216849856621243
-0.017856168008409883	0.02078867220686728	-0.016859967310272585
0.09263939623284007	0.04615345233032311	-0.004899048107508926
0.04341011567157769	-0.009276976397631406	-0.017562999962156704
0.029513637689313282	0.059432839667294526	0.009568612535044346
-0.019967104810439066	-0.07434986622516106	0.02976022631880605
-0.05086080909409572	-0.061046793817523655	-0.018541606019174754
0.0993084840476179	0.2477739121267503	-0.22562285731968662
0.07806155334301897	0.03188751028429289	-0.007674058812074264
-0.03986314832828135	-0.03712488147695245	0.05440956304842076
-0.024083160699915628	-0.04474664742962638	-0.04089026340186303
0.019940437758425737	-0.030831665976289835	-0.020621830099381892
-0.05789353018391697	0.034227753623126064	0.017653039909027685
-0.004419197329888134	0.0287983646707228	0.026796640213126513
-0.017932278697205702	-0.05404701268928572	0.0538438936696302
0.05149479696527022	0.024756431244149675	0.004659777979026221
0.049204376783972686	-0.055250160736270065	0.08515847761300648
0.11005958282543488	-0.3255075634807349	0.2270052785670969
-0.030275501051103087	0.06768719885037253	0.032470971260458774
0.01798262919331536	0.08094097666398622	0.05125884974562907
0.025345039494394758	-0.03098800206825555	0.03219985388825703
0.017554247205435136	-0.0017144959883998974	0.01864958631367044
-0.004844866862014014	0.019058975667533333	-0.10282309977170268
0.1609593910126289	-0.8339390246915509	0.5514868663591969
0.03256563097385261	-0.029115921126491192	0.05937160163290918
0.07801392054666643	-0.01299757258596837	0.049893535933173555
-0.06432921078770742	-0.002444221645984975	0.06865408238022264
0.00559664213862282	-0.012806162088088428	0.04162208192079777
0.03607972625885408	-0.01896438239014257	0.075742568046962
0.038483082063025156	0.07001629407202824	0.12471187819429569
0.03800840863669075	-0.0016591614131422309	-0.02015480971549942
-0.036441767612704366	-0.09127405400889613	0.011695880207983303
0.10468569157718721	-0.0219560519352998	-0.03741067755636116
0.042997943879843056	-0.06104089865384076	0.00525381954156771
-0.07608232443398015	0.08682826331494363	0.0003423554760644448
0.10964948172302438	0.0878135575968479	0.08156635777509341
0.1274579845434387	-0.37427714734871725	0.29197285055140987
0.08417159626897011	-0.043954665817224986	-0.02086435037239952
-0.09132207352355153	-0.07926364838948258	-0.04545122673260937
-0.05924278232801672	0.017000866671510167	-0.04516601608113932
0.009878995465449807	0.005224933965128501	-0.009733238745348925
-0.0482758670151873	0.02004301366649593	0.10959939743917355
-0.0025667692364842974	-0.02606510654237283	0.03279874314332261
0.010494160087201755	-0.009050761519218164	-0.015960697442667163
-0.026241056893701067	-0.010456301762471466	-0.014045764197486994
-0.0056641979673508125	-0.01927957691533125	-0.017553820592004374
0.031972361140677794	-0.4181465478526179	0.25878552906823576
0.09333994267076624	0.03639572001642301	-0.005144929372777843
-0.0330777269788875	-0.053831763063143925	-0.0951896209041171
0.08934456254633633	0.06976452341975388	0.09876916182547345
-0.015700961648540655	0.06423800361966174	0.06724094394583859
-0.06305827427137708	0.0006198160311829244	-0.006973673438334757
0.0362385465022012	-0.07324924200566141	-0.053135637899753105
-0.046513804317400306	-0.044737473604001175	-0.017929622193531426
0.04672166369715725	-0.00018936668186523488	-0.013446710014126832
-0.027003365697789158	-0.006566470879641407	0.020504995669016972
-0.03324434889478603	0.004108982643877106	-0.021374295471183382
-0.0049755966707358615	-0.006397127026006364	-0.05896357819154523
-0.029587976581761672	0.014755439455224152	-0.07073277240251848
-0.009059578307850365	-0.022970857894625416	0.020431763060750063
0.049218081527490416	0.006730211891017169	0.036511119532312515
0.018270246093754928	0.03772918823701473	0.044131764428160136
0.15197871241014568	0.02698636347988368	0.04855872407900895
-0.024740097454708638	-0.017106758761506757	-0.05622053045865899
0.0009429218313785143	-0.015316579219515073	0.06905437711291623
0.041007052252059854	-0.07604247525787947	0.10653097348396214
-0.026464531453535924	-0.10145156844771978	-0.05050135358297591
0.011262715619627517	-0.03207707207458953	0.07602053760095903
0.04893423379809081	0.03238555921308186	0.014328998958108055
-0.03745525932701094	-0.004268388909782699	-0.03607226844727435
0.022615292430830103	0.061574612014328296	0.11597047397083517
0.09457647272118228	-0.10337587460307049	-0.12894540779433475
0.019945529193371177	-0.004659738984182021	0.06433596896526549
0.02789811997135834	-0.09088251498251627	0.05415635454139877
0.1034883446088242	-0.026482458615782817	0.07651517573127174
-0.05339832624626064	-0.04704601867107585	-0.05184518988596195
-0.06175276664362719	-0.005873842658056394	0.015436059947741722
0.09792208755656184	-0.035788720812385	-0.04738608532569617
0.00789156239867669	0.007029139671321311	-0.04511925978518549
0.003978016551553444	-0.038047183035370705	-0.09816693201833902
-0.07770669224471952	0.08260355816594393	0.13392349167740425
-0.06485423031527776	-0.028080349935777144	0.04597210261466649
0.007924966318549864	-0.11401486869000685	-0.07368706900800094
-0.04122209518376797	-0.02614475702202324	-0.01791398719181718
0.018646162845302836	-0.11908436545735958	-0.09440167271361212
0.02739624309631517	0.027479350933558765	0.022447983930769747
-0.16459115381116313	-0.01801924587733081	0.163819921152603
0.002575839697556692	0.010049046139426188	-0.007143844332516377
0.0354656457412066	-0.0825834498741141	0.0489721102245927
0.17852571450147778	-0.45892663047032295	0.38457737437387685
-0.016632770076813765	-0.06179900527931399	0.024301205900840048
0.0795234231188746	0.07537339910519301	0.051146884753499836
-0.04766262394603326	-0.06317568626620261	0.07379574997867389
-0.007238651088802455	0.041683577226637854	0.017507084124670655
-0.034219609172631074	0.009675969763434794	-0.04056662472031216
-0.10391806190241304	-0.0022759521026002403	0.005654333731738001
0.08350402878838853	0.018121824343494457	0.08617474083550479
-0.026953750707571115	-0.05942866433557058	0.04439476542872343
-0.0032522066284220493	0.09349397556921123	0.015031149626987933
0.04719919035220043	-0.05978315602312642	0.006393176874261834
-0.06619489031578245	0.0034825773862940273	-0.038693272227038514
0.0361832806851393	-0.021979399843434055	0.04299975691025684
0.03801266824302213	-0.021555034393195012	-0.04014189415921416
0.013003716112836863	-0.08800006593848102	0.02416193844839929
-0.01872974143967149	-0.10596689098522745	0.008283146227795652
0.056453086731341605	0.02208544169138439	-0.0007516242937248135
-0.02030075558626362	0.06276685893678127	-0.06270207906784012
0.08507943840573629	0.012403377575544735	-0.043489463391543366
-0.023251566446566847	0.05472925908200972	0.014396676639517813
-0.05106640659524241	0.009589340175836123	-0.07782447990100269
-0.09095410908728319	-0.04951813333892913	-0.08298695529597498
-0.0025530699410024043	0.08121598068399383	0.0013292905784210588
-0.0068909602751414285	-0.015537715590875056	-0.09401969827977356
0.0017330656623725216	0.01780510947484761	0.01262550825154637
-0.03677573060051945	-0.037567712156185276	-0.037980078231059686
-0.0009236912422551302	0.026139231748068037	-0.03340333194590465
-0.03575725856240097	0.031978344283222174	0.04524744253527468
0.02634338830141747	0.053751076055027956	0.0009720651757998816
-0.010173368212492904	-0.02314588729387174	0.0029475979460398117
-0.008447876952008854	-0.06960232308366876	0.08350911454186559
0.03848170994733168	0.003096573544970794	0.07054588362350162
-0.04493851129249211	0.004593352387041816	-0.08646430807536302
0.056684610922759456	-0.026947194871880242	-0.030703687679057155
-0.01321817681059016	0.020794065966791543	0.0651359197811127
-0.030640571042617783	-0.04779678347005569	-0.012258994170951078
-0.03864862159095118	0.046576678724549236	-0.06009264454761892
0.10053468057160106	0.06746233790445848	0.028283895304768297
-0.04969378508284801	-0.0824565016367987	0.11909316140686578
-0.031229404275695514	0.005671750627395842	-0.04823037649637962
0.013161837222207616	0.039075747279544	-0.003615358722954962
-0.045484582030398624	-0.04360015330847062	-0.07670447216117283
0.048352684895199685	0.01642793987949478	0.021573384567703642
-0.015545678442609404	-0.02935140478140384	-0.00180005015462174
-0.003630187277044591	0.038825625454532935	0.06372385323999788
-0.007883160181318145	-0.0392805435823985	-0.009308812687248274
-0.02982101115082639	0.02233904852267618	0.03781033831308038
-0.09027183357971175	0.03574814544562999	0.11143225388294492
-0.0701066410699924	0.018409108160099386	0.015826800744962136
0.04173608946229364	-0.010038402932292845	0.045905934558996615
0.014925138183300208	-0.06089817344473902	-0.0005098898954701476
-0.07400440392917665	0.008821197776541462	0.017380023936771717
0.016710075846750955	-0.05179513316873882	0.006437659286429774
-0.09487638700565876	-0.12616479897977545	0.19469906946410423
0.01172651809894713	0.013677533679105281	0.06480129469019008
-0.021544695136393142	-0.13462623083542713	-0.020765546591511135
-0.10130994073272849	0.08622780375121393	0.02848069029720249
0.08368311996268386	-0.06877536470746796	-0.06689564396430883
0.02487025066632648	-0.025731089897447667	0.06912536198202317
0.008723182097927551	-0.041586781906223176	-0.10998927796738636
0.005049600904028044	0.008514859381356172	-0.018286213007101534
0.028802751932337542	0.0033332121414251297	0.058454926005591726
-0.042544196739276376	-0.039901401870284486	-0.0931490218933357
0.13969778040680764	0.017419124570215216	-0.04914041020938546
0.010050668848529674	-0.062822845345844	0.050198893460468706
0.07193148946261647	0.0849226232432008	-0.007813114931157415
0.0364068598803472	0.031105193934742446	0.013554491028724785
0.0146471608572596	-0.006735377310452356	-0.014973922345631085
-0.026788514291067836	0.04272277155498723	0.057623953465338655
-0.04560554845941142	0.023838720491181582	-0.10165466157501618
0.10315669448556421	-0.047087744259094295	-0.058193658456359605
0.007550385575907303	-0.09616913042156609	-0.091833301424094
0.10757841524634784	0.027235395477852357	-0.03157770540160498
-0.0004830996534675108	0.019403221241818723	0.013589586604710477
-0.0008819270332999498	-0.06177216026998798	0.010789485922355133
0.04444045494332768	0.06699303226686819	0.0701334264812211
-0.012260939766950186	0.07749873435450029	0.06500807352258543
0.006328482091191412	-0.05903719343666941	0.024158960139920197
0.038151491061800845	0.03461093674243398	-0.04383640845286047
0.04168628670732429	-0.03135885669072794	0.03222354578209488
0.06483376453414733	-0.06349220355334093	0.028861842594533636
-0.020574170220053208	-0.044218994147295985	-0.06885489173012557
-0.02200532072968371	-0.01661737396054486	0.1457480662886579
-0.0007970298085931586	-0.002489389347296356	-0.017341562464996237
0.1074371647266336	0.1387464322071882	-0.2297829598119971
0.13853351785538692	0.006369391242571229	-0.01846874085914352
0.0585028603927812	0.03712262752796247	-0.020058473751918146
-0.03639301541795853	-0.07125728530085922	-0.028492669590255235
0.08999990302288816	-0.027235057289974236	-0.034809883845824625
0.00486795738346963	-0.013716382518593593	-0.023304011213377607
-0.0415500279978585	-0.09907941577209797	-0.07844836008991599
0.04091260414313023	0.03607975183184967	-0.026925743950484294
0.04009856671782784	0.052818245386264964	0.040881486340113245
-0.029323431678021435	0.08984901163701511	-0.010989698473190805
-0.029447122576351587	-0.0305411379466564	0.014267333996119217
0.006246753190916522	0.006203226702140785	-0.008264562841372936
-0.010939356897686315	0.03474710090068094	-0.013711770658061935
0.07266717802458064	0.012229862276246995	-0.05545683261916902
0.0005502130367915281	-0.043737147366104075	-0.0006984804832150763
0.013086534759858178	0.04704247356745199	-0.11468800823391201
-0.01790238164445573	-0.007582169197363925	-0.007868063440558104
-0.06815037823265634	0.014647734759867567	0.041995389772980736
0.10166656650285104	0.03545101760845773	0.005509034537295056
0.046986172461953316	-0.06077745502333279	0.012606506255268978
0.0028742242372233116	-0.01603549066666871	0.06612130465989231
-0.004739049121892375	0.04338679711487386	0.07080612020099958
0.0008116773834179785	-0.061210594033676534	0.02010335614683121
-0.02734869468462357	0.10660367791294804	0.009408270086062799
0.04146643575193148	0.10512285881750828	0.026421311134398953
-0.049290885943159855	-0.09141290741216698	-0.05947024608352131
-0.13894555565134767	-0.11473821684648416	0.12858101065368416
0.06897499279674325	-0.04356836068531336	-0.012235933831516646
-0.037267841810117996	0.0008520227257750197	-0.07033294158226384
0.02214067153431077	-0.09609307214060793	0.011367992705620947
0.035801709737205804	-0.07263637044762397	-0.006725816232301312
0.03625424411377409	-0.01868232225997485	0.0058976514052609934
-0.012129487212309404	-0.039062618148537225	0.07216779708403512
0.06667012441406656	0.019519862413351772	-0.05006964594899513
-0.05216527614497884	-0.03460371300348277	-0.048052388246692036
-0.018256833881132747	0.04137188711808876	0.0008669795458354347
-0.09427030708732864	-0.11949683945071957	0.22030813090572507
-0.021497568249492328	-0.08752046442139709	0.13893883157583184
-0.041101368150588784	0.039207193848023784	-0.013175102071678102
0.07195831139755064	-0.028447100280293736	0.08294199157158462
0.03425793100911391	0.06715528570807086	0.028047776249981407
-0.01887109996016853	-0.028645462749368984	0.006009431538903048
0.026409831736498208	-0.052101194266864166	-0.1014562511805115
-0.06216529859858224	0.001025774765433347	0.008237863413917983
-0.19904331309525322	-0.05007692946959552	0.19465969933954805
0.0051726992947323655	0.0063495547274080135	0.07188572268337481
-0.05830772684528221	-0.005845724065456839	0.026923361985272856
0.06473226904328548	0.014029460710327958	-0.011780678516159396
0.03511724083146895	-0.10236285832068595	-0.05095549345231935
0.07233970202503019	0.050493468920746784	-0.02105350884603116
-0.05498267224363563	-0.0032281652673367195	0.09548247006071586
-0.026667682109838737	-0.06779517733651232	0.0025384884595617625
0.0019363668796314579	0.007168367735878134	-0.030210999348439953
0.06651858649462757	-0.01375706313832016	-0.07852102346016523
-0.004256034308963836	0.048470685974933626	0.035081652576767465
-0.003985921041420665	-0.003549946829490032	0.10364533207577195
0.01627434045142277	0.05732643943718809	-0.052139407884622416
0.01556948005271195	-0.028758113595178193	0.04494950221751043
0.05282780123779069	-0.023012388635410604	0.1260870751522461
0.023190743555688745	0.011064416685000675	0.010919344228984232
0.025445204033625192	0.02189452846863975	0.048077582258437904
0.07386821938568075	0.07656055001037895	0.028109387133672382
0.09522575416070224	0.04460097239297916	0.062124072731999436
0.011405792454091578	-0.04826850169714027	0.1576117238519027
-0.0147956244993881	-0.006440296831334307	-0.06887192944026295
-0.02204673323002736	-0.005203848565988269	0.011457667455476868
-0.0399578204805932	-0.04700869462381073	0.021877708763553612
-0.012287335673082633	-0.08611856498711874	-0.024885687922812816
0.08789332527764289	0.06387398757569689	0.09130889447711892
-0.0037532787081115196	-0.022669842827119147	-0.06458279183855432
0.023764584090477187	0.031723608471337476	-0.06919570666135201
-0.03911558119592014	-0.0719274787724671	-0.029242425990408244
0.08925310829869161	0.047979844053588405	0.024410454489240428
-0.04320927406385413	0.03235122494449094	0.059099769595071336
-0.010692076685201298	0.09448716434662126	-0.10602463892006028
-0.0668796814235823	-0.04705957583541311	0.058651405087768345
0.0369383157704588	0.06607023495306065	0.09472873623896308
-0.022570124808847403	0.05353313581361088	0.042845875448807455
0.13717862293901562	0.15649534190524353	-0.24517641582117208
0.05169236252282854	0.034391370460317296	-0.04472910346371396
-0.10962460980889115	0.02789069890565504	0.06812244141537664
-0.05450980037296202	-0.0175418082209049	-0.03268771746844096
0.07336661500847697	0.00841580491358067	0.00503846712778266
0.018324631737652673	-0.0986000029412398	0.052545632457145074
-0.014103343697365971	0.009501844621974835	-0.027072352350334523
-0.012284041543827442	0.05295359542353556	0.055757915212381784
0.050698348050940145	-0.029988399262335475	0.03188033023141484
0.007626656754587145	-0.05534608580732782	-0.013042252190817958
-0.09946755828991274	-0.03995646349062261	-0.1123193534729389
-0.24410329936366476	0.019927915025146098	0.13031100291535622
0.0033454852905811317	0.013838001883594804	0.01875891760580122
0.007462814704658085	0.018083228883801344	0.007552746330189688
0.10967602022518738	-0.03668457776335207	-0.05359781591792329
-0.08623207378946754	-0.021719786110459854	0.09230270520965432
0.005349061412883697	-0.00938911995514325	0.06684452930281275
-0.027777868701146933	-0.039274752782118075	-0.07118451632542648
-0.008754035619575957	-0.06910888651834292	-0.006822072227666489
0.00012339334707027366	-0.009935527973668734	0.052580017493162656
0.017759689083167784	-0.05866014060921939	0.013306772753976277
-0.052741329751522494	-0.1103836640628745	0.01920469647397981
0.06544446878226878	0.015134783233184453	0.06478210601287163
-0.06245993609746794	-0.13974971246955806	0.017068945259639437
-0.009394665973611958	-0.031267289611029814	0.045967652337039325
-0.012755015354789933	-0.03579388937649449	-0.04547882935112296
-0.006157480442520236	0.08191210281992305	-0.09920507154953229
-0.0054233883894088805	0.01580780063526303	-0.054295473438520085
-0.04821606902355115	0.06297501881384279	0.07129126814402885
-0.015297505332343283	0.01287461773345132	0.032023448087570246
-0.03846385320644145	-0.022847124732756467	-0.016167727358470215
-0.010605683153587403	0.033166363998865134	-0.08648625995174497
0.02056240888954523	0.0979081667323115	-0.2761499617375658
0.10938890597433289	-0.06188781610736143	-0.0436542364211805
0.06216449499356028	0.00935703231591057	-0.08545947558867352
0.03653145184498394	0.021964648715274388	0.04494574017353097
-0.11873638053075991	-0.10435230872600137	0.027369177512053523
0.04039048318099167	-0.036706555716059276	-0.03183435176444295
-0.002735442319568384	0.02865926859606728	-0.013891076436951038
0.003205296974549991	0.0526337473207091	-0.019696854850481123
-0.002748059484972196	-0.01537944233808196	-0.12784465323945024
-0.03893992113835205	0.0055364813789557914	0.006491133300452729
0.012619627392661717	-0.031213670325459963	0.17070657882357648
-0.023852466177992623	-0.018852766445429735	-0.01379772002408619
-0.04805730785318774	0.06013332349475131	-0.12026366671232062
0.019432390889818706	2.184778774368152e-06	-0.010945783437637743
0.04840574764076086	0.056192905075770225	-0.0006843924067256161
-0.04804520970600701	-0.053181842729230246	0.02460831965176516
-0.0015833077477744387	-0.029518722556949463	-0.038348077924558625
0.004428884135058019	-0.17992548122053112	0.006781359245201502
0.01621197520612037	0.01621054211823962	-0.05497842770500465
0.06473483282096813	0.06169719203596027	0.07497690236999663
0.05675365881751173	-0.04883483407763362	-0.08676063265225648
-0.01431558734108004	-0.010575171707174539	-0.00027308468165344706
0.09373980810777056	0.0009830532550452484	-0.03260664594452355
0.05797164600860622	0.04352036769626472	0.006600462491303633
-0.010196066809586643	0.020307361981296596	-0.09379502591332817
0.009042215460224996	0.014548256786197492	-0.027746110972444737
-0.0019240180003209284	0.0016662491169145807	-0.010372171548174125
0.09426850738321425	-0.11101879628496263	-0.058389145744455445
-0.044845901113452	0.029861686885178738	0.038908087336455184
0.005058806232063209	0.03542546825629839	0.03851475178608882
0.027944123358402746	-0.037231959232684374	-0.026128062568019302
0.01657692989303133	0.01708847085854861	0.1176032375303829
-0.0578920699555755	0.02596518883111814	-0.004687482232584411
-0.026252788190265285	0.0455124960127679	-0.025706184928136592
0.07362042880855305	0.015553516199743274	-0.05496606065455443
0.039591499298394256	-0.04223382249758026	-0.02916028109283578
-0.03822334099478118	-0.03493002666033514	0.011579377454086427
-0.059978129328772355	-0.016264615119717173	-0.032462619124619764
-0.03671106747732642	0.009029397783804302	-0.04969116558291489
0.0011007784339450673	0.11408096631869027	0.06947280627825037
0.11539860440324234	0.06286741729783124	0.09591253750998505
-0.019443448342888144	0.004771684865883112	0.03159271567859939
0.04187026217329616	0.021079644861171316	-0.017168515971160675
0.045424034124287284	0.0874234105731101	-0.07242919386463759
0.009934987746657988	-0.13326527165238855	0.03879183752517644
-0.009481723430863767	0.028291192216609244	0.01905425859795543
-0.00555414167066153	0.05372285588652121	0.00966963241061455
-0.011448500987680013	-0.010502514424886087	-0.012942755462350372
-0.014859777054863046	0.05838527343625838	-0.029929056388060402
0.006309460263341246	0.019339632248608952	0.028794641262949634
-0.06760588131753383	0.019779602166766223	-0.006219920187301601
0.026981950894022017	-0.10017460616770185	0.01164689687282452
-0.007104368038768034	-0.08057582673204675	-0.058582902003978365
0.0011780032460239887	-0.04607541529379259	-0.14036611413014438
-0.08731342343208612	0.006524000056146046	0.09334530540390706
0.08182773719243348	-0.0734498943073116	-0.03423493343959441
0.020587507135030682	0.01120208441531408	-0.024060333613387847
-0.00985150460463832	-0.008056672185262351	-0.013774436962974928
5.515225447582051e-05	-0.0031382835459413247	0.0003663408247784926
-0.10264717087665857	0.056133545962266114	-0.0011798133970777663
0.0139180568587731	0.015696502023616027	-0.005260541985729694
0.012662105381551445	-0.14641644472192647	0.2894051605550479
-0.06621428999649456	0.016774038713018302	-0.007453958180492201
0.08068614638288871	0.08513299458220976	0.04535896710638405
-0.053624892659357146	-0.08070557505012717	-0.023590196351338157
0.01306349538958012	-0.05904711462463088	-0.025951430669607353
-0.02434025754336403	0.09247094089029655	0.049104060683447075
0.053029148786690246	-0.00928294233692002	0.03237770219873879
-0.024615395246928618	0.05293374723614174	0.09130938527879044
0.04242534451952447	-0.00265868923852515	-0.004685637209168083
0.03304877275746636	-0.04875214564953345	-0.004063875080647254
0.07135201088538587	0.0009500630907307039	-0.022923825490424907
0.10445408038709106	-0.04041677894995745	-0.06637389167431805
0.013987732012517637	0.03622715837736838	0.08396538268631117
-0.004251431106394604	-0.0658991400936452	-0.10881709570421873
-0.06381233142868904	0.08607047777344748	0.03764043596270175
0.08123779943949168	9.225043244654184e-05	-0.07649283468765097
-0.06090702425529686	0.00010100060235387155	0.046185292375710035
0.08786169457750306	-0.04532173671939613	0.018593622858307613
0.07451828628148781	0.021297112935577008	0.03898575904850603
-0.09161867023374497	0.0029070812629900964	-0.02344290820933516
-0.035530947341495527	0.00976940898397953	-0.007795074669972114
-0.10806023649047884	-0.0014274568099676519	0.016843240066745344
-0.03503890254411568	0.035460215091665956	-0.011892797250362847
-0.0678459086644029	-0.01154124643867979	-0.011036824365348625
0.05056152354667514	0.05800984669228593	0.009027739525102618
-0.020914824841231437	-0.017654426740640616	0.057300781258851324
-0.16248145586698517	0.01074634037475264	0.14446514193251195
0.04962011037208266	-0.01231503762355409	0.06339312402738576
0.0005288872218595758	-0.005638271451311657	-0.03718369718217385
0.005881371553448985	-0.04298053228162587	0.004096553941515974
-0.02094566299004236	-0.06249362076864562	0.02777641910872148
-0.001445400018534364	-0.042951588370524	-0.003960532348248167
0.053730193840019175	-0.06368448253246807	0.06703634506044663
-0.16357176636384874	-0.11402738035590002	0.05666197727775999
-0.01667893977082421	-0.002696790786375751	-0.04732001141077367
-0.12849843073426775	-0.09809999132426538	-0.0012661614961681777
-0.03892793565689322	0.05245390603253673	0.006935111403905658
0.07575295147856344	-0.022666630178624393	0.03148301715119462
-0.08141077952058703	-0.04941060513727944	-0.042211675637670816
-0.02911635752532578	-0.046035487918252224	-0.02388476585974888
0.025341196471968586	0.02038490754622582	0.04135586279198466
0.03180238554087284	0.04135487594399515	-0.078496203249363
0.12124421930075116	-0.05096145690283824	0.0020430757818623952
-0.0711355029228492	0.056525199062734205	0.04790649547384335
-0.010864584207458481	0.04093122435687937	-0.0428088274629976
-0.045715258396631604	0.03959420778278126	0.049500663256903936
-0.05960765595364472	-0.0027543610346896755	0.005247467573653701
-0.0377915698808356	-0.026787181898968268	-0.04299439028690081
0.0252849499829146	-0.027410569786273105	-0.0021625087484251648
0.05270488173516423	0.034783106902178486	-0.008638099110350747
0.05521728354027528	-8.734914271817232e-06	0.042196469617167984
0.007962973631360391	0.004355340642212241	-0.02028276083930176
-0.04758232566482555	-0.06786454636084759	0.003623729582624075
0.00874713496991969	0.025719077783036445	-0.03780071745781619
-0.024591395404078505	0.07478444815630271	0.10198444643066715
-0.00383778591838512	0.018158151487098862	0.1266231000414892
0.022288563092057578	-0.06008046423166519	0.0354181106647312
0.10788974196393321	0.01348113701822718	0.07078017058161241
0.03550308551772342	0.039064371247287906	-0.037078734859084035
-0.0003862380168660769	0.072278787436178	0.016144691233902532
0.08866331396852876	0.04068287651292433	0.031666144041128275
-0.059524485660434424	0.05135071561107759	-0.0741425709787377
-0.06529842590432011	0.004632525214682609	0.04148064705702241
0.0695047509160093	0.0968749969178823	-0.042682531668175525
-0.18275779315797364	0.0034918728925168083	0.011571645611112368
0.024318485631082392	-0.03819674829432206	-0.02915772591057808
0.0066467680493413	-0.034191725223128175	-0.082550548290691
-0.015487854436526317	0.007767617302713882	-0.07152650020924077
-0.02473176170333734	0.016480172598070515	-0.04238733321714359
0.03360752737041445	-0.010738889009192206	-0.054600671128981024
-0.016598828325416055	-0.04627968039387457	0.046031178030965736
0.07516027342977123	-0.07436020492999244	0.05569200754942989
0.031046733107041043	0.041640785678180886	0.05809393741963404
-0.05047112611969044	0.0806927924711909	0.006206962007008981
0.07215154798927584	-0.03133336127155486	0.05760469045517354
0.06080874732000299	-0.05291330888300602	0.06459592939385318
-0.16786011582855798	0.02383966776392102	0.02911058977637304
0.00398146977548267	-0.01805670118013341	-0.048889652760153536
0.09249509666902886	-0.14024926457716755	-0.07618571445449011
-0.0037266201774712676	0.06490708088479905	-0.043774399519573556
0.0648943955686975	-0.06723364204940849	-0.0030446798763678197
0.028906838256302813	-0.04472002442964579	-0.012358200809550132
-0.038237768685881024	0.003047131036020015	0.1051654719329433
0.05716337293277957	0.0455635300600799	-0.018339749441660367
0.05241545249482771	0.05516008552516914	-0.015714984902591447
0.025318557610565253	0.024733695636931702	-0.12004144432120521
0.06970698586367746	0.07850817194654076	0.11216058894741822
-0.04915869675949829	0.035721178338347294	-0.026850955166827624
-0.01856469065652901	-0.02661017910125034	-0.06597688030527113
-0.016263573854981943	0.07265554328613684	0.028581809560581484
0.00012527001804573187	-0.0698796988260319	-0.0831730071151192
0.04837808299252536	-0.012690187849682765	0.007496480348753299
0.02670988070128091	0.029914474711803474	0.04927514603607751
-0.09099883713877151	0.0334470050293839	0.009143500320305002
-0.000953494774640978	0.011755125494561822	-0.05428121519872892
-0.035068747796466966	-0.005011341832619448	0.011081884273322769
-0.05624032794220711	-0.04071126067865842	0.015427211166273906
-0.008650022194832742	0.10235748773585	0.015284258928951518
0.0380935258000138	0.037374755491722124	-0.005925209212491201
0.017510080789815165	-0.008624617489764858	-0.004435331535924666
-0.07147800584099652	-0.01792910354010547	-0.1179699850928383
0.13383132478861717	0.014353786634173403	-0.03713646682479308
0.015417448477244139	-0.030389966295013032	-0.09678573299392185
-0.00012534946580840654	-0.03606641898883295	-0.007989320353873276
-0.11431543568342338	-0.04541644982297697	0.002211120537999277
0.034716198843620795	-0.09833205689316425	-0.09385487321536637
0.0601946867008647	0.015539811467751298	0.05985804669845496
0.0771468291051208	-0.0358544074566272	0.11288888572316876
-0.03061048425860105	-0.06676371345016675	-0.03130308813560751
-0.019815712598564454	-0.06084307268934668	-0.009846735679846489
0.08722538349172225	-0.025792637093929878	-0.004750268474643912
-0.0649757399333004	0.07288534450786775	0.008057324760270074
-0.05398141039563139	0.07547308614394631	-0.05823569195339828
-0.029431455850995155	-0.0008164657149850248	0.10216932561300146
-0.06937389840511006	-0.0800437688245909	-0.07609435892465394
-0.02315689340339131	-0.014116703344391798	-0.042740238326066264
-0.08666952237960257	0.009282215481971732	-0.04359710169233534
-0.10500736936659699	0.026266209704134447	0.027004021858071867
0.028637963835662347	0.02811226398192749	-0.028043206865494854
0.06791738293089615	0.05320735740576417	-0.11910282664617791
0.033120796103630556	0.08502407297620322	0.03710419243817421
-0.02753323946171547	-0.012303658306446337	-0.03625168647379752
-0.01771176965128426	0.0778816722277397	0.003036422039651081
0.05759890740642204	-0.06221193939304533	-0.10449823819254155
0.11734534919595162	0.1641464462748494	-0.2687858882443034
0.06100722441884988	0.014577650500577728	0.024581725571638208
-0.021643276952381607	0.11798699579172506	-0.0009654096327835429
0.024896803752507187	0.06735622047133391	0.030945229939501006
0.023312022198760038	-0.03936190287125326	0.033016058473945106
-0.0952825480522158	-0.018471184620936883	-0.014914268252925708
0.09707038239087504	-0.028821155451014713	-0.008001457807680641
0.0440758921021106	-0.0656802769436981	-0.04621356397434757
-0.030410833998387274	0.036424245859003286	0.004629279331801983
-0.021753407965433666	0.009066228526275266	0.0928511870112248
-0.005782142832314178	0.015309049271388094	0.050400608709589824
0.042706443964142735	-0.04631102051098384	-0.023901109029715394
0.028855192116344373	0.05273087212549623	0.09184145915519587
0.07867260797512152	0.027490291604049488	0.020576755249714314
0.048131858919083156	-0.016879079815818616	0.09303042951868326
0.0077899573999213835	0.02864905362404178	-0.05672369180565156
0.016199546159003993	0.012028500867695977	0.018577618630365167
-0.00804687249949333	0.060342669757837565	-0.04359147911237027
0.003783177720252662	-0.011914724102013984	0.07974886607672795
-0.1375152111387933	-0.043030061395497345	-0.04213524137516799
0.05730768608381708	0.005333908504376291	0.020447372727581296
-0.05245107391398494	-0.005871066972682126	-0.006875455226325606
-0.058020061091291604	0.05407247382389654	0.1336998938740747
0.005083475184943012	-0.023449761248270137	-0.0806938657273022
0.07191291802286401	0.15400339046894343	-0.07030032867030409
0.05822877657733173	0.014248966533554569	-0.08818633228267023
-0.0006920678000117293	-0.047321874979725814	0.024042641079537946
0.04802287188028024	0.04949306152574839	0.0419592389887867
-0.11524017207086865	0.006242244610989357	-0.016338683261315115
-0.0215766400898315	-0.02089934227899805	0.059769936665281326
-0.06433047969589968	-0.03280138713784888	0.10209304154832147
0.006788243564131444	0.014353972528841998	0.04275514270437173
-0.03489223401706002	-0.00658379292738468	0.027281522343788913
-0.01968860629890321	0.014611749688434124	-0.1376802637906869
0.04856921862022204	0.06058783660145945	-0.035073815989812435
-0.04702136234440814	-0.014409084598120462	-0.12233771875048742
-0.016314976418967345	-0.05291649749097937	-0.00028446800077614777
0.02955091511174008	-0.08326003428062838	-0.01058097812157105
-0.07150547917910477	0.10048208292905175	0.03807742756033246
-0.04024882655510033	0.03783806536481608	0.028425957734335466
0.02355054419812764	-0.0916406634060015	-0.061413181881458716
-0.020303755947419795	0.024446481749757824	0.023717375046538404
-0.014183587166427352	0.026171739259192833	-0.006537676975997746
-0.007057906390089182	0.01692901016054104	0.08991140886294481
0.050411721501601704	0.026092615784589046	0.0431274988114763
-0.12074191925432003	0.07039280072020554	0.028226399302349978
0.08099617379075179	0.06394991635150488	0.13691548534865428
-0.032013160448452045	-0.02718254714467823	-0.04749738997779268
-0.018034757671275204	-0.04950663541461223	-0.034607371233721644
0.07188469025495728	0.006539481593954522	0.019939594084352315
-0.05890872326878616	-0.029994613214440927	0.029582152057876013
-0.035482293361051284	-0.06519185794955229	-0.004799374587243268
0.021012723050001347	-0.07199712649766786	-0.031911989128132416
0.011170516046705872	-0.04488666476543015	0.07626794881426632
-0.019434847738650056	0.03550615411452257	-0.07019900380555893
-0.18067995187321395	-0.0204479564836701	0.12104792896419818
-0.04461502945275668	0.012744004036901109	0.05719872837314008
0.09833089401645458	-0.009785115431952067	0.019030046002635408
-0.028796522895266796	-0.02894506156520752	0.02768010248960399
-0.11160307670317088	-0.038529832963592685	0.006699160224111267
0.04294896395103321	-0.02807989328864588	-0.0012517258668609723
0.04075065048450574	-0.007116317322944306	-0.05036452142422153
-0.014649728477968494	0.022701522984932714	-0.05083361652389235
0.02100917574944664	0.11709931166831239	0.06968507348409081
-0.055290038404565915	-0.053699479606584215	0.03233768260882342
0.02315334446161892	0.0177018523099822	0.03680236880528277
0.06393341630649718	0.009676016855415808	-0.04376473348693709
-0.05552850627608267	-0.015585906005518116	0.07765352714664647
-0.06011250925824474	0.05133013331733924	0.027812986013464838
0.012542686273487423	0.03315295134404	-0.01272331104552849
-0.07814562425758559	0.003778238300492855	0.04647262066306057
-0.01237640354615627	-0.013004177741925672	-0.04972604365157103
0.040172004207568515	0.027071085071047152	-0.003917645697648772
0.08865978207539978	0.020931292972238853	-0.02182878608359739
-0.04188051054698365	-0.10613535874882739	-0.04749222720441572
0.04151533481643843	-0.050541887877350866	-0.054393794157472544
-0.033500864123147574	-0.10466826031734108	0.05850961843449704
0.006057964937305496	-0.049007488313584376	-0.062028765352307925
-0.01798065289757714	0.05732189826027177	-0.007020094380870604
-0.06680267276412702	0.00581931395561093	0.055538195503959324
0.05340478212478812	-0.0014464447290314633	0.07654585690166682
-0.061971224557919785	-0.03948635864964628	-0.022687728123193005
-0.09712465404223622	-0.06139739765563682	-0.0072678845249499364
0.00022244525273852546	-0.02488884896542762	0.04579365950309103
0.08666263704600859	0.05030375533444115	0.05209291388882874
0.10067331575660152	-0.05355711637188374	0.037312424315114515
-0.04368608663320835	-0.03755312231312097	-0.07570888147003728
-0.05877351634354135	0.017422772173296693	-0.013145047111636842
-0.15615049247658752	-0.0632406139187732	-0.016109747073032015
0.0705919550630104	0.009877835434720211	0.15269176281840594
-0.0804589246928728	0.061047908778508304	0.04700555503379096
0.06751960870063363	-0.03529263343516069	0.018375941666939278
0.04415608938668955	0.028784042527612498	0.03274558985413653
0.029831897045357655	-0.0523332410624541	0.15334345124952026
0.036296054299128244	0.0644062661500962	-0.030934681026407507
-0.03623358064533998	-0.07140736064178692	0.00197946070536673
-0.006828199645115564	-0.031766176835359816	-0.05171142683608654
-0.010553703708540235	-0.022949724200464646	0.018057691984498997
-0.02517482454296726	0.06061759952302536	0.03557226324342841
0.02255047084816936	0.06550684064973587	0.010600881470502543
-0.009751712630356362	0.04971254056459912	-0.061833784351105835
-0.03394906372397293	-0.10950360628203128	-0.04360929408970545
-0.04653165386393132	-0.12144625941467758	-0.017218929390889617
0.08943457503452663	0.024303087338862862	0.04893681872092557
0.06035701632854264	-0.0009660503046697521	0.03487453224717283
-0.03729763948940408	-0.02567018349866573	0.020143577188071537
-0.011866829874433077	-0.0487223106550356	-0.032600299450548785
-0.06113614841751076	-0.06347329043523596	-0.015513244323255352
-0.05284418469330837	0.008160294727901914	0.020218058593223634
0.029443105610679764	-0.0035001155607903324	0.01308560950029803
0.021630244110978497	-0.008467766979254691	-0.04623122967237145
0.10692730113048952	-0.03753803530820026	-0.06147469517483512
-0.07126188435785949	0.058867661305736056	-0.11578822339221687
0.006792040295655994	0.043053952778240465	0.10956308570603623
-0.052710258049909225	0.058860264462168105	-0.015401655790662888
0.05859908145882538	-0.0031084417445582818	0.03302965987125647
-0.0884133483275488	-0.013042085893731568	-0.0010158480485070963
-0.052272875234332924	0.03332321401639919	-0.011927240515318637
0.06698481160789987	-0.03428839243849558	-0.07006045654129091
0.03875663003076682	0.03978203046031071	0.01690055732027989
-0.02597482587718123	0.006753275188097888	0.04319748046195135
8.70021021067606e-06	0.047079804313271925	0.005096726003133125
0.04441076060463665	0.07153107409336208	0.049317207646123226
0.03939913873261041	-0.0452352249600096	0.04845975156927458
0.04106291692450373	0.02921972809414771	0.02675089412753119
-0.03708391524805707	-0.057047772278339216	0.035874932342583724
0.022155830457090627	-0.03759304439481197	0.08557461900896722
-0.04424142138082179	0.07765377179244357	-0.0654171558925233
0.020275328608339572	-0.011511757522710149	-0.053148405963399425
0.054891333789920796	0.01913099797403722	0.07371032642314018
-0.10681898694313832	-0.008386417576898019	-0.04395181337647975
0.04823346945048385	-0.02192304938735415	-0.05459307716014741
0.02859358394823661	0.02196142255303455	0.06087073056269105
0.048376615570689945	0.03330348582319215	-0.003377508169727656
-0.013434435971968795	0.03631890227220184	-0.04689304765357079
-0.06421158811336448	-0.012843792527642584	-0.003655727033748326
0.036504893892047	-0.0257669284300371	-0.0009701648424312474
-0.001793858543130655	-0.07442714751374865	-0.039782868754434826
-0.082732881715573	0.0202435737472367	-0.06162248342352286
0.03244051816401789	0.01141057819057806	0.052047547814630536
0.016732895713347858	-0.027027696679379667	0.06305064408421192
0.015446415992474196	-0.001446337310146595	-0.06363366248661914
-0.036493866820135154	-0.02373425116498715	0.020244606832779233
0.05984693214402132	0.038105099190743064	0.03822026378259233
0.055420561930810464	-0.03688926393436893	-0.023110781079577886
-0.02391136896650904	-0.02906063343644043	0.09344190285312355
0.05191533138797047	-0.015059461831758995	-0.02800957915587027
0.0029468555864652535	0.032761711751834656	0.07213874558893119
-0.03718660071426535	-0.016407896721777268	-0.092998241394692
-0.030896711065292598	0.0087754682523165	-0.0325871394427131
-0.04214409661549658	0.038234566742257205	0.0011546322782440153
0.041367423895328825	0.08654453866978871	0.11924069328974257
0.046965924224162466	0.02896235243197096	0.07045995215643525
-0.045423602945600085	-0.008981642048012889	0.030480175564097253
0.053418424003617335	-0.016905510940644818	0.027852186106387053
-0.011401788868856698	-0.014550317849596378	-0.053350013566520325
-0.008667567604906294	0.016831079010737975	-0.029791530285768163
-0.05629185485048773	0.013166973674275115	0.05218986022912767
-0.0349628957241795	0.023615593081077305	0.022417084266389022
0.05929741393924423	-0.07079956135893811	0.04728575957945497
0.03363147639939278	-0.016567260235303454	-0.07349537431230449
0.026163718366619352	-0.0572260912149751	-0.09754076056250205
-0.07675461025700313	-0.030439156778549047	-0.013972966802120344
0.044819960391098486	-0.06774643086976749	0.007220567242594679
0.06526476832243122	-0.025953690292021173	0.03751885186033615
-0.07867570202391184	0.06912116874871149	-0.06534546056825452
-0.0824020353786569	-0.03168507232400835	-0.06760388458589449
0.03601123087302249	-0.02796527812513084	0.020474888718132408
0.027166981100402124	-0.012312088671097659	-0.07328203814741685
0.07326986408553259	0.029776768725768288	0.013148196413713864
0.01702892464306028	-0.026442636070404604	0.07336473050987787
0.029423330974746836	0.06212821256149722	0.044393214771158034
-0.08947620465718185	-0.07526144349624504	0.011541516187896271
0.016830359464862093	-0.050645064259400185	-0.009410615208763354
0.03997355872284447	-0.01688615569426049	-0.012025641029004457
-0.029210486059107386	0.00032830001689346624	-0.030363506703022097
-0.052485262469346955	-0.030130202782883857	0.03651515402010395
0.0044580874984083575	0.027414233344641183	0.030359710905879536
-0.0013460533344504659	0.016232721476683525	0.03359224539754866
0.04937468478292749	0.03979156672471841	0.04932834109654281
-0.0017858552899839468	-0.004387314598360639	0.008733150554191204
-0.05290483062385445	0.09472596088801175	0.07659827935046268
-0.014472681550111046	0.025926270342716655	-0.02522426085795828
0.02724029570214047	0.044066460407036344	0.0005803258672890298
-0.026553641930053672	0.0986169205567517	-0.07208061880675666
0.05091170486804102	-0.047062783171611854	-0.01735136460484046
-0.05119247322112259	-0.029882586099281933	0.016040454921945446
-0.004237604431724602	-0.11592989749838382	0.024194417444271466
0.02149356417929744	0.028950339506826208	-0.044374597591487056
0.10286294485043138	0.04283710099418725	0.018332798070554518
-0.014280690769299973	-0.04649270532689638	0.010591783682858782
-0.027932642014435405	0.007722042657066081	-0.023498821163229655
0.09989589792394989	-0.04097055059271061	-0.01678888233162027
0.0010316769169471578	0.10737695519206353	-0.013452093954583492
0.06297061066513698	-0.08160950858229227	-0.09225731421436455
-0.08667965953342387	0.022485381077431917	-0.04018458669410272
0.03197603082021823	0.032443630270037	0.04957378000765137
-0.08854490719330775	-0.0034059037036946013	-0.07280521157034998
-0.06795852865085761	-0.06627991146232975	0.04544111698112094
0.07568667860960318	-0.04824794275766769	0.044330676582393355
-0.0903562291733463	-0.09919681490154844	-0.011543105521395846
-0.04960691860316212	0.03725566904549593	0.03096947852658284
-0.08941473063705595	0.027128486628989278	-0.0526133021620573
0.09297743001919657	-0.06334011219755009	0.011774807246677167
-0.03426363627776955	-0.06238359870728606	0.04215752343497998
0.031418774480045465	-0.03667478126012902	0.026527849186270696
-0.08292227041788451	-0.04184191291289515	0.010949579084838963
0.048990881151943104	0.01447367192025253	-0.05264833367540091
0.01757825597154463	-0.10480860238368646	-0.023183669983434917
-0.03122830578813108	-0.01764574832078022	0.050093573854054364
-0.09002098634290596	0.036775250410655505	0.05079156041566007
-0.0573222437477618	-0.030425473029083123	-0.05454978864097731
0.03286871949857202	-0.03139049691618705	-0.04632781951112289
-0.1131662831457803	-0.09733613589654926	-0.015287006641554
0.0012144411051467003	0.059421828323290446	-0.06583558777262084
0.09473554830200005	0.03274262012211448	-0.022890271892908164
0.019809877735406912	0.0685628399292343	0.03686445810381086
0.0672377147063751	-0.0458626268661197	-0.06489865884046828
0.05466778977882041	0.07767344512008509	0.05341291959024774
0.03157054146134839	-0.1311438129160345	-0.017657138506912785
-0.030957601023541975	0.0677495070639919	0.03520859632141506
0.06951174549827473	0.127246632026329	-0.14805952368965994
-0.04538811022070806	-0.054022105785726186	-0.0051798928432564085
-0.07954507663984156	0.08781156635445451	0.013812308447563143
0.030071410494257402	-0.05887919958041175	0.039082311226643934
-0.00036182548320137987	0.02607757312719511	-0.04316069647531316
0.06993836519143042	-0.07898413707416142	0.04199479174254467
0.054602920720947766	-0.0695938183937375	0.10239679844505768
0.012371807456461104	-0.02189165713226432	-0.0025272798445121125
0.10965486913239691	0.10101729940375953	-0.02447228194806169
-0.04685451224120832	-0.038365951868468175	0.047568736262028885
-0.027830934278582846	0.01089283557508025	-0.030612620020463912
-0.04386218169058422	0.03748808275712364	-0.16230693323407897
-0.051811067922282815	0.027406791027909452	0.08220923528983232
-0.021110461298148833	0.006584007881234877	-0.02305415212942568
0.08927336093891076	-0.025401860559952583	0.020759124238664967
0.030076768561924542	0.12211574438679519	-0.06142468819655056
0.05845357948516088	0.08113902637914382	-0.05562973050296687
0.034465321322673	-0.0190582079134945	-0.022778002423757954
0.07162135238690506	-0.051867374889771174	0.020159369817133014
-0.010804162512486372	-0.030038180090399495	0.050994020201386395
0.01995179416972898	0.037338580605194883	0.02486915136081449
-0.024691133669113245	0.02778278237623997	0.03184466552236542
-0.015046128612288545	0.014184657663347413	-0.0014252072455863676
-0.027726047742196634	0.004138313902354051	0.032886863461824
0.023228065471394888	0.009358311722008551	0.05150599576626952
0.015587103118413215	0.043742176686874065	0.024393320020650304
0.1234548018952124	0.014551241976253081	0.0021360229145406125
-0.00909263713454817	-0.017467897550535693	-0.016224291802808998
-0.07305887334461118	-0.029782994279072886	-0.08606212110340965
0.1176024063048935	0.08410267823855425	-0.003327893452540936
0.02460743527055916	0.07900238453272354	-0.027454132549060425
0.07364369790115488	0.046093167997872185	-0.007165829589594747
-0.008777721403744642	-0.0812532638331525	-0.003691789092635301
0.03238777787855593	-0.03921611202762749	-0.10017975662766257
0.013814128291893157	0.001843620524798691	-0.04023899018406879
-0.05037653525418065	-0.04431327162408712	0.04768619615209233
-0.07570254412380815	0.04562133057029764	-0.014521002293707808
0.03833677829675303	0.027379132636308787	0.1391148077165584
-0.031022632243561284	0.029016648835856137	0.020213373491479808
-0.039629058599653585	-0.07697820889828821	-0.033619345538205586
0.027591256716262825	-0.027758767667947746	-0.0095094770283587
-0.0269239713721064	0.055674400977171655	-0.025586302368783606
0.0005599524066703086	0.023254058729242435	0.02780384974256424
-0.043408505912763705	-0.07287234546223685	0.05818289845813935
0.0053482568535794415	-0.09247332382705599	-0.03723518359136306
-0.05654602146951225	0.009297613881631259	0.029001382608592034
-0.06322049737187102	-0.033528162659031135	-0.14648919542497693
-0.029013650070644565	-0.12575073685455831	-0.02988439753640033
-0.1438157358146885	-0.005934555719509003	-0.015923738745567427
-0.017749370190102465	0.015283293548952075	-0.09662210017354138
0.022513162088132418	-0.12841935221098225	-0.0604642380732106
-0.0567412351707523	-0.08822715797660009	0.040813468419344925
-0.001837140007687591	-0.037279656917651276	-0.16130527514391138
-0.04349546655760921	-0.010837511040290456	-0.028650918270608127
0.054681713019030576	0.041816744700456175	-0.02283190220597928
-0.02715444368835626	0.011540896839560732	-0.053606194308568104
-0.04801670505216933	0.123942536848438	0.06408989040840161
-0.0740213430995465	-0.05353349257503442	-0.02121027808283273
-0.030648920914538965	-0.035124396229510184	-0.03291622252411252
-0.0020603043580217774	-0.0448900386410986	0.024430185511236054
-0.07975165939014806	-0.027827941464899943	0.12234729123526786
-0.1075764261269527	0.026142317779641867	-0.08929633140165899
-0.00731512189403768	-0.055806489856913256	-0.016943066917169257
0.08185795977519289	-0.04061139018278973	0.08672316692234903
0.0026780005908700697	-0.019079018349024923	5.888732731285482e-05
-0.027049282651709486	0.02689112700260639	0.0680948042574296
-0.03357189665527191	-0.06337624589699259	0.01683228196795111
0.002836975253708543	0.026242732319941838	0.02499235139688804
0.03098691983538389	-0.019153834502020368	0.007242922376340878
0.027212272292579772	0.016710555214172883	-0.05728668211471159
0.007577222138100043	0.029355801893797825	-0.018349677613881583
-0.11021880691954507	-0.046603148352342263	-0.05857425080868884
0.04984874218497265	0.020095009128017607	0.05953128459981309
0.01441615802492725	0.0644812291858465	-0.07137975680918664
0.05585139055615714	-0.03142891229142932	-0.0011470156508954683
0.09391866444419174	-0.005287782008420045	0.04493935452807178
0.15930189089057342	0.08847505017402554	0.007393569935000577
0.03995974986576202	-0.04415158775488249	0.0002664917140824036
-0.05044401343366318	-0.06856930406050928	0.04452175346020888
-0.017549345840581102	-0.07048070663934614	0.07537430874569209
0.0030058785439638458	0.04294338856898127	0.07124623755174646
0.006144693424515371	0.03256638418202263	0.0033668228098544697
0.043557176343054275	-0.07365413955423189	-0.054461343000146455
-0.07372059998142033	0.023589253040196555	0.025319683880182946
-0.0800889741622487	0.0255515460682015	-0.030237606357524392
-0.06713644149459469	0.05666641096388559	-0.007287881936968561
0.08277131450589047	-0.045123929447500676	-0.023354865755706635
-0.026772660805568116	-0.004585880738846802	0.0017113844014697735
-0.028061063026634837	0.018861576569783513	0.04459002248024894
-0.009651018124687346	0.07906175642983061	0.007049115647718329
-0.024417650595007747	-0.015552859768280781	-0.05470814106760003
0.01999010713729891	-0.042664624067620574	-0.019180166455856355
-0.03371964201213539	-0.08471605761145123	-0.04673675016848273
-0.04282213055814642	-0.029803430147275795	-0.027945315091415512
0.053120779051920676	-0.0031255358482442184	-0.006636484700539973
-0.043663457408262565	-0.06227001279460258	0.027262638759322028
-0.027213776600115928	0.007225932350413899	0.0518137813304242
-0.010048672106984522	-0.014196665461730635	-0.04160527469861315
0.08403657007488649	0.012361116781385332	0.015905568846929095
-0.019081469580572243	-0.09081884393512507	0.09284848887412864
0.047316206764609146	0.015306894780813114	-0.1232530649825691
0.0825375482273748	0.057383382621941044	0.04741732446985401
0.05252043212976966	0.010417511885429947	0.025487168928290938
-0.009548521780015688	-0.000611109471420063	-0.04708815079981087
0.06269377611561328	-0.10388392279323225	0.051603313320628376
0.041107915327657396	-0.04249977763937165	-0.06849022728437411
-0.020218644630369452	0.04075532985459985	0.07084129605631279
0.02181298685377028	0.06305530595287508	-0.011953219407659837
0.04885541882190584	-0.008180818420278626	0.08479940148510157
0.03229725971932711	-0.06610135291776975	-0.05788276078547455
-0.05964344032953374	0.03193238155084739	0.060554581381221675
0.10852613352576812	0.04452018440337752	0.03621820014133498
-0.11286983439010795	-0.03432336258008839	-0.0014485826085916238
0.10707819177306012	-0.04063862700193073	-0.023678816654550162
-0.07941522089125645	-0.08386025010593261	-0.060989009018652916
-0.005399475216461993	-0.023992983775071416	-0.026265241070736054
-0.0783977479551677	0.0013122255148003286	-0.0029401138066826858
-0.03010373504202451	0.019304166283386423	-0.08581004352876785
0.06831103142935434	-0.020009167497847626	-0.026093611748132652
-0.02720800657340172	0.025973803766211407	-0.03208283582664048
0.030366386626972504	-0.0017145135239981975	0.013486248227679791
-0.042157118182067105	-0.09876524253835663	-0.03035544873379194
0.0687620168408953	0.012777420940132626	0.07783544884363416
0.130370795281483	0.016817566321564153	-0.03754641367623876
-0.027748868206348653	0.11348760576488962	-0.02482531985135361
-0.027228064373233	-0.06825638779975784	-0.050025365202305196
0.025722425438269244	0.009410092476875893	0.017748501159314607
0.006174977307450454	-0.07648973611394382	-0.037357564716848785
0.028668848199832425	-0.0019017067496810232	0.032085702048402547
-0.011904934754262839	-0.02232952768396764	-0.07285169642215276
-0.0138661311879766	0.05675439446518114	-0.03527951675054636
-0.04662900222674725	-0.008548686712861046	-0.002454041276648827
-0.06203181390803486	0.03831864345273489	-0.08438609211301686
-0.05326358487288083	-0.10071161239023096	0.15327299034934647
-0.012645768306171689	-0.05583978752649458	0.010318026313012372
-0.007071070742657343	-0.009701511101023479	-0.05300517754441963
-0.06914597013236919	-0.0453775810124847	-0.11959444287780054
-0.008168770850031091	-0.06247450263760375	0.05551110832162309
0.03502246273615836	0.020932022297232282	0.08859370214237837
-0.07117912699755388	-0.02040152827341152	0.06173388060862952
0.020493601277085424	0.0603026745099116	0.07079061360143733
-0.06705475258668597	0.09741044142628187	-0.005495241314364256
0.047064415563864065	0.022572831445849397	-0.016807368222440403
0.06857921024803205	0.01799992522567547	0.11806177972955852
-0.001084839652318957	0.023913253285033746	0.10294400065715818
0.007030266141353794	-0.03341005579527016	-0.05086800331298674
0.06632505375769188	-0.10099601107897595	-0.06316249698054871
0.026218763043240844	-0.0038592218158849945	-0.06705960933607451
0.08453115514257617	0.024565891079678548	0.027484650554399602
-0.028949991007542496	-0.01462978775778625	-0.06108405017705766
0.009594109068916336	0.05046621446679916	0.02755299217899958
0.11972049411590803	0.01988951158733681	0.021900411674629458
-0.018146012794452215	0.04397701409169461	0.03418393514058729
0.039772578038215926	0.05677791426184979	0.013092085617540484
0.02047892123334903	0.07067984970940351	0.06571279550411087
-0.0388437037967337	-0.048593476662190056	0.04741337373742073
-0.06951312802749862	-0.02134180207536165	-0.015197347600509262
0.0634181720027075	0.05870271925908124	0.026474924333389008
0.016094355959781644	0.011518901518687086	-0.029634083690684793
0.0586592825580696	0.05082503633169422	0.045489646202256866
0.07194954562779103	0.044507495712789544	0.06288839541103132
0.03405511192871002	-0.013829556990536845	-0.05452577188430799
-0.017642408785083157	0.0039632931634747464	-0.05977526733571334
0.0371702492581871	0.027563541137293143	-0.05354087032672497
0.04178192062487235	0.0461577291926096	-0.03747933623787688
-0.0015227943063244843	0.018300624574362222	0.017598435216011402
-0.03276891874945513	-0.037023960085101254	-0.02421716012533042
-0.10582623895033616	-0.020668530931145488	0.008266371850928142
0.07139825099379679	-0.006315664325710024	-0.016956282931945118
-0.09143521076743297	0.08421205476124505	-0.06391031263828517
-0.008386297503408427	0.0024373425752056044	-0.06910720922337098
0.0012209383312723168	0.07754580427102285	0.06923154049911077
0.07604456751503066	0.008576749859367164	-0.024492752532062317
-0.051700286308672315	0.002922673914622935	-0.027155073801908458
0.10982905909359314	-0.016930765950554923	0.006409404747795798
0.05943351173586791	-0.007281919678865641	-0.04484615956078343
0.05745953164501655	-0.001521765236970083	0.03095706074566034
0.006950558110964001	-0.019662502714950035	-0.004640154653500078
0.006665252568276934	-0.048538994852220636	-0.03609998298848038
0.11518244455910563	0.21124052727362827	-0.24330377663097397
0.10406445263174785	0.055913751484763505	-0.008695508558493326
-0.04577166941396285	-0.038929142715342514	0.01729354831015933
0.07705115691089343	-0.0762160599096792	0.03450266095893989
-0.0007264087153561439	-0.005399031948980489	-0.029462626788955067
0.09597662656774614	0.07498499189473254	-0.13958368562450024
0.07228734349177829	0.018588427400464735	0.018152400826575436
-0.008032797309316103	0.0006915220584544071	0.018729766032222348
-0.07933365790415904	0.00819576795551596	0.005933533170423176
0.02146366680726449	0.04000974514089004	0.07090312923259061
0.049250928357309195	0.009848000367272436	-0.06462319113752209
0.010740127352191127	0.0337711214085622	0.025574566907322103
-0.003974144121143173	0.04007326793414167	-0.0040090783430786125
-0.021550098565145923	-0.03752949084470828	0.08559779898992753
0.031120320496459	0.021880293896903234	-0.012108197879577122
-0.0037238886284354663	-0.08472279855820343	-0.06857229736386737
0.07406041993540907	-0.024510674307336392	0.02721503762931867
-0.0395032849185208	0.02307075374581249	0.011595254205090555
-0.02855485621330363	0.014677396009760545	-0.03853617362338309
0.05163351492945479	0.06713692271354645	-0.01703927524881743
0.058464720644009496	0.011666054096456926	0.034164611152316185
-0.05111638734390823	-0.016413416354218453	0.04401263023918359
0.035715071536360526	0.09511274946859406	-0.02173297138021531
-0.03508366323574247	-0.03503965641584856	-0.04406369790088872
0.04352260107415338	-0.03634165998247991	-0.09035385786207872
-0.0947867562113622	-0.032258810957061165	-0.05778651231394665
-0.05968539107790229	0.022703426286898577	0.020586893489372895
0.024866802579908674	-0.013287600891131852	-0.016438564641330203
0.047235793067465504	0.03561419053413537	0.09469609094890018
-0.03231759672040178	0.07051181094276808	0.10263198815744248
-0.08009262727301228	0.026415216379253544	0.059372971451317744
-0.012143515369517428	0.03197257616811766	-0.07277786142362079
-0.03530994093723284	0.08752598786988557	-0.02749970257777047
0.06136114094929755	-0.03797403276907247	0.03683587493334183
-0.003911989295601303	-0.050699984316381785	3.229128176128344e-05
0.04634174523038873	-0.07757855215685709	-0.001367752636246111
0.07476692537644947	0.05617754035631289	0.008395425822917874
-0.018227126396649397	-0.007828416409979952	0.028893072816892063
0.028736304055366785	0.04256474450189378	0.0906643309491011
0.031509008796803496	-0.028534870962282355	-0.02530819808224678
0.046465275604552964	0.03561919090924354	0.012155423065149057
0.060476466632865135	0.03459250829176476	0.095239900445965
0.09699165256798464	-0.0546170218036256	-0.07043539023243256
0.10088086194463011	0.049402150309730795	-0.04391727894903123
-0.17683905270098257	-0.030705336911777556	0.05653822715355251
0.024264911114839163	0.03283421691950781	0.06937569931163408
0.032213129250108864	0.04724719844864988	0.00213408737627864
-0.030386055009049895	-0.018124068106398338	-0.034637813419267555
-0.07602294491873236	-0.07460011803562308	0.058439827528512664
0.10288507042498996	-0.051864069677798455	0.07477542253481052
-0.023508675419166982	-0.03805434729103349	0.04150204829352846
0.04529710391395638	0.0235548497151779	-0.03266970556647
0.07266307662404976	0.0574399483307135	0.07215443533938254
-0.11042445285780068	-0.003140137166734793	0.016345249072868447
-0.04487926795047825	-0.009820248822565027	-0.024726356637071633
0.037571955966948	0.032327275681584666	0.011866743808438779
-0.06757270059564523	0.03613228121954119	0.05700472126409001
0.01088894007697948	-0.07192477612223583	-0.0004570629969807627
0.04211185258169242	-0.023166825729610995	0.013059636434023377
0.02107866046825578	-0.032653489771294016	-0.06870546884572563
-0.06070772872098728	-0.037246575635973264	-0.0030264932670764472
0.027002063102662205	0.10717871315444928	-0.048979198449180264
-0.04493821479719473	0.019738632787311104	-0.021594409087433705
-0.17134908346081576	-0.04329805667913978	0.026174074772789418
0.004230934719378739	0.004140574962686126	-0.10494752227281341
-0.006543092962776647	0.0146933692808414	0.04598700091067887
0.020937640266192988	-0.009246795135889774	-0.06983540355241462
0.04934904548617303	-0.05228179932305104	0.04272703829388953
0.059015794480502246	-0.02997123037577706	-0.009993423441903368
0.08154220962328906	0.052391531023453675	-0.16159300919521533
0.016068472928436158	0.026737013644073382	0.08448001974524508
0.04106350032705033	0.07888948858929198	-0.09872880392212782
-0.09887052092562777	-0.052069158695916516	0.01554737905754214
0.015116208513131694	-0.0038115270337140197	0.04358839566490844
-0.0013173587084694307	-0.047541324473419695	0.015043150891911189
0.07240842306013419	0.05107374461980843	-0.005005773098655907
-0.06649153313466928	-0.024717711175618197	-0.09927658997871046
-0.09256569463004242	-0.06951803137642756	-0.048319638140873575
-0.010904678127140943	-0.036873099565216644	0.08030629073550158
-0.03265006837923079	0.019066432667649805	-0.030763822788461213
-0.0438516328167707	0.049618664422302686	-0.04292353325347964
0.03184941739721799	-0.19600556027094496	-0.09606286163666633
0.04043720678104188	-0.04318193062629821	-0.07134821678105283
0.03816469507706954	0.007333500473292314	0.07258298889725744
-0.0012925723967495636	0.0019896256197404626	-0.07473818543728625
0.10707463858734144	-0.009602190511648753	-0.011890360802234606
0.04284830565557892	0.022784724619593986	0.055347288288979495
0.07733106025948523	-0.039618950695497916	-0.026332810665552837
-0.283200897405573	0.00775422929103008	0.17899739530852835
0.06630923807109133	0.04987319942698095	-0.042557486031802746
-0.10251983943646704	-0.0018628609266295865	0.0028773172927939556
-0.08430403515000581	-0.020675476877101924	0.028267569105797474
-0.014013212621537041	0.00033593623791032296	-0.02647034531991713
-0.03551172079353191	0.01990599967904968	-0.06947528958906983
-0.05590017153822556	-0.047279802277968026	0.09133054181685613
-0.060141642568618155	-0.07204823869981863	-0.02438175074934733
0.04921875234867634	0.10431713823536423	0.028162459864577178
0.017472532081741238	0.07253442810139532	0.10974980146419089
-0.03469127550777889	-0.014433862876344879	0.0538020397352697
0.008335479911144052	-0.10282725934224331	-0.021093913846252067
0.04289460465246724	0.014421740810169522	-0.019016031074689115
-0.021518658584101954	-0.04822429137653158	-0.05700211720649988
-0.04992659548648191	0.0016280049018372873	-0.11846214409288644
0.04221241478513821	-0.0607772104492884	0.011497123254891065
-0.029074804618359904	0.026689349502634404	-0.06549610773666567
0.12356545586709546	0.06339526743531396	0.06880248666180061
-0.008975729380875966	-0.08160134892938627	0.00199485530571762
0.1319534129898299	-0.006336917707053701	0.04761788001054452
0.05308927231956261	0.08178359156818497	0.07487900596768864
-0.13066923151476273	-0.13781260648669114	0.009631292061198192
-0.016886494612789408	0.03025651339006008	-0.0016510913047627948
-0.03576889712880005	0.03153928322639472	-0.03472669776525864
0.04281257908632455	0.03269880408988192	-0.039025672039313855
0.007737495264050736	0.06491486056084526	0.021132432143756055
-0.04929102350397342	-0.002247715779864219	-0.005790896263771644
-0.09742377781818773	-0.08324601456735387	-0.03599616995387618
-0.011283510619721873	-0.007714977552385133	0.08524069630768244
0.02751076392190496	0.02869714409488658	0.022165681481266748
-0.0874310774496786	-0.007372201876811983	0.03720973094378107
0.012597801142901687	0.05092747929536706	0.03170181446910384
0.046302575636817014	-0.02320409380638843	0.026379690200885948
0.0031727672616812743	-0.07406042520762376	0.01721592341143756
-0.010260753706359435	-0.07048367382943586	-0.019264729867391125
0.005479447162616538	0.03159546669228853	0.024015894306829186
0.14408194892642084	-0.04110967640398358	-0.035740004123697044
0.014371772679215113	-0.013785402435133777	-0.0033352045748838177
-0.06926445011725207	0.0493170453456157	-0.01729818218496536
-0.05259357489677016	0.07436052934654562	-0.0369291579406665
0.02772981044950603	-0.009279523604349655	-0.08995827823461394
-0.03006631451461288	0.02999353550346241	-0.028273856092144212
0.03553882233292327	-0.0020289713386751006	0.03141064419261112
-0.03467254144702508	0.08887069884551106	0.015185446024453998
-0.039426936551757705	0.0028823444848759456	0.0276496694470969
0.036732567388474	-0.01884607760880389	0.09127601043278177
0.045641022523088576	-0.013487723377767553	0.008060079309666983
0.011861367102239924	0.016868161869291076	-0.05276373114670547
0.005806067746091016	-0.028070557085802483	0.08067256831749331
-0.021228445406446198	-0.039511665646182165	-0.08163982255219515
0.14150827305281338	-0.04025894839721595	-0.048259124025501074
0.051137661591606785	-0.03418771523458974	-0.020062058977743876
0.025336405195176194	-0.0051175536705563174	-0.037036281625383666
0.07652407956802511	-0.0053862364591062036	-0.003558230570362574
-0.13583521923627193	-0.005088667289084034	0.0205233984753837
-0.08721544826568799	-0.03577690843895393	-0.018973508432880037
-0.0582115300382917	-0.04752546750281971	-0.04173301603554195
0.06875454750248208	-0.024480377239269466	0.022357438363063562
0.07977329779379037	-0.033762004450341755	-0.014004089042426537
0.023867094365295122	-0.03858255759628172	-0.012418475337569033
0.027370284682753165	-0.009410292037361484	0.08922567947360745
0.017111228303411104	-0.009984715709974628	0.06037391197052308
0.016399738848862738	0.012970471248191277	-0.006492065993566158
-0.0011484700751393578	-0.066446819803387	0.026740240322736204
0.07249188363235964	-0.06892268310155018	0.009155928032736092
0.03879234694422813	-0.07279183868889688	-0.07062359496307874
-0.011392818247094077	-0.0018199304853696776	-0.021652002573824193
0.037131520444210316	0.015715542623629234	0.07299881156289047
-0.03835742525865975	-0.033994213119512465	-0.07576870390126902
0.03412861962419365	-0.019801093562925528	0.004068846298634372
-0.009318476187701097	0.13145871192106678	0.11094384117434009
0.007031507354951271	-0.0509118060462671	0.042659473765584766
-0.02680695485673603	-0.061844908274880636	0.0876521936905267
-0.19231729971288894	-0.0027525527646326603	0.07449504249646481
0.06017811017985084	0.049056034382681635	0.08495961772097765
-0.03401681925095108	-0.04711371983466809	-0.07352162733746784
0.0807286670165552	0.0009660649594406667	0.028227420836055422
0.033846240797493946	-0.07183540163387109	0.040470275818462874
-0.009070027468187865	-0.023487284841468257	0.07026889444451785
-0.039153424604056915	-0.0016803343196917018	-0.02422171350727037
0.042773231364917175	0.0323875509968292	0.036502739770892925
0.057961741953991563	0.04024088058784507	-0.035747183821565595
-0.03461620741667029	-0.038364353260761985	0.019199403438771367
0.04102834897879533	-0.11366558049015746	0.01879429674472602
0.023657292774482804	0.04741716504283773	-0.04673978035190468
-0.02145101705108026	0.04605780515023874	-0.020715216889280574
0.04096441145462008	0.012095665812853085	-0.0033542602418768584
-0.027100429444842217	0.04618171893346352	-0.03086275662303032
0.010198408880739803	0.11505078482943333	0.05844085645557865
0.06392816621636871	-0.043437803817051125	0.07204860328632479
-0.01799079468987652	-0.027786062373954798	0.031214246295219617
-0.06204520423833866	-0.0355985690816648	0.07445201470104096
-0.06462414360237961	-0.03153229574846859	0.0024959929752874925
-0.09905168386096624	-0.038930580341231945	-0.09574049354376686
0.019687804284116504	-0.004825287966498022	0.13923541523952865
0.07438119321253525	-0.05457930204445454	-0.044659970497203855
-0.004381349524798739	-0.02591034760271609	-0.03653798052269214
-0.029594802034197454	0.04672196860686183	-0.027800031259360678
-0.025227380523048386	-0.04177134648928599	-0.008717479893212563
0.004408705396258179	-0.004455328596159096	0.02991027486123229
0.08355538562580155	-0.01958162478306528	0.0015792048301208916
-0.05849604152874259	-0.1209288532042081	0.027211918369867874
0.10201522399750552	-0.018484348978369085	0.09409506421739265
-0.0013884389389634273	-0.004459774232681928	0.08030048127274102
-0.04990305225780387	-0.04178336690720997	-0.027136022249335
-0.03854404962309423	-0.06406204920857134	-0.00489363429758181
0.03114183868626039	-0.12914123122730922	-0.011066304014505198
0.12241352727799931	-0.15605612601449576	0.0231942355252051
-0.07087799058122203	0.010897237816486263	0.014510925151261726
7.186625091823993e-05	0.08315705476592618	0.05800371342521807
-0.007963531738611593	0.04105696797219836	0.017853044453213323
-0.030479490976783492	0.06245931700503103	-0.00418859548616949
0.0005449887467033807	-0.02076776447123664	-0.02996955192142814
0.08545535727485391	0.006346937605667013	0.014616678754176472
-0.02903193872823402	-0.03719055437574985	-0.015989505773950217
0.017808637785777542	0.033032012530922944	-0.06598739567285776
-0.023727977604777874	0.011286023872218798	-0.05434873077412182
-0.10048885781928854	-0.034793780584560646	0.012828598453606883
0.012802371412903496	-0.14451365376559103	0.061507631024317555
0.02133348954176428	0.10640529855282961	0.054971971319124305
0.10593929264428567	0.0012128173841447604	-0.10418869776553215
0.05152140151495323	-0.03360785417261634	-0.004334703270433415
0.030100630100681532	-0.04826729199236025	-0.0014091279201511623
0.11248510219463068	0.09609828242760586	-0.05359790500319563
0.1398736809181183	-0.040514757075397576	0.07826494941156437
0.01401108926449264	0.003449026542043385	-0.04309943288415191
0.04685921350173345	-0.01844753070056693	-0.10078295569230304
0.015443165201263142	-0.006360662124357784	0.044370206339833816
0.025294195940681455	-0.06770690124290987	-0.001676895812289265
-0.004652167618584263	0.03536896802718806	-0.033144555065850394
-0.11005866325176387	-0.06798136884073895	0.0370583888553721
0.053119507500269614	-0.07285451241840102	-0.09238771606835128
0.028028384034530385	0.06461775036015042	0.059825451533720354
0.035133532373179434	0.03105295534944173	-0.0061212113537658175
0.03355330138331686	0.03542470573491148	-0.04744835476959286
0.12595436036978894	-0.029577471099706633	-0.017289051855586973
0.003984862502248653	-0.00514576388619848	-0.042170036589261946
0.04601836904172294	0.03741281312466583	0.07216868150645321
0.005649915405250877	-0.09404875204173307	-0.0017843423229139937
-0.05310939176606751	-0.15806667744504133	0.14199657508166427
0.030829581667912373	0.07660669144996085	0.05591706258649756
-0.01960156586499612	-0.044622973763022315	0.07699547273779427
0.0013383167168048104	0.03843542164559753	-0.002411561734422144
-0.01704960809590029	0.02688156641279673	0.0014646866754488357
-0.030680623195346587	-0.02087682881743979	-0.06039892089006445
0.106677708100108	-0.045549873334038295	-0.15213896658972847
-0.08089936036021529	0.05372124203201393	-0.036908714774909396
-0.06464422270316506	0.047905291831021456	-0.08130658003489759
-0.006460627525444489	0.05621832634705992	-0.01802585902269292
-0.09992454827024119	0.004679392620436908	-0.12755847296081027
0.05299322936124683	0.0575989565016645	0.06164968576789135
4.200030225653609e-05	0.022987225597413268	0.007818736189908354
0.017938246996182856	-0.08088495764689259	0.03269488371679518
0.033229415782953936	-0.03285665978850723	-0.035243940890362216
-0.016305329120101655	0.01615762847967216	-0.02845660810786463
0.0017375322803900584	0.0016443194956354266	-0.18856249004254472
-0.0801862684264694	0.027524764950497306	-0.02515531975024583
0.032589226701459084	-0.03427569364498751	-0.0005754928138398387
-0.0553885382136261	-0.010930904996853208	0.010104811654177584
-0.010956292207134658	0.0266744864973054	0.08018538866519563
-0.007078705791325749	0.020088935054391247	0.06499259387014178
-0.02280866233929294	-0.055900205489317734	-0.036807073058532654
0.03821131773002924	0.04122105594565519	0.049122410367999254
-0.04169790158434544	-0.01532612277950046	-0.06676320485081969
-0.0108744306948508	0.01275930073818333	0.007806067780523115
0.024218260016196258	0.06976885339991715	-0.022156888484741538
0.03099277836254704	0.05757863427862256	0.10916411508225699
0.06461669016814342	-0.07037727439010223	0.018386872748832057
0.08964052603128876	0.042735522462750565	0.12400689238717015
-0.03416297324184819	-0.0411485708464577	-0.005526147081674096
-0.06631643853325395	0.13121623560124876	-0.06362545251916862
-0.05156697474675744	0.0032379956794966343	0.03633436548286333
-0.031800384832532044	0.01819506109775269	-0.06484698770296804
-0.06069582807722807	-0.1259272453750694	0.02102853757153356
-0.06256028632765129	0.017783127951860104	-0.031175936751480865
-0.020200636945094486	-0.06337030563535793	0.030809947873880777
0.012190423883718961	-0.014620590230351234	-0.027645052043494264
0.06418129383288984	0.04553503010938719	-0.057011386873742013
-0.16173800588412435	0.024246638837571444	-0.05964422179079592
0.0888978533341325	0.012643032309485245	-0.029678815121203943
0.06945960814250085	0.010253628212883026	-0.043009660376771126
0.029215319945952712	0.03334214411337014	-0.08804319513619983
-0.011909691159622043	0.02570496714509304	0.07869388391278537
0.05220746768456446	-0.00963337275172132	-0.056817754760989624
0.015783661403024715	0.03697385790861994	0.01056895185591089
0.03485385302014004	0.10531925357773804	0.03522836820797815
-0.0137291289375018	0.04308878292344573	0.08971870448797375
0.03910591585253652	0.00487683386362045	-0.04980439749515012
0.10439155240304149	0.0659250942815522	0.04665680838951634
-0.004554189039682475	0.05803007680406213	0.006814565441383049
0.0023710698800744998	-0.009274456935871058	-0.021731391097380513
-0.06352189749075235	0.04969552165463559	-0.08364058870403844
0.0784153651795114	-0.0777178551860634	0.001240820660995554
-0.008969223336396923	0.03474417793475435	0.00954952987997549
0.04811113473494942	-0.05121949506256879	0.010204206919865644
0.050027063205936126	-0.02847828007040782	0.05768875450551714
0.08758035247472981	-0.07469790541187733	-0.1462569238683196
-0.05195249500329591	-0.018799752464588943	-0.015202267508213883
-0.0017093665544490727	-0.041183198195242354	0.02146022928698447
0.009123294722913105	0.02467621377072464	0.042232562612633716
0.011770315788649581	-0.02558267697174897	-0.02095701502412468
-0.12773611329682721	-0.01024815928462617	-0.04727974184896007
-0.04391615659867566	-0.0827132021072561	-0.02960648352547982
-0.03893049412919968	-0.062302321975167274	-0.06894900515991118
-0.05790981117537592	-0.0731044486795146	-0.0954052460970594
-0.0667288408997387	-0.0985065076641944	-0.033268306838253214
-0.019939646550103506	-0.006964310323385814	0.010317218067854055
0.11920482868092938	0.12106310483945246	0.025450494021758585
-0.012494019315060272	-0.002683363285739179	0.053875057510855785
-0.03588645877705766	-0.06734481568376251	0.0011261423640734562
0.04880968116243222	0.004567594709231641	0.02701059241182745
0.06293453801785931	-0.018850273086981867	0.02736840757525876
0.014062125093973537	0.0502807743875449	0.07186131433417448
-0.007975204971401336	0.01580674248493155	-0.003931223744460228
-0.014808132850368427	0.012249579703717376	-0.03885371353452657
-0.003995562790550795	0.061375937951420746	-0.052535804144816664
-0.008830970365797072	0.01926594009809054	-0.07797443581766479
0.09304000494038354	0.011273203741962902	0.01137675464805694
0.031110645744146175	0.0072012508341586685	-0.018753245924119092
-0.02482621746647852	0.0613914271884187	-0.036778989519125234
-0.08130127766238607	-0.045327907585061	0.036577691113999215
-0.04384312489801794	0.037659585776669925	0.008544915435985206
0.03993787144407526	-0.11680285286910859	-0.10663971566798303
0.13446658036500442	0.02050627338459315	-0.08087558057675236
0.05481641745326173	-0.011036571343608291	-0.09975614452291497
0.05155604984893387	0.008715087769793645	-0.01620557234126348
-0.00612274255951143	-0.022585529445632364	-0.05444138029752861
0.04027244141328002	0.024555013849065856	0.1089167061432184
-0.08966029775166871	-0.0789933509434055	0.03833069096352335
-0.06143404950607524	0.021951600164164097	-0.030277172394236808
-0.011075285392188203	-0.10395915731813073	-0.008057380497221243
-0.015616660840172096	-0.04041817192026981	-0.019786849497745104
-0.03132803929282031	0.03822222039972845	0.039700143146824414
0.049465332590121196	0.03519582517133963	0.010830926611095975
0.03354849162913064	-0.021057781078628275	-0.0014229781184960076
-0.0009441117840526067	0.024754643835198098	0.04001710493723824
-0.07467626016994529	-0.03937780042416476	0.00404917551458805
-0.01064705740493167	-0.04171480576404648	0.027935477728909665
-0.0029246433342183012	-0.0513782281165784	-0.0319086307648377
0.005600401023851176	-0.07594734688166514	-0.03571988730560228
0.10997275546142461	0.05988039947356321	-0.010607326678356807
-0.010718121363396883	-0.00021801319139872012	0.007468266158078513
-0.057477348264631245	-0.010398823779463542	-0.027125057936465396
0.00867943036480388	0.013170526465009944	-0.05747568723926893
-0.005216153884487388	0.04904793167249983	-0.03249411216454365
0.10378669780798806	0.05793547204100309	-0.003951196973734592
-0.006695027291697543	-0.05125879032424677	-0.0044481897455875795
0.005297218517101279	-0.024499400948191235	0.001917765363764821
-0.015655994049527777	0.03317777821365668	0.0030707765447926904
-0.05807829785908598	0.022861355709052688	0.08739484576234256
-0.06857569956284552	-0.04664142737982616	0.045648909562318186
0.025980058669069647	0.04498801672459369	-0.005499146065188212
0.03168683936811787	-0.0723136944008238	0.05880116854472256
0.11944444776603945	-0.050542220193689105	-0.06398146401573233
0.07144975123120369	-0.04300551284655436	-0.005025548088695773
0.014918393938933404	-0.03498417853988698	-0.0810043623566146
-0.024236485002474658	0.04169406469328519	0.06769135287657614
0.007560675961299372	-0.023824858571593728	-0.07166996075687489
-0.06939263734983915	0.03608399403325784	-0.017586455763666013
0.050360028043519786	0.10567508088176056	-0.07485433678400076
0.03240051318079535	-0.05690497411946009	0.0513359438271228
-0.004417615386017086	0.12585047164749572	0.06799674746623574
-0.07615273944842794	0.017293508317647838	0.0589433447044133
-0.06046469131057425	-0.06165816307891344	-0.02153453461324837
-0.08806846306373867	0.021806034417369443	-0.13081351147313267
-0.10080781982501115	0.08265418510729433	0.031013497561617465
0.05721633185910193	-0.03411163449337747	0.10739062367053617
-0.04310305507257866	0.01622764450212937	-0.012477467201273901
-0.03202470963448693	-0.04805328479308823	-0.002234498881654176
0.030025307205252788	0.03074970855263405	0.08343209885807877
-0.013311417846368462	-0.05705828634577708	-0.03733391193129656
0.0062796893134324855	0.062030085311416086	0.016040949488577556
0.03898268226116771	-0.07114906908305345	-0.01803642945898383
0.09642579498623159	-0.06645917415992043	-0.009855407844285447
-0.06988784441803357	0.045832815637927175	-0.07962567072195761
0.010618261328653043	0.040648623061449694	0.10793781326244482
-0.035951488298295364	-0.07816568637800987	0.014808337165770763
-0.003928567941045329	-0.0031999707353863854	0.01741268581902469
-0.026876327677216774	-0.08280224569509238	0.03732542425861876
-0.08079572714496255	0.012792873688144283	0.024316518366035458
-0.14579160346874517	0.10170275370175315	0.07765353084872564
-0.015181438424963235	-0.019014802721324813	0.014783984850439367
-0.08410034854287528	-0.02255074091325207	0.026623559622883063
-0.024477525962945307	-0.03186726984977144	0.07541507333811183
0.03855286657762721	0.008134603327950699	-0.08084074006645908
0.08615496754742098	-0.004929306159752068	-0.0029943137829617724
-0.052167488699626875	-0.058474759298819734	-0.016290840268240424
-0.008547128149866752	-0.021758672010728838	-0.06095520725377426
-0.01916770402929781	-0.12941764577424247	0.008724940863696668
0.08713886088443	-0.06700293548912417	-0.02679273872788077
-0.02428087421151908	0.024954278338479748	-0.05444841277461798
0.0244656613017305	-0.04838554218053157	0.04805221429903521
-0.020392228637073954	-0.13239496361951028	0.08243141353599805
0.025927138406152333	0.060854569881155174	-0.002919326233151066
-0.05153301117269773	-0.03260709492069599	0.07738930603042764
-0.03355384173072878	-0.048791212851471616	-0.059868667480240785
0.035114043368157585	-0.037052576776203994	-0.035523831849659335
0.006519251179072635	0.039254405851265974	-0.03485863774188032
-0.05165664416534251	-0.03479724724458919	-0.017406197543784672
-0.01727190146265492	-0.09000262433507765	0.03280533429704785
0.04144052593828666	0.0001862239525472603	-0.0065354079966173095
0.0011481013097181727	-0.02173548792238648	0.07690950812021553
-0.04329881220593726	-0.1452832728429953	-0.038311247418405865
-0.04133245838620741	0.018225977487086854	-0.01577376017525015
-0.0300871120884627	-0.05765630112784628	-0.008591385708640428
0.012986471231361164	-0.0477050669247473	-0.018056213126229567
-0.05625994176029379	-0.045803934885811984	0.05363336224168834
0.08348434887973435	0.01731178071607769	0.05787239717239385
-0.062433908757146876	-0.031920304848938486	0.02097477856176402
0.024253989958865987	0.015601853119259261	0.03397677539244679
0.015534515137267233	-0.005138607220066857	-0.05158418644178296
-0.0006348047912312788	-0.010277002220958712	0.06399446903446962
0.04145296933745815	-0.0027267416992948395	0.02825544997045033
0.006464921309084705	0.11112030740309396	-0.005808917374645099
0.0057942345261906055	-0.05433050833075628	0.06680276168254248
-0.05751942450125012	0.005139036818702854	0.04066008092808428
-0.07663518789836599	0.024648014726544445	-0.07492035359731
0.025858743210829833	0.027404977519300412	0.048712159569635316
0.028215967611357223	-0.0342954140496371	0.027635313851026192
-0.05104388683298512	-0.0035621955352738216	-0.07864257311133102
-0.05772746452515549	0.03147913199082499	0.029508028557753894
0.033606540584609206	0.040233550419657635	0.03671636447559274
0.05609544906826269	-0.004642126116814686	0.07444397241304929
0.02071239144483002	0.04890871089396786	-0.04042040239964756
0.00819777163968767	-0.02430012406431285	-0.07023018571320708
0.12801890575297248	0.07402113235745546	-0.09353185407778657
-0.042199607314820094	-0.06457429554918902	0.05433415078799085
0.052333347669446195	-0.04015383998242624	-0.04775349648685412
0.022120877274305364	-0.04845213642664101	-0.06838696668587074
-0.00783134261019423	0.027147631852491878	-0.036526189686494154
0.10398374470036276	0.01824438656545582	0.05961773464577704
0.09120529290557373	0.05550011980877075	-0.11311525917584303
-0.02297464633645449	-0.017921289991966162	0.03803659302141557
0.04327070688847233	0.03773145483360789	0.0381155328536515
0.011801213215088533	-0.0074800602376610134	-0.012654074174054007
-0.09520448310607445	0.015327758215292737	-0.042614152964696415
-0.039266024867644744	0.007209800996132523	-0.08705082010582225
-0.011020701436557999	-0.02193283991879923	0.0030634820294316674
0.039709715624287115	0.08179477872866725	-0.11029292073610776
-0.018343646389339475	0.07238023224730467	0.014092013846310028
0.026271410831632685	-0.0060202844721066635	-0.0007303551799840001
-0.04970290463669618	0.07846949137022803	0.018340494610753752
0.014328406889581789	0.02803123398989172	-0.13623676531211765
0.01868986846760532	-0.036768368978450254	0.006890372869837479
0.006388284211942811	-0.02171936213303914	-0.015068763590134888
-0.04678849840029572	-0.06004738726723041	0.0714292813547275
-0.02343802750424002	0.060481727367313394	-0.015641709983051404
-0.05450478335762273	-0.06306304649580252	0.023553462632121956
-0.044505928840706054	-0.05944879591056579	0.05530006788868375
-0.054878151026559505	0.07430388900139011	0.04086685872940492
0.011842457837083936	0.013714487601168102	-0.006220451317441363
-0.002395838050280505	0.10232159216792448	0.03398241124796756
0.0825652029470436	-0.021598314536736676	0.06341508912062008
-0.03363183070982075	-0.002142433094541263	-0.058539306453927534
-0.0006625150265298149	-0.03173093501924504	0.035224026800579046
0.03286141847932008	0.010907577328198397	-0.021797554598050717
-0.0005728056469072089	-0.0413403546266372	0.0027385119455436285
0.029928056546014648	-0.11934312984945367	0.018347680688325964
0.06832346675896724	-0.043442437599292	0.07565459344120572
0.03960803702553019	0.01728586456125697	0.006806918383418282
-0.05518154189536081	-0.10726090006338204	-0.07014784287782688
0.09843584103581993	-0.04945638671304451	-0.01597348363220707
-0.005048167782535541	0.015778916392769855	-0.08434993074752174
-0.041993464473425016	0.0004411640853640307	0.042701362517487115
-0.01844659019518684	-0.015128686806618927	0.028612287196235108
-0.030464053543883086	-0.11750976716663974	-0.0666349706817818
-0.04566892863600263	0.002611254229120693	-0.00426471237641978
0.016123819271692975	0.07156899054940617	0.08004263706178202
-0.04797490293613123	-0.033130054211231115	0.0029138140589327743
0.06304964973800423	-0.1121788171498808	-0.07195492203167027
-0.02423169190675521	0.04948149476690834	0.02863778977866276
0.09581406814528726	0.004366800553427476	0.1382270312372288
0.013628952580834753	0.01953547940620614	0.07779205030437826
0.05330781801797653	-0.06307678301474492	0.0012384340850781683
-0.013592995016030864	-0.04499708759995859	-0.006708777260343938
0.02551822486607744	-0.00928990934388278	-0.09815537238562043
-0.005162555878985797	0.015840295455285466	-0.04525729100200901
-0.09769804167044112	-0.047354252379644614	-0.01562821298085308
0.045338160034011435	0.02926138213042126	-0.01855007403527584
0.01606917333805173	-0.04352716403850688	0.019397880840585385
0.08904492012760665	-0.0004836425874294556	0.006830981941039844
0.038268947062933024	-0.05359370621171785	-0.03184981991631082
-0.02862109997091238	0.0018295587152141466	-0.023622118569538397
-0.0661788691946434	-0.042133495719582525	-0.02976821893259484
-0.007456596963271313	-0.031032976545888488	-0.025660527651621474
-0.009806463351118032	-0.006545374947513014	-0.027551242054036487
-0.09031300227734923	-0.06570641829177852	-0.008739914759574668
0.007128844221652467	0.005372045772246069	0.017265011669853315
0.032532665190586625	-0.04971970313852399	0.05558319444239385
-0.020485507573319833	-0.0682271800786472	0.003121686403226079
0.012258611324976802	0.04699075468122963	-0.06477341114916435
-0.01052340233758663	0.01565387852847046	0.023650787733303095
-0.038904951164212616	0.03374926828050562	0.090745461969249
0.027444126427047973	0.017055708682900322	-0.0657987348448973
-0.030378208989184467	0.0006355710477306377	-0.05552261896834206
0.025516442571196403	-0.0654164142515887	-0.06645908759892691
0.08721719909060535	0.10230128458042102	-0.05531577435542016
-0.03334779266514304	0.03831394378587006	0.058804465865167015
-0.0268661392992472	-0.04823282865529472	-0.006158938431546447
0.01764629645667588	-0.02845148015561707	-0.0762104754550601
0.03861514361657889	0.020094271764583813	0.048542628807341934
0.01252761816154595	-0.053192747584748186	0.0432968518386868
-0.010001175236561551	-0.005615843700731827	0.02496005980660313
0.01370025813454961	0.001842512256458703	0.03049101856811241
0.10696102716279408	-0.029563995876408494	0.11112545837828582
0.05095469962503199	-0.0006087211340624556	-0.06092053564024217
-0.058375528816767726	-0.04960006897183394	0.0787864232091591
0.08913515679991586	0.09890691761180954	0.03646257469369499
-0.0068790623363898405	-0.06291117620331246	0.007456969839986029
0.00862206250152604	-0.0030541038059977016	0.04761350426350137
0.04919303843098589	0.04065446333781247	-0.024277244109146213
-0.06635488254680351	-0.12998486195426665	-0.0646144475804404
-0.030368863315702717	-0.13227016872755815	-0.07863271919543917
0.06263882215773643	0.030678250521518617	-0.02550050306055541
-0.049920924923343775	-0.06659818557088452	0.017373067524097414
0.0472831194153002	0.0042512817336925555	0.006238138424557112
0.06716992765027624	0.05827093219151221	0.016737421403465604
0.005764472201908233	0.0273833400550566	0.059780001933363566
-0.008702118226847015	-0.0366770691844296	-0.08448675480710283
0.05792267334091865	-0.006478069844295052	0.07902376964524249
0.06904447670818092	0.018012707123824447	-0.07944958044816752
0.03655616985303395	-0.02281485774911498	-0.10527027795739018
-0.07729659295569691	-0.20949004603336605	-0.0930137019849108
0.032482336477381066	-0.058647758648725484	-0.00020257355169605632
-0.15223167764561188	0.08187177805975424	-0.01803229488246289
0.011517782844565927	-0.04508484423571306	0.06353642619746132
-0.011088223045501382	-0.030077391696993895	0.014589950718021704
-0.04907917907032219	0.005927486674362572	0.0646966772669075
-0.03732809106401398	-0.07972801644756833	-0.03403065507194869
-0.006497523077305989	0.03498617038127986	-0.024723124649673058
0.03012554440082045	-0.05417635846981642	-0.027627853674863485
-0.01892838744712736	-0.08989292627724854	0.043373744924504215
0.06844434558316409	0.09805158340294987	-0.024305329506304443
-0.05373209392125857	-0.06477346677712073	0.04191570992318951
0.07786244452580425	-0.024399562806155874	0.0010802709666136484
0.04149328481808101	0.02583205075749536	0.016822565282869413
-0.03485276467126828	0.023308219660178348	0.008432832833485093
0.08247903549834383	0.020702487841923592	0.12968400997770033
0.04780569552426602	-0.006706589877124182	0.0022379090137125105
0.01803108920088139	0.015174667561920685	0.1228006179993448
0.05827273059435161	-0.052949526412095	-0.004807675641427363
0.04544262865673948	-0.018531024524648363	0.0308363595814622
-0.05721165538437284	0.10243551254627835	-0.039732432900199954
-0.04840219122098358	0.03962946757956338	0.04331764089293191
-0.053426263752932864	-0.05807333578138635	-0.07020747470787887
0.013137931150717715	-0.10664480126708839	-0.05029469577290083
-0.04031222709397826	0.01691258014264483	-0.017316875617849913
0.030655347585910344	0.09663707346895041	-0.14201276410260663
0.035298524197537186	-0.0074075965488238455	-0.005136492911831573
0.024150895140251035	0.07002221567566982	-0.05864135088833973
0.06067141004371833	-0.016300186325201547	-0.04391249734516655
0.03305824587230587	-0.0018369204955918646	0.02847023019878796
-0.036615098934337155	-0.01826879376212521	0.05386705197552835
0.03083914869334477	0.059111159905622546	-0.02461899776294967
-0.007229765650795184	0.07876573190997425	-0.018687398516179458
0.01293980519868532	-0.05742478156568757	0.04436482855607051
0.0067640783081951055	0.03495104888959597	-0.058671109531991596
-0.0347724417005492	-0.08132263570533073	0.07271944195878596
0.05471222880800976	-0.09903926751964538	-0.012100426649328548
0.044410596331452536	0.02848184880906697	-0.08793667624450308
0.015164721832489497	-0.029115487810590746	-0.005232414282102461
-0.06161146305100985	-0.017938610800269813	-0.015908047051784724
0.06568379354789053	-0.06094261737835437	0.0013508563103032363
0.06899083253284827	0.014925312968472507	-0.06875117310871058
0.04411967235136208	-0.074162297680167	-0.0679195331450679
-0.008277979698865194	0.045519453991446066	0.02025468110478213
0.012241034436909208	0.020885378458252432	-0.033109506533699394
-0.010202988962528917	0.02526833007866442	-0.02690375114987564
-0.03863915649441838	-0.009279289600813588	-0.022862711360956606
-0.034240412620972265	0.041295800549940885	-0.034265952039600624
0.029912144147209063	-0.022272518285156515	0.014552804478128161
0.03363108428371391	0.009891152380351594	-0.01100416645172671
0.017792269466679285	-0.028355054497563138	-0.05451276400235451
-0.02909465950635927	0.04710079084381667	0.03222814881244721
0.05228138333792645	0.009969877589923114	0.02540278416575
-0.01603669612983671	0.008630828343397536	-0.04165696668225655
-0.08908537342071733	-0.01831582006002319	0.08580275045387174
0.0009097269596021325	-0.044511742418755815	-0.043350646770909544
-0.01486351938687766	-0.028603739004085294	-0.053052011963672964
-0.025623873641798134	-0.051774300698216084	-0.06692617995244793
0.037393454295673555	-0.036699818509057354	-0.02316387775120533
0.00023215020391169594	0.04106348650376491	0.05680919772127488
-0.031427955397242274	-0.027405428990412428	-0.010302494078567686
0.053676611170009166	0.13763980606808812	-0.07951409042680811
0.01157439948881811	0.02470837213602321	-0.030531232688670387
0.01767622133245735	0.01307410146695695	0.004112262087178284
0.03316214208080507	-0.016539756342001576	-0.0008017727791235851
-0.012004287966984228	-0.11828072650191417	0.05969670370070864
0.011375098517785264	0.0207206006396412	0.08769067371674932
-0.010915267564100137	0.014355133025411778	0.047729709201116334
0.06676484973870342	0.10501881840947087	-0.19802894331652524
-0.003427489374803224	-0.024481438433029745	-0.045998458465134485
0.004786758136036543	-0.026815903720496897	0.025026643803295015
0.07228923217639649	-0.018255743288910983	0.10320946608664455
0.054849105040682355	-0.010618504705656116	-0.044708633297800664
0.05775583939777845	0.00033452007017157226	-0.019162327201486237
0.049999109470118305	0.07325240207343428	-0.04718103075800699
-0.009957808291552284	-0.018792035123201267	-0.04027503279058237
-0.023622297588921932	0.10538120067806696	0.010533031739342887
-0.05246395613205939	-0.03379094761105202	0.08680684622297373
0.04625745384188403	-0.0027283632048341866	-0.02900344365654252
-0.0839211830407611	-0.04984837905841076	-0.10840698297883965
-0.017870563762505877	0.021251915951598685	-0.012565339596159013
-0.005387583077904877	0.03515362072222719	-0.047375987568172746
-0.021729527928548	0.04681990805940089	-0.03608810165511264
-0.05807563369276688	0.043825880831323126	-0.04200017268642352
-0.04595005613423218	0.0366254386665006	-0.06194739362816206
0.005376187537359115	-0.09497989724295856	0.04864621164028522
0.045507247211927816	0.02540570958137657	0.01846585456079396
-0.032789425960313826	-0.020960049635913556	-0.058096831807270044
-0.0896650630899804	-0.05203377631571308	0.09515906986731716
0.014256904064031097	0.00208754776770472	-0.050906667039353606
-0.11591412286414018	0.039585819840192986	0.00023865122340235105
0.047407602934672485	0.05900985626418434	0.0664687610784332
0.08287354453007778	-0.03526840713488407	0.046783436409042804
-0.017375314101484685	-0.06862857313676894	0.004506225748206647
0.047909191902667646	-0.07187707316461475	-0.045855547355574025
-0.004740002310358925	-0.0010613580550548948	-0.007532638568586734
-0.058193463586090954	-0.044103318061249036	0.06287871537505436
0.05169987541704685	-0.08417440255985839	-0.02600687857907297
-0.20324492127154412	0.04885834192801537	0.04730534531908534
0.009061707368810387	-0.002117878300547493	-0.019623322585796354
0.008646993754393248	-0.08361032981470314	-0.0541210440004679
-0.03513032907714982	0.0017318444180403328	-0.005191612563682423
0.0823847792915582	0.0833541193270238	-0.053917698368471136
-0.00828465476125692	0.030983100648944592	0.042210434903401185
-0.024733523268368755	-0.05771101716109278	0.0023823706115798293
0.11452354371560426	0.09863599314976476	0.007881963048217163
-0.0830916895394387	0.09866037968856678	0.11498532052880528
0.04238671596149203	0.06377866515066284	0.026995024666610454
0.020372003696834402	-0.09458859253953493	0.0281435854884826
0.05382761256162384	0.013126649607417877	-0.011932316647404208
-0.014643846710316813	-0.0421892186115866	0.05577317734584217
-0.05093977832117706	-0.017288948628839843	-0.09861331941884986
0.04062120411122528	-0.021902928804011592	-0.0062890978871562725
-0.04790453431995078	-0.1208676507170686	0.0386018995034391
0.014611287594903011	0.05169560523033102	0.006546179406544241
-0.09223186980229253	0.005594577416219656	0.029336443982296043
0.05969534999743968	-0.03759650209115853	0.08206663796157947
0.03864587842206972	-0.031423872099517816	-0.11527105137776507
0.06985080647046651	0.03002633675361542	-0.01692245062447502
0.05709029789606596	0.07445525216095322	-0.05765166915843259
-0.01741952048629513	0.033922576858625667	-0.0032198194953560206
-0.008343624910207315	0.03457078123248241	-0.019997431683248138
0.038460650398686624	-0.05905404811487723	0.044081276721315114
-0.08461438430761621	0.028073963973438653	-0.022371081245100632
0.00602949336319726	-0.03112276024675516	0.01689002075655082
0.03195563014347222	0.05751165344089215	0.05618561389840655
-0.0022324461743693726	-0.005843072475067692	-0.03487979374101797
0.04422428025176716	0.017934598495446753	0.01107718354308282
0.03570239646971237	-0.07214970438606837	-0.0683758162192046
0.09668747964857716	-0.0024835662655480163	-0.0015933319258794399
0.007233190799069645	-0.0044516210447854395	-0.07052367918590771
-0.0012503324462841366	0.009968392986774394	0.04331614022276515
0.0862719136332764	0.08441922349258793	0.03761451201623165
0.02204991168163376	0.009490990126877728	-0.02062916839905703
0.058381610219253754	-0.003152155578948017	-0.03481043665938129
0.006419464918474401	-0.034199590396816366	-0.06577149338753045
0.08664435235008254	0.06507892108546136	0.005618247092406522
-0.030655380635200912	-0.03492146564594572	0.06789805302032863
0.09559106724050187	0.018267405879229235	0.019925062848204465
0.0011746848511568768	-0.08459978916125481	-0.006132283882854697
0.039411147841837205	-0.03620673606781348	0.020981133587032203
0.03333929358788225	-0.05495975332626281	0.015340572652729883
0.12506658208097465	0.10957491886347472	-0.06968356014760334
-0.08434742101238633	-0.03378476714115007	0.0059115566130839
0.007744784010902207	-0.03928361005882233	0.035222172786951424
0.00953154305091391	0.03493366419421103	0.02815944046342042
0.001147323937527528	0.017556391534618274	0.02638555606220048
0.06692369711444607	0.033186144508783995	0.08880831669976266
0.07656237746755913	-0.006076328353644737	0.06459086970174788
-0.0004546874111600301	-0.04433640203070086	-0.07319254838341463
-0.08311533876481339	-0.07509209884372109	0.011788616295343318
-0.07974319561333287	-0.06661686572420347	-0.07364245479419917
-0.03462586661125556	-0.06665281786197119	-0.0866909542053239
-0.025888371686003837	-0.07084406435581368	0.02214693399687588
-0.060862515515367324	-0.0868244674108316	-0.0007195543458138319
0.0029492659257275575	0.02562173117656102	0.01931837632637396
0.05454405684419536	0.033327809419712445	0.06266499322144202
-0.06898819581966506	-0.06208811390776986	0.013070204967151177
-0.015252216287946641	0.016029020002942016	0.054712953478651516
-0.013508890422579009	-0.017295433317421817	0.05140127161114924
0.027313597627127865	0.08101447864625728	0.038192840560318415
0.07832914984268975	0.09084915612690488	0.018290884085039802
0.021660937392813127	-0.07596221957972966	0.026247434960727914
-0.034675281611393716	-0.012520055532505932	-0.022121843090871427
-0.04232775294719858	0.01384158298846523	0.11695733637791998
0.013304343571458294	-0.04755760581513736	-0.007280873316934877
0.04423369075289893	-0.07339768148149894	0.11690771106472322
-0.07095485974309959	-0.06745207758395295	-0.06985462157539518
0.03574301744969459	0.0675806853927114	0.04630170717365226
-0.008244017234796808	0.014033844682635344	0.06923911145472994
0.019964956513640764	-0.011399483172360954	0.00882236430531101
0.0647348739008392	-0.01923138453269782	0.10289616107316582
0.04445242125832442	0.04741679846939146	0.01647221950266122
0.012743010188060492	0.0231972145701618	-0.04757306937682486
0.0303702835432744	0.05977548326990838	0.03520055496358975
-0.08080041321876115	0.020567247936528782	0.06530408427302441
0.025127368011667865	-0.07934544575565988	0.03233255201051488
-0.018255730181134515	0.010644897378951551	-0.046409570763955105
-0.07591484792015628	-0.061950644581595604	-0.03897268579369257
0.04294376837021711	-0.014486333889415667	0.02248508921990388
0.057800422991777595	0.0006049530366353383	0.1559789632812588
-0.011518865434218626	-0.04687014401618697	-0.037711143699073996
-0.07879090032423387	0.08039317399229311	-0.02407807607921403
-0.05078812141862594	-0.03444865336987358	0.040934973989853414
0.048917335749240023	-0.08231464921290983	-0.05071576666906928
-0.07646010008654082	0.02739489001056714	0.015542045414204994
6.620168890626516e-05	-0.07017209839452114	0.09101017932778814
0.038219994266478416	-0.0007137160831354175	0.10007451653642878
0.01318296597533095	0.003370604266244796	-0.01715742352859899
-0.0095784647446274	-0.03394193000504375	-0.09395411236056349
0.012447316768938501	0.015633584739394423	0.011623071174308218
-0.1438640333198521	0.058110704527479885	0.02175003535304191
-0.017508208253291028	0.025342706314183918	-0.016213236782700157
0.05704721307677037	0.021407195616048723	0.035511987044959274
-0.04990575763353013	-0.07197564227587397	0.002908561201483548
-0.04339552690146422	-0.014980028673489418	-0.013093227528587886
-0.012518906117728495	-0.0011735053563519937	0.09942762966458278
0.02932874003312399	-0.03498835395696134	-0.0359462268453337
0.07590798935800397	-0.0030246739225314716	-0.07449285171453196
-0.06855890939104416	-0.026830649991073215	-0.15064328691933154
0.03976674122103654	-0.020685329316383953	0.027448655883839775
0.027655635320728667	-0.03368035581805844	0.0035583707272113687
0.09976961391908543	0.07424534005285076	-0.01222108083348973
0.06917270291555595	0.046774373594515334	0.09068474215048691
-0.020487325523999664	-0.04052322650014977	-0.021684934859633357
-0.02917529581000888	0.04149807362003042	0.037513014667110364
0.01776675837895447	-0.15518307574351756	-0.03379754272847604
0.007724361283020259	-0.07723844579541454	-0.031205594149708603
0.09245479024493948	0.015640913766615687	-0.02934389551647155
-0.049972909450993974	0.029739867868777695	0.1368557709679322
