0.011929754413029682	0.007877556028074535	0.0004937145026265629
-0.0060813912215591966	-0.007112299978447947	2.8360144598071207e-05
0.006998567666413458	0.008575813426538839	0.009801089270493508
0.0011647057638359756	-0.004376179757352505	-0.007079697628323533
0.0016816068253955718	0.006931361288819984	-7.301856056545104e-05
-0.009244251683964963	-0.004516370017339571	-0.008789255688432277
0.008924099525861207	-0.001260062149475126	0.007314319719123394
-0.005466654899022542	-0.009549516082152324	-0.004434431384198783
0.00726110452278991	-0.008751334434464426	-0.008740378102979096
0.0042527539825784975	-0.007279776914965853	1.6140058894753215e-05
0.013253533260741452	-0.003512567403827589	-0.005721586333967505
-0.0065003208932352795	0.0017725569528145146	-0.009633188720786445
-0.000574348045669637	0.01657041883079335	0.002214322892909515
-0.0006536575281877264	-0.005873912093389628	-0.009728368161488166
0.008863776289950887	0.00742788075873816	0.003144578539639247
-0.002326636501705613	-0.002400058617265482	0.0076070598147889665
-0.0023151460918493325	0.0027225137332467057	0.0029772612955534135
-0.00536040742983963	0.0010326643305666652	-0.00647455076941611
-0.007901700088978345	-0.008633975960796748	0.008476524981378495
-0.006194874214929558	-0.010235657653553153	0.003849045781676769
-0.007321035936725081	0.0037502134520664004	0.008932995598038118
-0.005192349834524712	0.0050731898667022175	0.0022505412608651385
0.00452275004577949	-0.19369580404251852	0.009936532526118015
0.006683418214104632	0.004820344142065702	-0.005954753438569778
-0.006166978488020341	0.009530610720100505	0.006449451776550479
0.009783925139641226	0.0010777583061127504	-0.003150406396428388
0.011879156968052439	-0.00014387602702640567	0.01022717990178331
-0.008633893392311421	-0.005911393909241629	-0.004646843546855841
-0.0009214683232336759	-1.0555748905915883	0.5382262680200832
-0.0014233676696518201	0.007539099201883592	0.006747064084667876
-0.0017183815697863133	0.007854228125059051	0.0003076426792578586
0.0042609764720011305	-0.004425541241247312	0.0035432814107913824
-0.008802719857120786	-0.003773945723532941	-0.005598806135744186
-0.0012043984796482436	-0.0022230582598389732	0.010253065549684852
-0.009129591856037447	0.00011947715726986705	0.007990131395836415
0.004352858261508672	0.003886082398596854	0.000855477261677437
-0.005373166773811553	-0.004215745550266173	0.0011511286053580462
0.01041584510038553	-0.0016053512866747374	-0.007391869545809964
0.006291613636541127	-0.00726813470440341	-0.0020000377120015685
0.0030289529054051047	-0.0018185325644704403	-0.0012895388714318085
-0.002275173862918811	-0.003290742553466869	0.006861369716930698
-0.004544820185541091	-0.2682216834070121	0.09388820117199104
0.006491926649556193	-0.007305066867647787	-0.004418622082186036
0.002256722542620916	0.0018314898970423965	0.007786589181606878
-0.006879762280845166	-0.0063154214911477265	-0.0038391617796747404
-0.0010858243249386394	0.00944728777958416	0.001287350790800416
-0.007091062826931211	-0.003630821926041257	-0.0030975370427358644
-0.0034460870393844597	-0.0063287944657032975	-0.0027390554275040415
0.0026286911636248314	0.0078101243654520765	0.003479861155699586
-0.007004250390419655	0.0028373643763433716	-0.006996615171258156
0.009870020253471137	0.0052622814070047985	0.008517852733765152
-0.005391562100477934	-0.34137417639126744	0.03790327617171554
-0.007172307920139714	0.0007340569044995294	-0.009725949659459944
0.0011421288644436513	0.0030294351361761646	0.008674891183773865
0.00539553917768593	-0.002003859684476632	-9.571688527390543e-05
-0.009018026253686818	-0.005565428328861279	0.0025865486533736357
0.007101703692535969	0.0008990792090146464	0.0072955608650315355
0.008608443733413856	0.008403820649113434	0.0010336636192102722
-0.002468109222137617	-0.0013044776476423842	0.007621610002450457
0.004747663204896833	-0.0005851655625746417	-0.0047219709231294624
-0.006782295462873376	0.004691341531910783	-0.0013809290092184935
0.0005889973978085421	0.006605969557170329	0.002060960797971672
-0.00782714596159552	0.006418583795141427	-0.00495542924686934
0.008023737665090376	0.0055450239444194225	-0.007292709959557374
0.007206223143276805	-0.009618933136772851	0.0015748980252926325
-0.006446550687234716	0.0033915255458025206	0.00916470322423305
-0.006460192745768882	0.00783232063232316	-0.0014795603148927833
-0.0012216610580329575	0.00502488040726448	0.00495889543011189
-0.003746755020118361	-0.009778041423136628	-0.0026599911418565512
0.010925485183475473	0.0055988020679369355	0.0017133768320690187
-0.006271084203188726	0.0032837826991521293	-0.00856603746650165
0.00021980763318352886	0.005830965342945164	-0.0065899675996619715
-0.0005589494622641258	0.006325544583431677	-0.006584903547801908
-0.004366476662225744	0.006356235850973361	0.009849857092159561
-0.007402062107019035	-0.006621089922815836	-0.005742549093752646
0.0030734108051739747	-0.009848609196320638	0.006377049219447982
-0.005911868529988278	-0.006546157380146026	0.0049900260314858745
-0.002031966480244736	0.0073806335354752554	-0.0023027146448412836
-0.007281341592863751	-0.009027133699956743	0.00044829498523978224
-0.008964202748418436	0.0012580975232989074	0.0035172241592273078
0.010038092553024522	-0.008761949122212433	0.005125260231442103
0.009197632506434962	0.009551939223104551	0.0074865260838859315
-0.002312045589076824	-0.003752772684946634	-0.0074406789940150014
-0.004336753528632104	-0.003322131095450572	-0.0065948959326059
-0.007746682525131476	0.0008565004734366784	-0.0106810403051115
-0.00012308141784651665	0.008850324766598871	0.0006730521551087821
0.003081037388373658	0.009757957411745039	0.00278969249966937
-0.003631350570203952	-0.004961921356681562	0.005611610141635429
0.006035933641861264	-0.007152452050483253	0.007903640164376577
-0.003377951008709806	0.004085428280135108	0.009249320688599415
0.009895771002757188	0.008810040238316254	0.00021130096344204596
0.002664650447649986	-0.010742282216435958	-0.0056807519479519925
0.004934008254976729	-0.0024237010845448766	0.007336759891840549
0.003690472767617114	-0.008563222887350286	0.008204138218861132
0.0037864097913222518	-0.4060458107837375	0.24941955502315238
-0.007469588527741275	0.0011006024139732194	0.009119704729738156
0.003730523243053471	-0.006460890145369699	-0.007097978912121319
-0.005233964315319891	0.005005216858648978	-0.00632075312291925
-0.003840789185681927	4.084810644815716e-05	-0.0028647085757412868
-0.0024071667911513862	-0.0010940136099032525	0.006526124327618744
-0.006920130133336717	-0.003976778845610619	-0.009729523655068616
0.009829241682255725	-0.007312710964027264	-0.005119880533166423
-0.0038890669801717025	0.000636745412198908	0.007818628682486256
-0.005723024941262569	0.007563684834964633	0.007289360036589192
-0.00599143729370707	-0.0071353358540974555	0.002004596386424265
0.0013959390425096994	0.006256258122822598	-0.00983428732319549
0.005478421281486576	-0.00021432062576470616	-0.0024938412641986353
0.011163245521242496	-0.0028053651474614534	-0.01090827876008716
0.005779343622961347	0.0065326286402217545	-0.003639479543532581
-0.008675381660486387	-0.0013260102647226057	0.0008565780057956281
0.0024938636441198085	0.0017513576674739132	-0.004495711861435657
0.004544058973252937	-0.0073596809079934725	0.006460303370428723
-0.004235242328680359	0.005465670572199176	-0.004227666371517882
-0.0019254140474799092	-0.0006924374450480199	0.0050343028771876845
0.007851913529066843	0.00035229268130799844	-0.0025376182622701138
-0.004333768068795532	-0.008113604358749955	-0.009012405583565622
-0.004425677985612032	0.00642743323151717	0.0017097218938206624
0.007781004449782214	-0.007397219430812953	-0.0095912775315182
0.003102539192903036	-0.006378964405208184	0.0010606888492301868
-0.004149424722551616	-0.006829392635954725	0.009181906509318116
-0.0010398518839488963	0.008660512546255182	-0.0023305896670100593
-0.00489903739248332	-0.004154891941060272	0.003554985087078069
0.009350251983621804	-0.005094363775030064	0.0013856932608277209
0.006641634845660993	0.0032421521027917143	-0.0044485532515927285
0.004880263952228552	-0.005035516261737365	0.009962566701462203
-0.006648386045672347	-0.0019719870134722872	0.01005913100167758
-0.0005491661835028121	0.008755907501501787	0.003971352120254278
0.003289359270191047	0.00925035414306848	0.005724313320468471
-0.006119398224011472	-0.0018146133682374974	-0.0014342356210364886
0.007445786542081008	0.0058258663918416	0.0037861348855124204
0.010017617867951183	0.006129412724530638	-0.009864290373000096
0.0011303283636571633	0.0024902276662987152	0.009011570449955467
-0.009290869115203796	-0.008326070332120844	-0.005841081896009992
0.006232381735872159	0.008995765247659946	-0.0077934049980604055
0.004221465641672976	0.009291710529929552	-0.006160012074817462
-0.0017780334331434517	-0.0007107201607111906	0.004637069178715722
0.004258305988828724	-0.00925490771917294	0.00013750339986903608
-0.0048922053529661495	0.004476167581148605	-0.0034785657667189274
-0.005476322019931697	0.008042708140607284	-0.004851093224770904
-0.006151366718538496	0.0032515285414979594	0.0014430883576869672
0.00668390768621676	-0.0007316473227610889	0.008534747081393606
-0.002110078911693517	0.004087233862944205	0.0002629873447549027
-0.005474349133150142	-0.004810463181178327	0.005840581247448068
-0.003062805392931113	-0.0019060204184199857	0.004389054706923691
0.007250115909334573	-0.009866294637917853	-0.0008935850449365082
0.004896648141038799	-0.004137522210657243	-0.006640822079949281
-0.009682033299709732	0.005765514118121958	-0.007550496601079414
-0.00297693184977915	-0.007830446719430242	0.003481959169181722
-0.00037972272125344486	0.0051030209652035315	-0.0026632052260716233
0.0012534781846145083	-0.002067256955095508	0.0029352679666588364
-0.00277813491145195	-0.0022532044482430832	0.009102759532221666
-0.00958807156121474	-0.0036964224409432676	-0.00011531443341376325
0.006404469571524948	-0.007641728632752823	0.0038791571301750125
0.0013804699500584404	0.007091830879690328	-0.005117295462612342
-0.008606899569688265	-0.005151673888652394	0.005275620781494466
-0.004722283703505503	0.00048709822114311255	0.006987934045887706
0.005282489535960683	-0.009281809123590576	0.008531538061428898
-0.008944029179980861	-0.008791546027432666	-0.008277244753889778
-0.0014354428562945078	0.0057226258255551905	-0.008910262472202807
0.009505298610807409	-0.007173907100107405	0.005430985205425164
-0.007747156818915904	0.008669641819252361	0.004719123977364093
0.006669197551590194	0.00646654462880036	-0.005823358995272294
-0.007974060546517385	-0.0037887459569014657	0.003915178172531895
-0.0017172761656845913	0.0032927287104970327	-0.003310625224681528
0.009534643778020475	-0.004029256527076244	-0.00932257134093675
-0.004917119107693576	0.008330578151227001	-0.007607939179328406
-0.006319786011430115	0.008990185640316263	0.0028003455810171694
0.003977652065727226	-0.008007459254006168	0.0024357281234259516
0.00017895376036436428	0.006775684704343213	-0.00013295275773224542
0.0009876205484800407	0.0027591845672926465	0.002450610822960839
-0.0018113992091872075	-0.0003033753065538585	-0.0038895885565303732
-0.008407690164163413	-0.006464753810926262	0.0035808574210963676
0.008764528510265235	0.0017805363185004804	0.0014225132611971336
-0.0045824743209228695	0.003864842064347916	-0.002836620723708199
-0.0032989367924290136	0.005531514900731081	-0.007970091631407434
0.002974350684239929	0.00029895822452953233	-0.0033812099458665687
0.002525160044456635	0.006209304209321967	0.0037236146243674537
-0.00022266532245523475	-0.0012331335800311281	0.004396214840816993
0.004347255395333215	-0.007627988561756291	-0.007254397160320386
-0.009904998219179393	-0.008194527043604056	0.005247181889044777
0.0052888218362532585	0.007353574980291275	0.0031189280356740505
-0.004801591101738202	-0.008997548766913156	0.009208954299273882
0.003715576214598478	-0.009285692629204114	-0.004206876844571092
-0.009124825295409108	-0.004524912983284307	-0.004114319278841231
-0.006628643955762948	-0.010455029193440686	0.0034953697753922104
-0.004206988495254502	0.0025580657722943188	-0.008402974204945882
-0.006130272704358699	-0.008803523854622214	-0.004688381721371451
0.008742614038554114	-0.0011802044966579672	0.0014321997093139447
-0.009415652606583842	-0.0026491617971559685	0.009924033442164963
-0.0008363825228908887	0.0008532555412501773	0.007502515834642487
0.0010671582717144655	-0.0008013158593333167	-0.0021277337143380433
-0.008956133719864059	0.0017990867605808224	4.8399657932334667e-05
0.002739069530538237	-0.00200144837157272	0.00041922059043262953
0.00473589442694591	0.0025111791393736278	-0.005266059646474235
-0.0012899565125966718	0.001597284891142508	-0.00022758792651664944
-0.0019189029886766407	0.009069428701413515	-0.00782409638216553
0.008234735554067226	0.008835534472029956	-0.0008317654364188229
0.0057241418404977585	0.009087479670230218	0.0030598465796662644
0.006209580318154012	-0.009992978280448013	-0.001070260297551199
-0.008634337595629139	-0.0007821954945021539	0.006057915837076216
0.0010170175137399103	-0.00963615071635075	-0.003774605517646407
-0.008720392958509194	-0.010059854043956653	-0.0019301361181653844
-0.006510344345762335	-0.009700367414012638	0.007036133436025313
-0.007971458272023148	-0.0044200344229622605	-0.007234901098013452
0.0037957223651970406	0.007927159655444287	0.003521424275627431
-0.003927459599489274	-0.008709426912365044	-0.0037010505182449287
-0.0026711685216521813	-0.003718123175948983	-0.0053921798060111385
-0.008962217000812232	0.00029799931078097405	-0.00377296439454115
0.004421803734198506	0.009327570755658945	0.007991240433380706
-0.004956728573875491	-0.005371281364863898	-0.0075072916883928715
-0.0007762891413016556	0.00698241929920692	-0.00852186104453555
0.0017413119767711541	0.0014875653756757558	0.0016637928913812647
0.00564410659058635	-0.004264537323883006	-0.003595422504935211
0.007388702994455319	-0.0060392220522409844	0.0017358861197599024
0.009460362959313703	-0.0062710686994907104	0.008562032868298274
0.008655741753288287	0.0034606750605047244	0.0016383509860238774
0.006306014569130044	0.009009389220723052	-0.002388392548691179
0.009390916404441365	0.008437337596910104	0.009353599320117765
0.0027758052802796702	0.000743040730425552	0.009066708880220023
0.0061707023966947345	0.008405383514861463	-0.009146494449220473
0.007521002462125953	0.006265552780263474	-0.002215965601564375
0.009105490039186606	0.0005746609671207614	-0.004721613003885523
0.0026401988292588992	0.002807612807221801	-0.003289913534560226
0.008672097174472858	-0.009080227218213409	-0.009743718016755555
0.0030202559005284447	-0.010140285783792566	0.00023362114418803287
-0.0036409870435361	0.005130250922580527	-0.0011532104301677087
-0.0033965980175244877	0.0018107883820348523	0.009229405231618944
-0.009876935535054688	-0.009520336620448579	0.002251417203544149
0.001282908488327357	-0.005874258019604886	-0.008447605758737825
-0.006718791236994141	-0.004485597903231981	0.006055950649684905
0.0035112590559864976	-0.007365198225811316	0.005935086687140375
0.003493261431543559	-0.003724865416518836	-0.006047105053559671
-0.007265865745126145	0.004802520957260505	0.004924595087212304
-0.002441497779098597	-0.002194443545378129	-0.0026968131212711383
0.009263312525738445	0.002912805223942482	0.006380709305808127
-0.006952259445363502	-0.005265616707998197	0.009278455523991161
0.0030610741443650846	-0.0035130830179505128	0.0005415230370005037
0.004621144421966147	-0.007877152397264584	0.004415104226523336
0.007063609634754877	-0.0038570412056744604	0.00821718316726882
-0.007219324365768224	-0.0027248374127708044	-0.009299792296459058
-0.004184158198928393	-0.005464114972238641	-0.007533262085240083
0.001135151682790849	-0.008334332776474131	0.004133069222102962
-0.00633652662008018	0.007778953075310785	-0.0033273617647728553
0.004221079733631811	0.005157240308696373	0.0022486259508098533
-0.009210199753116877	0.008039028722371833	0.004234665346641849
-0.001967713560815371	0.003212265990642371	-0.002746349123425383
-0.0004549872794737987	-0.008181600910781564	0.00533966968969431
-0.0062528069327038895	-0.0005313136635242705	0.0032857542136488435
0.0036747813367867636	0.00041822959049104755	-0.008719500342696801
-0.009729889444885762	-0.009823633158959677	0.007521023493127596
0.0012297926384142056	-0.009007374151580035	-0.0018189493566969743
-0.007765629820459852	0.0054784645700471785	0.00895672546753485
0.0002645333858265417	-0.008029087646002565	0.00782764047658036
-0.00012610691755649515	-0.003944614743972723	0.004742302488712116
0.005419553265133721	-0.0016500265687890824	-0.00852092588836718
-0.0027873278414977474	-0.0029587045478818314	-0.0016512398064218777
0.0014619313950724033	-0.003794498830274785	-0.030538258812435916
-0.006938305780187197	0.0026291766881383263	-0.0013944420482898592
0.003078274756497964	-0.009755339621786561	0.0022231261834024137
0.0029391004833013677	0.00777741584582173	0.0011120992811134416
-0.008118181093938167	-0.005061459650152863	0.009159320242852391
-0.00676268005975708	0.0025128352522165495	-0.0055685331107955816
-0.006052377241109418	-0.00019634922229556755	0.009344479550560267
-0.002115710569845518	-0.007941497553778199	0.003295771272910553
-0.007356630096198136	0.0025780063731819323	-0.0007393323238494166
-0.005696183596050165	-0.0007115169480735699	-0.0027548280618694427
0.0011318604324545931	0.007623749187521935	-0.0010298528609333918
-0.0009901626339524905	-0.002655657187612912	-0.004987980502666026
0.008094790294760157	0.0065537331649892	-0.010075527623192294
-0.006792794227993181	-0.0071989635641951846	-0.006543995541629903
-0.0024530223757223656	-0.006657280435161337	0.003952283300002132
0.005532030510567838	9.711545720424847e-05	0.006256074098973344
-0.009936177631606728	0.002250003089053508	0.000518714651217167
-0.009244613419400478	0.009455054410056202	-0.008562942133008103
0.004967064660452467	-0.004367053479933238	0.007257587050237128
0.0007232854047922888	0.001163091798177333	-0.005050941755993098
-0.007920778773781176	-0.005703584297676777	0.0040504262307941696
0.0052265500786161465	0.00035162635039803075	-0.004140863534915499
-0.0019572593323717163	0.0069220402834027014	-0.0038131294625324014
0.010027087424766448	0.005080413338867903	-0.00772547490945235
0.002987587204338931	0.0033432163641567737	0.003201244618032067
-0.0026964876507411147	-0.0039831857510347745	-0.0022476011807730477
0.009039282885023227	0.007171110938667942	0.0016592655375295157
-0.0042881675186388305	0.007071667717908995	-0.0016727339311321966
-0.00709955132638752	-0.005936220340404665	0.0076308912316076175
-0.009247958990507614	0.006010477164507909	-0.0035830806573406773
0.009938753802433704	0.003997405852020833	0.006868031238316254
0.0018946440702139068	0.0006589966053856845	0.002599671164260452
0.0036602667178768297	0.0009262573848812447	-0.0678683580670781
-0.0007969901507873765	0.008065804509662836	-0.00035767824933493307
-0.005855358090012971	-0.000886773497128332	0.001701651360161904
0.006164251128879545	-0.000950079143816774	0.000626191004508508
0.006733864858725224	-0.0075971532022694535	0.009239759133696545
-0.005991870517210857	-0.007820675924396434	0.0032383780681466447
-0.0027036076523421094	-0.008844831947785188	-0.006833899866355993
0.005557299479091892	-0.006612220202101796	0.0059868434151106025
-0.004759392881138626	-0.007339353769382611	0.00984975638942448
0.009838888487610475	0.009279050273540559	-0.007467743499142355
0.004002728095547253	-0.009105615656354813	-0.00161650678992851
-0.0025473239373371166	0.00548346763217889	-0.004447574229212192
-0.005800195757848448	-0.008478011215180794	-8.832984953201402e-05
-0.003918710836514289	-0.002226188186985053	0.0013955965976435915
0.008015003786318945	0.002003297628987117	-0.003329204249445274
-0.006460021709946747	0.002690323521803862	0.006118888696795688
-0.001609974232908748	0.006491932504479976	-0.009653841983603261
0.008049167748171167	-0.0033712197146245	-0.007786446680606733
-0.0097432769032412	0.008887272155674416	0.0003327644130550738
-0.003653630644658899	-0.009128209696717524	-0.005373205241013633
0.006861244452215188	0.005966772644785949	0.0055272664395987926
-0.005626561129636953	0.0008782287590554314	-0.00046023913012835545
-0.009064895891736499	0.0023637410588169512	-0.0017028029951105424
0.010212338492862558	0.00993863971516247	-0.005955429576642414
0.002310103215228756	-0.0035563877904736686	-0.009097278406841927
-0.0022887740953514406	0.004334616009786477	-0.009511731962589157
-0.0013167578627611108	0.0007503950666259557	0.0014689455967784593
0.00954848016519647	0.00013160916206808766	-0.004673238235151301
0.0006543225929429766	-0.004313199597067191	0.006639756220907142
-0.009456922514886756	0.0034669305840441273	0.007917161966889104
-0.009335232605937748	-0.007317377686530428	-0.0069744807901061905
-0.009959690710774767	0.009828310585465036	-0.008104134171026737
-0.004423814365481034	0.007683116772356405	-0.00903951792349359
-0.007072131158576217	0.001518883182057302	-0.006028290372139268
-0.0031637475500517036	-0.0015611022335868998	0.006181660686347698
-0.007862068515492628	0.002880674518206056	0.007845833727689341
-0.00818498645373829	-0.004584925383293035	0.0021480144645364824
-0.007992511985754914	-0.008777060049481401	0.0014729291871182874
-0.006191639248954887	-0.0033346306987681196	-0.009479336403665418
0.0021807407625616722	0.0051209895001037755	0.004442837968374127
0.00708382100950539	-0.0066109353531314426	-0.007892295381776016
0.004981355723096766	0.008742752036627464	-0.003324456352071962
-0.004839285982274802	-0.0017973909510924369	0.008886086582482328
-0.00039957925476432656	-0.00016114108181713993	-0.0108937473497436
0.004976905902703966	0.0049213580996678614	-0.0017773822633086848
0.0029921110948793444	-0.00941990416183904	-0.005547423236139767
0.009861813906706611	-0.004021672938675473	-0.0019295835424092116
-0.0002353095290815524	0.0009088816790127786	-0.0033626252397534473
-0.005641708945503076	0.0031148912775175643	0.006953754831932701
-0.008623108743584006	-0.005407088192747484	-0.00815790049636927
0.0037374977077998875	0.006745602597416063	-0.0075808049858773555
0.009449158070621319	-0.0022631792894747347	0.002242844212065548
0.009869225365122046	0.008581156453708294	-0.001222068824658449
0.003500854988041162	-0.0026098616586030816	0.006270372812175247
-0.007274494724220711	-0.005968727846209261	-0.004199274032687312
0.009446773310168728	0.005023040475636063	-0.0009238507636016528
-0.002163178795054687	-0.001683667598665721	-0.002267011495363711
0.0014519484105177758	0.0008339672148500489	0.000794095339970725
0.00313638584323654	0.0041284772166786735	0.007854236494822996
-0.004775962308979668	0.0010622391504947308	-0.0019708105384079414
0.004830064498919682	0.007807325308857025	-0.008883727767126244
0.0024468681665391918	-0.00348949157130877	0.08068000136479965
0.0006804893757279308	-0.009575792958323203	0.006680953337232683
0.006111381513455128	-0.0009663727566727887	-0.005749050786024763
0.0070057349170783816	0.004972743577790045	0.00430621516071872
0.003544695700569391	-0.006229025647149788	-0.0065519219522825155
-0.004944800060916852	0.00545841239711555	0.010106647618986154
-0.00012266486442567837	-0.0027077956118092324	-0.00040771553581837525
0.00857172362023731	-0.004908923762740422	-0.008743363391551282
-0.0020791077179150453	-0.0060188492429116185	-0.008876587514932206
0.002928196060238175	-0.006585310339479315	0.008143897262849045
0.00897729189304756	0.002992163959506364	-0.0032580450996690033
0.007920772368030769	0.007605094750590404	0.0002762882301549068
0.005472469180006864	0.005108024809461946	-0.009516428639996643
0.003459953546468053	0.003158202406894418	-0.0081458467306243
0.005977219221470929	-0.0036657112286614287	0.005300404165886995
0.006850235572302197	0.0009406304271939465	0.000899522912084727
0.004435883094094539	-0.0025581741210248896	-0.008144855694928604
-0.0028522206151216974	-0.001123944091508785	-0.006193163772082101
-0.005860978379134145	-0.0022668524909457994	-0.009692640945005528
-0.007740127542420925	0.007763133381111596	-0.0015162538223645067
-0.004403510898762408	-0.00147767071168412	0.005594424322574355
0.005160589974810802	-0.0022648590861744367	-0.00933784653340014
-0.0023181334328787016	0.008432802018697706	-0.006723977798387862
-0.001965028114229758	-0.0005112404975036455	2.3386410796832555e-05
-0.007871840991813105	0.0024113273352084023	-0.003264618352145438
0.003477025899846012	0.009833888443914088	0.0003415637040494156
0.002756962424549321	-0.008282943625210815	-0.0075350250196197805
-0.009534664398540667	-0.006427107210567742	-0.0031270099856448904
0.0016049256231501392	0.007930525793155143	-0.005517873478101103
-0.002918825848394608	-0.009201244233598872	-0.007171376989396155
0.003739584120469666	0.006712358505136006	0.00954590255764314
0.005296857632096511	-0.004763380558648863	-0.007411080404428718
-0.0051256210062449355	0.007397046469625428	0.0002804046313715329
0.007026191612197157	-0.006058282801968112	0.0021033099951806543
-0.00942673814540454	-0.004960444672266461	-0.005436292956355079
0.009329293138213091	0.0032297256474545285	-0.0019333746544214058
-0.009906791677113478	-0.005485796221215394	-0.007847675054287061
-0.0023924017231131064	-0.0033259757740751357	-0.002347004517879189
-0.00597750771006089	-0.009801034206098921	0.004912779025556691
-0.001929625983330024	0.0018689001389143624	0.002134659725458026
0.005557113055490923	-0.0030999519354906694	-0.006008433921709647
-0.002834917544586894	-0.005425965168857126	-0.0013308924179401185
-0.0019302342189201002	0.007906740131861968	0.003961823930260816
0.0014009775992809368	-0.007077245837968494	0.005495160591828505
-0.0036523597500317754	0.0006420669172917635	0.00011807920972618964
0.0074628283785553445	-0.007324508681151759	-0.002203869742291557
-0.007088114265884583	-0.004149192908653312	0.008627101092403446
-0.007181945136494549	-0.008959655884081942	0.002879071779124715
0.006508021513870383	-0.008583791193434925	-0.005628147429373935
-0.0011271636693524038	0.0020777802551396676	0.0007086190526672583
0.00036319461817944064	-0.001647920606619802	-0.0037204767524653196
0.00018151666757481102	0.006664886199284981	-0.0011550774833113241
-0.0053304311349633895	-0.0022471332117977583	0.006679617879126364
0.0005745195297737014	-0.008147091067866707	0.0015819050887587276
-0.0039529749162130635	-0.006284700065999396	0.0036349916422639145
-0.006901544744637027	-0.0076352553240309	0.0077514047605640145
0.004057333742606448	0.006581456894091446	0.0050965319331307355
-0.006100814733927314	0.004101762689652138	0.007211594149516762
0.006773099999133196	-0.0057156913723156455	0.006293652003878656
-0.00045172628690976456	-0.00932048667504407	0.007937155151052831
-0.00034357710112044304	-0.006318313640317628	-0.004068404840968005
-0.006697645062960911	-0.0069192033747811285	0.005729894878946026
0.0031273958772789594	0.008302888339513455	-0.005897908476384692
0.008468786041286007	0.0012892568433837282	-0.007527508412686141
-0.008094735788427367	0.007099102564228744	-0.0002786350212618232
0.0039320044909193705	-0.007797365237750872	0.0065482550047204595
-0.0034045776807196722	0.002846955048821905	0.002763494512180581
-0.006170594010759749	-0.006026145195622732	0.009824539242607148
-0.0021229169846268634	0.009188202388330284	0.0019584168135042875
0.0027119173883459018	-0.0026244763748669974	0.0029037853014757756
0.009405286120214712	-0.006847906249100739	0.007175234820244847
-0.0038173612432553846	0.004067277228221993	0.001241973994426833
-0.004071531041099556	-0.005444540031331756	0.004473928753665953
0.004250985343983571	0.007702448875822504	-0.006506904369465244
-0.00955512071347673	0.001689371126083583	0.004689200238863992
0.00960449707097218	0.004255323872491721	-0.0036241057267854537
-0.0021987625337430722	0.0030059346588848165	-0.007250615357440631
0.008218121426591585	0.008879242797933437	0.009781901981708693
0.006484837637882917	0.007981607448040797	0.002867053972436199
-0.006622693274444597	0.0014239328093613429	-0.0035300565551367596
-0.002476068239012013	-0.0010963371808893445	-0.006100187617996347
-0.007022442866506556	-0.0024947965972256236	-0.0010945898084618513
-0.008385723248088188	0.00542341230131334	0.008676901010665847
0.0033076331430367794	0.0014374192077006315	0.006862257963572921
-0.004757316512860736	0.001048857372368617	0.00874224445077954
0.007560057981323183	-0.007802644603231622	-0.005497796401232609
0.0038001985068839977	0.003729578119044147	0.0002531142030164045
0.0083205877332628	0.006758979513754803	-0.007460573837518266
0.008139844155569806	-0.004188685223822304	-0.0036429029311906905
0.008639285692720145	-0.008056165875199842	-0.00792189665677578
-0.0017861577169024697	-0.003113914910382796	-0.009844556832210562
0.006663879167321458	-0.0027272784424423966	-0.006352907705634707
-0.0020551452311046263	-0.00573174215114596	-0.001957393557464023
-0.003315394330660493	0.0005707612343469008	-0.004224255774819507
-0.0015153332191545684	0.0016109065913816386	0.0017903704116593745
-0.0024419202102466606	-0.009075679297652002	-0.0005796656909020214
-0.0009006885221227567	0.007420256825335609	0.007016295026496677
0.0045985604484791946	0.00445307786957597	0.006759471525622755
0.00918704203223335	0.008633021578162023	0.007118836035403791
-0.005969428287988918	0.006392246772124206	0.007572148509195567
-0.007725483131931098	-0.006396465997050987	0.001554772835782297
0.0025646413949617017	0.005160559078868783	-0.008218692515391774
-0.001075690605927354	-0.006548791790614484	0.006843118196213313
0.00010566690772239283	-0.006264163867856153	0.006784140092498357
-0.004892244226993523	-0.0027803735740961674	0.004675757609291701
0.007203713884022588	0.001360026292460688	0.008529288612361964
0.009262492169662911	0.006136310257417019	0.008202506076538258
-5.7562307061371706e-05	-0.008765103213283817	0.005819961052775904
0.005009940246713699	-0.0018385369418822545	0.005651025412636245
0.004385604929096747	-0.00930304964494246	0.0023180676176170357
-0.00249812535961008	-0.007751953718499578	-0.007915960914378201
0.0023373708549494047	-0.0072782975847107655	-0.0063733893886878164
0.003204830212581793	-0.004820325853570321	-0.004397650111338584
0.0018158788777086193	-0.006059011301338929	-0.006545131396853322
-0.004760853165947798	-0.0015211602636733094	0.0011341883160699909
-0.0013781635570432726	-0.0035562762865117593	0.0011840961834989686
0.0035765648940264197	-0.0014112651387474286	0.0004779106811954991
0.007493366757153782	-0.004105386819703252	0.003662702828789756
-0.008340105452045023	-0.009071683439734636	0.008985921334154025
0.0037769156144520314	-0.007770749882191837	0.0076263409159827
-0.001099210352529953	-0.005760728437059666	0.005775527893875865
-0.009764227183963777	-0.0005790603342416146	-0.006355073750109165
0.007966362289483638	0.0001886167866676173	0.0053995190511894565
0.005784689041359668	0.007412524708831017	-0.009223095661299184
0.0029516529644070272	0.00917719429513405	-0.06930181330173904
-0.0065049385474496915	0.005761706652805591	0.0006994011066477051
0.0010973576582103666	-0.005964758436699592	-0.003778923778947476
0.00512765074110271	0.0024855905783865723	-0.006279126313572709
0.00480079879107957	0.00294668272902022	0.0027334207801728867
-0.009469127095877909	0.0051032540668772795	-0.0067950172608421434
-0.004268206618705618	0.008060726334436363	0.004446730527799229
-0.00014146998911457494	0.001312661521684768	-0.0030107888923724783
0.004596547253144685	0.006150117737436555	0.008373659825318082
-0.0011109822974212143	-0.0074226719883355545	-0.007446206859287896
0.009799542452046072	0.0069705268274799954	-0.009106177286809179
7.336345324053181e-05	-0.008431631568269779	-0.001057582913557618
-0.008267880961456803	-0.005073995831322413	0.004916319705404534
0.0021824417007110294	0.009138928460193693	-0.0036248859192227704
0.006888124215945368	-0.009936188804991593	0.006331374707736828
-0.005831225337058633	-0.008810042218422817	-0.0018015529981218192
0.009650455488567763	0.00048188659865260226	-0.006042752865166331
0.005760781356333717	0.009868713051104816	8.410258112356503e-06
0.007982833531509373	-0.002782078370526034	0.003464672619870556
-0.0067026986780573325	0.0013517422368408503	0.00529013731737051
0.0032723091366385713	0.008805228524448164	-0.002802507974306999
0.0055126380796416685	0.009476772320173545	0.007878635627434065
-0.004883875929191008	-0.00112703906773233	-0.0008801651746437374
0.008685533880183274	-0.000377663674567966	-0.006276228424888829
0.009189328446317918	-0.002234136550151358	-0.007380408889050541
0.004897861001118596	0.00530859930503786	0.001571981637361615
0.0001984332974624848	-0.008178334933159838	0.004913813699751473
0.006422613792388227	0.009027476204206488	-0.0048733747910806365
-0.006949463007885574	-0.009883019400834898	-0.008343336844658565
0.0015696925515891955	0.0019215098379709878	0.0075785728694543215
0.004444536204341751	-0.0006209500692160932	0.005089504576240467
-0.007707834284017832	0.006463820787182082	-0.0039599980642742345
-0.0017362318370962547	-0.008326565541972211	0.004561396120835549
0.00608409462520366	-0.005464161304592281	0.0029071067388065676
0.009444216064081076	-3.080291180939179e-05	0.003682208238733782
-0.004380482638218039	-0.0052109844874098366	-0.0005606490398979147
-0.009214353864778473	0.005607806641652313	-0.001283611213801536
-0.006973442421728603	-0.009595098191869555	0.001066970529969985
-0.008528187234895453	0.0005102200864018826	0.008485134304626912
0.0076357326345098155	0.007894732260051933	-0.008792379660434299
0.0022464796064599873	-0.004651473326841271	0.009743429385638875
0.003487324473230396	0.003929540699415651	0.002635717205558852
-0.009662996845228035	-0.007661283421264839	0.007116432716416477
0.007756447824187137	0.008142438059296658	0.0033672431437838848
-0.008416190480254014	-0.00889874646721281	-0.007758262757908252
-0.001264148218065607	0.008484006388325232	-0.006964840888889875
-0.009527444270822426	-0.007541279531144264	0.0034523798782877934
0.003591961528215497	-0.007835277546127518	-0.0074381529158139455
-0.005947838193758076	-0.0022072240148280162	0.004637799702149609
-0.00491357956880973	0.003224495152666337	-0.0015936623294141063
-0.00560411460123255	0.0053941033577759295	-0.006364566010528816
-0.0035731243682745016	0.0024761296078916507	-0.008393430000036312
0.0007793042476381285	0.005047596748585749	0.005244043047982979
0.0029284559704468183	-0.0051617458726754654	-0.0013194821722271304
0.005987781804619913	0.009219870712074802	0.007548225890279026
0.00015309354212749045	-0.005713407605393949	0.0016911375969349655
-0.0014390650051521615	0.003985092981666672	0.002956927866926945
0.001076328478538122	-0.0021615121296782395	-0.005647467775410683
0.008306769027488429	0.007858216891608538	0.009827499502261675
0.0007930433228210861	0.00689248041391571	-0.005374094167112124
-6.27910488918762e-05	0.004320632093161043	0.00020665303088577072
-0.005741973269231114	0.008772474472916162	0.006912567891358922
-0.00626708648554003	0.001165767366069317	0.008240841032634755
-0.0021522750422995826	0.007442460154885153	0.008025201687951558
0.0006093907325788323	0.0033907932982813263	-0.0017104646478181256
0.002951719239519892	-0.009400675318630912	0.005966099947770132
-0.00505728433682073	-0.00275173041714284	0.0014270650667633031
0.0002571908250404379	0.009620391753342117	0.0018703858600148601
-0.009547338417782889	-0.005117306303230519	0.008854441216408099
0.004481369079388555	0.0030653815169288494	-0.00830970400778825
-0.0001651895548458876	0.00773661963638749	0.0023137104865464542
-0.002648527629744995	-0.0030974372959153944	-0.009188239093649466
-0.008241708278874922	0.008900521511013483	-0.006890309712865048
0.0011761479560953234	-0.00122804390979658	-0.0022771314284917854
0.004876380483721427	0.009093780451091297	-0.005213868154858645
-0.004368916554374326	0.008362253760063706	0.0020676583800229714
0.0020007979961561544	0.004054281280169228	-0.00916884645899648
-0.007418950463327519	-0.009525398613339694	0.008343651864100651
0.006271718842323946	0.005216244790151385	0.006579201337645741
-0.0009361581528572072	-0.008564158074072528	-0.00028229318796845447
-0.004761925281442182	-0.0014807302606166424	-0.0028907440135921975
0.0022777014456178742	0.009303335892732207	0.005383394486337482
0.004360694944144745	-0.009519004614363096	0.007305316054617837
0.001491423581692795	-0.007388670575667701	0.003853811351386578
-0.0035052050844643304	-0.009257862335371953	-0.007578919397090286
0.0009663888903926315	0.0035847773542029213	0.0071306480365802855
0.0009994388149235749	-0.00788598641694344	0.0049185365284352325
-0.005490783031789332	-0.008894983653308182	-0.0035196607646219326
0.0006346641159288516	0.0060749512177947825	-0.009803053950628141
-0.006230515414880388	0.00942286619189637	-0.004301625359674049
-0.003943686623349594	-0.007810233599546882	0.0013294027366073883
0.0024449835249973993	-0.006033086243012967	-0.005500285652288342
-0.00025372356718299585	-0.007157938958007171	-0.0027166882762258843
-0.0024028414432393994	-0.004840517144748617	0.002310180000917955
0.006476405658763418	-0.0009072567420969607	-0.00022679863281140598
0.001038334650385166	-0.006426171556097307	-0.004440261338049376
-0.009621219534143424	0.001611601194382837	0.005769047702538513
0.006057982698854894	-0.00786691146992225	-0.00594039539494438
-0.004910096859678907	0.008148885590413513	0.004344599070088948
0.0011922971379598364	-0.0033213252525616088	-0.0006247602646187369
0.0034039918662898197	0.009722353000544663	0.007577388445234553
0.002369329903522281	-0.002622790413956409	0.004183809559863045
0.0023317195322989977	0.0007643257105649226	0.004185122396112977
0.0019355088208131317	-0.0010678457833224308	-0.00861179828051846
-0.008316345079271457	-0.006922303277840979	0.004593082615183666
-0.006830007280498656	-0.008471508209288168	-0.0016351798336007566
-0.001046045076101721	-0.0081342681155489	0.001759091471032306
-0.009598637179331022	0.006010421628822173	-0.008151797192648476
0.005103713549209415	-0.0053582691786136765	-0.003699988787002312
-0.007208258601686385	-0.006439575922280293	0.0037653909782027675
-0.0010978661573174259	0.004768277279275045	-0.00308069357798855
-0.0010271618654366169	-0.005816741200578587	0.0010629721737988752
-0.007572596844498894	0.007181479866849987	-0.009897441376723356
-0.007779629870948457	-0.0020689872176399334	-0.003762037418851942
0.005249987796870439	0.005595873330305135	-0.007467083898722034
-0.002978310491066064	0.000388854926002085	0.001622246263899679
0.001171509984671009	-0.0034517150752144798	-0.0018164830381235796
0.005578872968011952	-0.0014906554399776	0.00043931035241068575
0.0034647577738072914	-0.004277990518798928	-0.006313823566942305
0.009811973519409422	0.009148802578405639	-0.0074976741684098965
-0.007524703573418515	-0.006510335460004435	-0.002890558380588659
0.0007955483588963017	0.0053681880711395555	0.007590610118363046
0.0011613070177625816	-0.00999352654110148	0.0057314258665206695
-0.006634578175061159	-0.0055851692975643335	0.008796086243175986
0.0018795601878350242	0.00247269546098579	0.009975153929050977
-0.005220241688488513	-0.0051175070245303	0.005675491611310968
0.0007731679964465919	-0.009684400564431135	-0.0050821077948269774
0.0007337875568147398	-0.00033425714424267956	0.002101641011018793
0.000981442439878688	0.00017827066705157664	-0.0009001137649653386
-0.0021512879667018696	-0.005473776894363574	-0.006963080243970778
0.007971756506274477	0.005878651772007401	0.00021273158387814795
0.006770393723933513	0.0003546489027956932	0.002063223707907978
-0.008074393713861353	-0.0031410167592852995	-0.008600609084747655
0.006822188424501829	0.00036523501771349234	-0.006511443156340261
-0.0036227508185277067	0.006195219752298694	-0.005705532323968776
0.004650983905763847	-0.003106071394015173	-0.0065479542322491365
-0.005694645060681009	0.0037897434067798736	-0.000546574461805796
-0.0005119220207643917	0.0015146681371566786	-0.00941166508189225
-0.009052309053658412	-0.0026577331321469538	0.008734694880187103
-0.0016918555454287151	0.0004329869020192022	-0.006452638458614171
-0.00884075795953689	0.008546709667989674	-0.004926460495265938
0.007969497550111136	-0.0027318957725411533	0.005592260053664068
-0.004751126823950539	-0.004096205798940461	-0.00298578803155501
0.00807763532777064	0.00830845598670427	0.008256778284660366
0.0026690501318707913	-0.007861464270782435	-0.0030349413725272896
-0.000887751690016687	0.003678797325395864	0.009915906758930398
-0.00563456504221118	-0.005005902956524566	0.0065334355585589775
0.005880224669365009	-0.0005092487272560769	0.008384120058410686
-0.006794084279517535	-0.0095123435962528	-0.007057483696992117
0.0037420587203550702	-0.0037456848081579616	0.0017162643698862053
0.0038403998635318046	0.0090795970404684	0.0021306405805805034
-0.00612542464762059	-0.004128224327159083	-0.005719650107287625
0.007472213655313718	0.007309246814459713	0.00821503482597329
-0.002977838294716567	0.004936647918243373	-0.004941838113659159
0.0007968941046336067	0.0001834106256861836	-0.005343988626110125
-0.0003036466171572657	-0.005272133261634266	0.0031040806605891775
0.003983280721287435	-0.009373236948674169	0.006533736627265401
-0.004568834779972735	0.007354195894719966	-0.006499504388529106
-0.0026804435143627427	-0.002861073605531653	0.0054291391932577565
0.006602905428238036	-0.007345232951754505	0.005030041524684571
0.003664793580064697	-0.006470449715053823	0.001423209343707526
-0.0096561342133227	-0.008699731872500166	0.007311514736969784
0.002176110789449695	0.005165002601072357	-0.0050254627690578275
0.0011557978457116015	-0.002664807240546031	-0.006707723193897236
-0.002676333061794064	-0.006776549152832817	0.007483121797322344
-0.0011010592768230555	0.003924011563225117	0.002614070633488468
-0.007455172803063726	0.0028778245937176594	-0.0018429834409487925
0.004871595987554175	0.009612158796518581	-0.003244106560352761
0.009233526584473337	-0.0016509416357016176	0.007449039665848237
-0.006812742443254322	-0.008007133753637609	0.0035718578660925617
-0.008401378952853766	-0.008795339776079138	-0.007910888448732995
-0.006169583185660852	-0.006043172285527308	-0.003553160417770467
-0.0019663830142236053	0.0054925348407176815	0.001246487841234335
-0.008375873796926161	0.008192155567068288	0.002526465586541418
-0.008599032997526916	0.009585986054453545	-0.0011137387876961162
0.0075024536553633964	0.000441928964153104	0.005616666108542662
0.006882109689965188	0.0012619507886316769	0.00903356791106233
0.008562880820041606	-0.008730824599255324	-0.008027942065828509
-0.0030482329948314244	0.008801168047065757	0.0013427587759400547
-0.0076085338689679555	0.009484766708207259	0.006938803504627293
-0.0036740473799375473	-0.007101872435469461	-0.004624899303692953
0.004487206670537699	-0.009038073852507596	-0.0027005398726700092
-0.005905312887299948	0.0077281737310863265	-0.006562817877431121
0.0084734240716583	-5.134170882137648e-05	0.0007279918624284419
-0.0076746437859247976	-0.0025194567445549747	-0.009837052292514145
-0.00850283413958184	-0.0042430381217094075	0.008487807308611605
0.009693012199192453	0.0023282931280233614	-0.008860433503564488
-0.005450576237617409	0.008275397895514694	0.0047529483087311395
-0.0017447120507171308	-0.005013409593520054	-0.0023379536022851456
0.00494556861006706	-0.0032720899734766645	-0.0069772218882345
-0.005883429462038115	-0.003575853925531572	-0.0006954257721056081
-0.009889044743994078	-0.006495599686615488	-0.0021423280013229493
6.783207033059409e-05	0.00452544526957852	-0.008892227406169066
0.0028384853285342657	-0.006476637096565143	-0.005765913418068928
-0.004433997807844231	0.009735509707214455	-0.004534164474920589
0.0038171163623683287	0.0004903887258504384	0.008168703278432712
-0.002071586581908102	-0.0026345434952333747	0.009503166960734583
0.0008465920728445171	-0.006213924250563518	0.009371835550308662
-0.0013932648474563637	-0.003525399745991392	0.00538818208941268
0.008910391664413642	0.007535772551699909	-0.007507491395429071
-0.0019636539060919195	0.0005609059927207203	0.00011971996575101292
0.009945521218637945	0.0064448021014565215	-0.0029413977667422046
-0.0003504126410414643	0.008987633089455329	0.004937862746929313
0.007343070583014106	0.006480829974935747	0.0005758229994866412
-0.002633638120636486	0.010035742519849355	-0.005296609193677375
-0.004748448074126275	-0.004240854828076589	0.007205627033523747
-0.008961162065212159	0.0052947971874427735	-0.0008093793330578997
0.008402999409010778	0.00716299865046246	0.003866082079620997
-0.007155098502659539	0.009275399288373211	-0.0004866556429962282
0.003248637928941372	0.00905341698951085	0.0098888959627551
-0.00852500260017604	-0.004884298897322708	0.009000206825474585
-0.002819591175740937	0.004252597289142464	0.0029197637931750817
-0.0017739537517136583	0.0043046279718608315	-0.0031060517854324832
-0.0026953881923743074	0.0030738229053936823	-0.006024627110988183
0.0021760213997812465	0.006698513178241581	0.0017845333433489062
-0.008410478762594237	0.002675849701774091	-0.006366040090107484
-0.0033480864716998373	0.0025995038382194587	0.005745760173021964
0.0028201245369775876	-0.0037725928014770062	0.0027593872452050493
-0.0008615713748110296	0.0029243901852440742	-0.008342737533804243
-0.0025967159669145305	0.004523260379968471	0.007460982083624184
0.0039030124653020495	0.0027692315541252236	0.0026815977088554196
0.009844071607411025	-0.006400328301757593	0.004047088350686659
-0.0024035910815143283	0.005238732045652172	0.009261553604867764
-0.0033828827401228626	0.0026134901391330085	0.0004354681051224694
-0.0027425315768473107	-0.004212325965911774	0.005413741400471357
-0.00042671381199076847	0.008642033528950481	0.0004436329839071756
0.005802461167058889	-0.0010289627881237204	-0.005578323897677354
-0.0014962139254155408	-0.004774956392792122	0.003301867101256425
0.006276232035667625	0.0026896355967294897	0.009390637751143108
-0.00236037329122424	0.003508857142025904	-0.006627614281197413
-0.004644919362030025	-0.008312182827261162	0.00531319020208432
0.009867294544767882	0.0006679345702237313	0.0040366427176133386
0.002581072954661135	-0.00015815318859342502	-0.005469965575570069
0.006184346967649204	-0.009606002061166755	0.0072722282716930955
0.0026581911666907505	-0.006214672198181687	-0.0039596548624251625
0.001145639710966713	-0.003888341053154564	-0.005212575870555481
-0.006017259681820415	0.001230674903476444	0.007857208619310496
0.007335824015843335	0.0005245750498295478	0.0029846663750587848
0.004237563407111039	0.0038018723406162223	-0.001281743505481936
-0.009098699752748804	0.0023069424772856582	-0.0015011762184256108
0.0008205846825098308	0.007122066950395972	-0.009704466422012387
-0.00225566242782879	0.007180417032096724	0.002680470242900612
-0.0049256371019662255	-0.008470598183295359	-0.0038382795699377793
-0.0066744664299288	0.00501483665922664	-0.002448544471913474
-0.009619333134699036	0.006424432439860992	-9.857501888298897e-05
0.003328817634942088	-0.00548638228818232	-0.006764718587069157
0.008070084418263805	-0.0013655271549344837	0.0037088366951578827
0.0037036101609358857	0.002042657404433112	0.0060285691628710735
0.0031173120672392408	0.008662555240919646	-0.008645743133189634
0.008874226558703152	0.006581062070173626	0.005165736807368442
-0.008246851534682296	-0.007737471614424089	-0.0076174443787777055
-0.007680469746571137	0.0016429650934632351	0.002856421086232113
-0.006391312319848354	0.004622751326326002	0.004010150097642554
0.00556293215507472	0.00916035007074779	-0.0031026756921003745
0.008708963074968854	0.0073214150141211395	-0.008277753925593647
0.005181027096063058	0.002877486352676488	0.007779600161350523
0.009131623685638501	-0.0010702145486593574	0.007493379745268128
0.0034035551102571046	0.0019023426393149235	-0.0054368382315606294
0.00949526977974584	0.004608399207787267	-0.006111231544129002
0.0036387883079206616	-0.005362808357782198	-0.005565154637488806
0.008561643129888214	0.0006869760817007995	0.0008589649218043102
-0.0019144316672681308	-0.0012509666501983301	0.005780025569842017
-0.008255500909515575	0.00032863912991388904	-0.006388566581256184
0.0022591923299753788	0.003179412024132579	0.007296423699849532
0.00206352729603646	0.008961852490092346	0.004597662278574582
-0.009426261592630963	-0.007624640226321587	-0.006370819435219201
-0.0015893291036646329	-0.0042403516556093705	-0.006952351362112958
0.0071910367825221595	-0.0008409700276383273	-0.0033435602007033747
0.007957967968644038	-0.006151101715705327	0.0064589255533209
0.00077502407748763	-0.008910503300614676	-0.009509281414625634
0.008319415306942878	0.007272519404247531	0.006389358191283723
0.0005815524767676678	0.008767763530989481	-0.0082452032750281
0.0026047732671424864	-0.010400516875816392	0.000674276305929632
-0.003077556036662942	-0.007195178814674668	-0.009799266577228623
0.0027991716401584103	0.001126459751943809	0.0069881069840265105
-0.0015032601929907269	-0.004980661357067167	-0.0011690579434744872
-0.008686867079573522	0.0016089466544443095	0.002719906960986236
-0.006846891450569997	0.0035256237829689556	-0.005130882311750091
0.006892972243934323	0.00444573298595612	0.0013945626166065647
0.00694103667239657	-0.0044129913855139955	0.0001694265958431026
-0.0023393129944674802	-0.0010383775730876989	0.0029186827575421737
-0.0032611939936721505	0.008879754016053044	0.0009126088093875748
0.006796689625365553	0.006823493293110855	-0.00034913003738196516
0.010020072669368604	-0.007837530831949775	-0.006024229502458135
-0.003320773512556984	0.005799320627850083	0.007427863258673808
0.00556807326958465	0.003821980386396681	0.001250187954695144
-0.007938593051584083	0.009507512643081388	0.0004839300881402681
-0.00020406352902589513	0.005834086265619265	-0.009563662225153846
0.0054299790791255695	0.006389759022301917	0.005324425182926425
-0.004057042297642715	0.005952114680045457	-0.0076237159175948435
0.008947555123652784	-0.009920827365747882	-0.0030358093216616942
-0.005809197935776115	-0.004450808583482173	0.0036462631769783767
0.0017976391333363786	-0.00200544951396958	-0.006766250025023837
-0.0066294826994955525	-0.007420400840478373	0.0066606675460970065
0.006962753349837628	-0.0031577286624037155	0.009700914038539437
0.0005058031780557654	0.0030651177679084218	-0.001754955663244226
0.009613884860993835	0.007935644209389907	0.0024185645547489844
0.007183325336617164	-0.0010352907100296006	-0.007716706916179225
-0.0077459301233652154	-7.505057219877806e-05	0.0007688270133166131
0.009833829974295634	-0.00573456589627282	0.002071531012915394
0.008549344402887295	-0.006792621956277129	-0.004493634249319157
0.003912060319107226	-0.001362402502519346	0.008000105926325605
-0.008761085892186517	0.003254148881096621	0.0011027716535333375
0.0010229792844107521	0.00933017304273821	-0.0022679501364568384
0.006839077528074734	0.003156529592266106	0.0054285381101541914
-0.004956762739748528	0.007057021333780661	0.005595576445500225
-0.0013968405396869686	0.0028648111664392618	0.006628721432092324
0.009268822579524742	-0.000822233098376448	-0.0027690980869159356
-0.007200781139218251	-0.010087406611300668	0.00402503614794383
0.009716656965717583	-0.00566025496531589	-0.0004748762432351967
0.0027915655613299922	0.0024934978862067355	-0.007919690674461476
-0.002992759924876914	-0.007800653981009473	0.00069672165386068
-0.00375600961350212	0.0033096733039718503	0.005251526374555638
-0.0001746600873115886	0.008327779557471594	-0.004896756353327926
0.0031973865359681587	0.006909722047530873	0.00921041388437858
0.004655678345960172	0.003503156354931992	0.009738149361256913
0.005489712529390175	0.0008901847754894995	-0.007717442813033696
-0.00899840560245614	-0.00784871258292369	-0.005975402589491616
0.005791269301325633	-0.0033911136009844786	-0.0007052979912591916
-0.003221279354535714	0.0013214271286515651	0.003660355101154497
0.010112069919096243	0.0023992072801066675	-0.003146049923126115
0.007106293626319395	-0.005438402682322213	0.009406220525062892
0.008868852714824712	0.00275861158621429	0.0049385627860523695
-0.00407395770260701	0.001481019318835361	0.0014547197503894105
0.002740145601568206	-0.0018154349516830166	-0.0037742783033766734
-0.006852005656496652	-0.007928212782430787	-0.006511813343561377
-0.0055802538890590975	0.0029044405516848327	-0.002872154534046578
0.004067615986142499	-0.007525917754400728	0.007625113669196307
-0.00043044867574708497	-0.007877173162886582	-0.0006954468253146922
0.008065632633926357	-0.0019688627876740077	-0.000674117938945647
-0.0017671818832334686	0.0006727614113016291	-0.0036273024292697766
-0.006707823181315433	-0.0037079285077509794	0.009421393110499308
-0.004762895987509199	-0.0005774999775644604	0.005367086226530246
-0.0024806687728607998	-0.0014396452154473004	-0.003124839852562452
-0.007039556243738752	0.0054627843648358924	-0.001600610741916109
-0.0025624342561868223	0.00895801573954266	-0.00930210437739872
-0.009416040805029065	-0.0028000813669150203	-0.0077767541087016955
-0.0017794619606323805	-0.001045817149241405	-0.0009462661674033736
0.005867506535212962	-0.005070832596159565	0.0056375301662459285
0.004710871512920534	0.003550271026194568	-0.008362494005356779
-0.008482470115311365	0.007216008865344445	0.0014101157951031448
-0.004634632317606252	-0.003606231083389635	0.003944889047064498
-0.008000619510370396	-0.0018612701214534982	0.002149555287878264
0.003794771874198171	0.0024770547393287573	5.609032650609122e-05
-0.004786068163257214	-0.009101473712585371	-0.00913317723490793
0.009922516616492143	0.004263669515769265	-0.004751052560252315
-0.007934135394869295	-0.005823440277082431	-0.007660793217693961
0.007911263938486627	-0.00461661480199582	-0.008290270730781212
-0.007267915499651716	0.0024639126278759287	-0.008636712660375726
-0.006272171021279685	-0.0045235107838327605	-0.0034711475440727148
-0.00044916873344048175	-0.002411014347234763	-0.009527447423571318
-0.004771652221050759	0.002645757090560313	-0.004204469774276978
-0.0038415167057146062	0.004656556648109746	-0.004354396813170977
0.00844124451043613	0.008970826327164427	0.00838018834791645
0.005449877248417988	-0.009618834151611298	0.002907394011215472
-0.0027883057172134428	-0.00030515013357334565	-0.001408501224380694
-0.008665691804582825	1.8209877531536953e-05	0.0032869504313351137
0.0007038899258336936	0.0033351421623678944	-0.004648068846648746
0.005531309975840075	0.006834977673297842	0.00044773956343700967
0.003000801848625301	-0.0025641408783461626	-0.0007459267019134987
-0.007417987547099316	0.0019194841022374901	-0.008123274725053418
-0.002929529780762937	0.007425732889158439	0.007840042540060361
0.00025376290097465885	-0.0005192361921371198	0.0049289726971986705
0.005167113309752646	0.0014377532509002276	0.008307634810893506
0.004008042995194869	-0.008428593382297825	-0.007928007081381045
-0.0018600025710487095	0.0028563976109074896	0.0049623752207765305
-0.00567578862280336	-0.0009417710865462676	0.007836600444935917
0.0008373216518759528	-0.0015600528590057356	0.00495821917792978
0.007042350220237364	-0.006957938543420818	-0.0003911504592499192
-0.0074252003753275155	0.0042802376057893745	0.008523350534559247
0.007849594489090438	-0.005651689335047547	0.009766346211233325
-0.002975153713332415	-0.008570727690057449	0.008949213359215027
-0.0015983324543405921	0.0019603396789751454	-0.010197462789027324
0.006434766024283814	-0.0003955280335774993	0.0017817123450931827
-0.009041589695168111	0.002180860869770835	0.003841141536327723
-0.0037039676901643153	0.007156641574205055	-0.001622143371220134
0.009718866910610836	-0.007126071403744463	0.005501690084401002
-0.005380857642764639	0.0018334314566441478	-0.006982765895298082
-0.006155053608583098	0.005783290990322711	0.007334339009439804
0.007242605584774001	-0.008632385921082945	-0.0022407725826357593
0.009729392743310557	-0.007379610961458897	-0.003928422278467757
0.009722832236314854	0.0010197275062333953	-0.008536179519508408
0.001955920048067274	-0.004614772260487662	0.0010361594734675812
0.00851213407846497	0.007748520767153497	-0.008226492799858156
0.006931854850952171	-0.009881195875753925	0.003058189762753693
-0.00420006633914188	0.0033105043312599575	-0.00845502306832589
-0.0022093882233749787	-0.004055195808892012	0.00802390318652002
0.001575096762885992	-0.0069316817197203305	-0.0035388991242230362
0.009876633204312951	0.003756771218999406	-0.006038831954490127
0.008248532335819047	0.009999884460792072	0.008213789330286537
-0.004268897440430372	-0.007818061775383455	0.0042908030393489765
0.004934172394673858	0.005268058036315123	-0.005045778182909846
0.0005323112162872283	0.002635597040668094	0.0027211600184405948
-0.002386815133839735	-0.004161251161855294	-0.005426842144886883
0.006714382687035872	0.005561162614940818	-0.008693825036053036
-0.0015694052462262142	0.009183628352460813	-0.009201131336269047
0.006916788471461446	0.006901189102267696	-0.0006932669415357189
0.0029670971657633997	-0.0026061087442580035	-0.004248470453854536
-0.006987182562267854	0.003581959137906725	-0.007769013245891182
-0.008940797006964415	-0.005633246158875014	-0.005511103284401731
-0.0014514901730124721	0.009074255711371585	-0.018293429380784196
0.008193944669898982	0.002377871097978974	0.0012179247965443066
-0.0020845077845304105	-0.009695324924783841	-0.009321940880753082
-0.0007615432184535399	0.002622678114204498	0.0016255714502139574
-0.0010455241773135067	-0.009551629319973238	0.006660748975664384
-0.0021193552849273455	-0.00847218154757863	0.006964145702436043
-0.008737045651814273	-0.0031369246047356133	0.0077505600830821385
0.006063254172039418	0.0013688954773627606	-0.006971944710105581
-0.0022705638664908406	-0.0046063838720251	0.009732847766909438
-0.0007864298687978877	-0.006955224137869661	0.005565191269934164
-0.004202235967468335	0.008814845943353734	0.005462673634806204
-0.0005531856672452429	0.0003828511429811946	0.006084310259618291
-0.006872201689485031	-0.008569019391609712	-0.006906810854744608
0.0014848944520705343	-0.007796094599050446	-0.006047017192965461
-0.003511931715670151	-0.001231632428224938	-0.0017904043689033547
-0.00648043164968769	0.007419394426104628	-0.003034340025323351
-0.006435282444185415	-0.005336917566483213	0.009685399197472333
0.008476203679260847	0.0009038406010909855	0.001929455810070032
0.008736429972834836	0.0067192464068908594	-0.009620365125610597
-0.004951484190804661	0.0008475467424708741	0.0068709494482397816
0.005342165924162166	-2.934722192637386e-05	0.002060996718672641
0.009772028184094717	0.0050805227501037505	0.0028972336684668226
0.004524919261767098	-0.0066832219924876785	-0.0018453160106608139
-0.002814150485197616	-0.0025479658481609383	0.00021730606977573945
0.003006423946128668	-0.00913453803880407	-0.0032977365482811903
-0.009829094064020643	0.0010700596933904665	-0.003304475901960466
-0.007477731216815392	0.0006791911811582091	-0.0026563302597757965
0.007776992047822387	-0.000609302481077963	0.004102131536641048
0.004713868331056914	0.003969531346709134	-0.009709697085283686
0.0017907462138142087	0.00666550038792443	0.0045476866524796575
-0.0037602145814030225	0.007083091215228682	0.006909588623343434
-0.002136694282408714	-0.0016296888331273351	0.008640230504430774
-0.00347679196790638	-0.0026865393678946	-0.009432060489177352
-0.006742769279097316	0.005017337669071826	0.009920152070789976
-0.004131446007525907	0.00569489185644491	0.00038041067808382636
0.005373790024735002	-0.0025105856964047317	-0.001439532255869163
-0.0022521270264077506	-0.0013919031357046124	-0.006022295940149417
0.007473830861467752	0.004914756335550047	-0.007290769878993273
-0.0053717160724570095	-0.006575156166832208	0.0029287873491348343
-0.0027625361679256832	0.008417645544509684	-0.005779780728378984
0.004582834405135221	0.0025893089718954983	0.002136283108914382
0.009589445281113248	0.0009855388490806437	-0.008672034336168892
-0.003413505042946281	0.0003821693459327615	-0.007381743655755207
0.0014743486769157356	0.00845038674757445	0.0011686011488927835
-0.007485595091845931	0.0089983765913398	0.007194288618281135
0.0034054268359092355	-0.003667796407196262	0.007483073072768631
-0.002035173336266795	0.005919001629756037	0.0027061357665144
0.005220013729537756	0.007604872291608663	-0.0022058579550467104
0.0025824482046323417	0.0060864645701331765	0.005717581011819291
0.00740394587464077	0.0024992232588426488	-0.003901265071462365
-0.0019620599303526946	-0.008912826065231085	-0.0051660307270077355
0.0022644663063942586	0.005101980705007992	-0.0023625562642456757
-0.005939052927784657	-0.0002342556679516914	0.00954271087798125
0.0015986383156768418	-0.005986037883023532	0.009726184299921534
-0.0006213161533106474	0.0023260712586943497	-0.004398785302368981
0.008139196557505186	-0.001650920665241161	0.00040990816292786267
-0.0014066836116621954	0.004869702879636454	0.0024650027851628453
-0.00050584051444761	-0.009284298569620281	-0.0006860724588004033
-0.0042092657458429154	-0.0019037399878863975	0.0036115788474428163
-0.002179644882679712	0.002240672311288895	-0.004290090282125564
-0.007768542766472519	0.007400026350085678	-0.0010504137989300957
0.008303420178477438	-0.007234657656510848	-0.007998283160917856
-0.0014712562344830152	-0.002551416790204538	-4.594204990496578e-05
-0.006574941838120633	0.0014671056938588903	0.006503044957951277
0.007393525938274841	0.0076502586646642525	-0.008549216337650132
0.009542036388238733	0.005120620027850742	0.002598675943100653
-0.0019388873435677613	0.005555065620960498	-0.008076866200011346
0.009226532758225872	0.005755675407571114	-0.003489046250464513
0.006333321627587473	0.0063837209188090365	0.0015096385627938937
0.008871897302942718	0.0025706173199593653	-0.001134287996328821
0.009306527490756486	0.008721666434675803	-0.009351050038582717
-0.0060375273586073825	0.0012737572029361387	0.0028944744770908835
0.0027924077620721556	0.005816784303713275	0.008149252057802293
0.0071913356456699395	-0.007162619145156974	-0.001409537745087697
-0.0021776479432752648	-0.005867871619278922	0.0072935960577517455
-0.009724223406602443	-0.008699134998556624	-0.008725671247683659
0.000614936573797055	-0.0042125658572847845	0.0013767606531610334
-0.005531971912386262	-0.005968329536542676	-0.006503775914677759
0.0005112246277693966	-0.006482557362204006	0.004411037872762992
0.0014441393059012927	-0.0059833502533888465	0.0048659595160642985
0.0011163891682103664	0.009742971972444078	0.002386434712405657
-0.0025041848799421448	0.007636229495007611	0.007366662755662003
-0.0052824026375243045	0.0005957345902457278	-0.00842638256435371
0.008736413566487593	-0.007052141756643794	-0.009543323579253929
-0.000747329751426825	0.00436987594467843	0.0033574805613420747
-0.0074051380492230374	0.002203363911382478	-0.0010441351433422407
-0.0027692943401927614	0.00034803495101482125	-0.0002292990592442437
-0.0004957208891547254	0.007993049708013346	-0.0070536377278002625
-0.07115017769998433	0.006263448620164053	0.011608994062735122
-1.3991886205644982e-05	0.00929006846735524	0.002996199400411074
-0.0034835549264061495	-0.003291336381067444	0.004413507351382053
0.008690678283708963	0.0024803384942262124	-0.008989284676131597
-0.004764218140759847	0.00034221006212176684	-0.007705948439026741
-0.006121408075656932	0.0022788342602735098	-0.009011298471735546
-0.0003496398942852384	-0.00516150257005216	0.004222825006370999
-0.005972830234455282	0.0052751390357599175	-0.0005939865367797694
0.00850371802776273	0.007192800613785173	-0.009262967551948206
0.009475745300995557	-0.0014795445887458066	-0.009119475096971398
-0.0033685659871224953	-0.006330038934886857	-0.001899020965176603
-0.003168515210806206	-0.009410361984533126	0.0049212500428546455
-0.0025357539880735674	0.005214876989285308	0.006130019198689369
0.0018686918987223869	-0.006789759192734212	-0.0027851405846271906
-0.008850519172922369	0.0025012246324714466	0.006752194904195145
-0.0040367441729678155	-0.009109712092463841	0.00044889793979777624
0.007588949059748544	-0.009149780036977	-0.0003930533629858974
0.002583289183217253	-0.0048499629383135755	0.0017628258145885745
0.008424996946482514	2.6194472893550924e-05	-0.007595231788429187
0.00040785624708471885	0.0007758556745378273	0.010043727172722096
-0.004381257438171773	0.006022385825696549	-0.004807505211854917
0.005867526435428394	-0.009111942148885154	-0.0017983472182608335
-0.008557021307824729	-0.0012924842476826747	-0.009096637321587839
-0.004761268137427388	-0.002227194402251595	-0.0029992237746502715
-0.0026758755506113563	-0.0011743775282016585	0.009399336056390543
-0.006072216318809208	-0.0028794587383545126	-0.002557519719749119
-0.008592526029254267	-0.003763069214214423	0.009358972168615348
0.0047075050723886305	-0.009472431699157485	-0.004490338003176716
-0.0005758597524998608	0.006216540295749947	-0.006632009411537781
0.009523729764391921	-0.008690894658064387	-2.9305144039797754e-05
0.002959640636495729	0.006193170829722988	0.0073764279462429794
0.0034564712549188404	-0.008388419829382834	-0.003986042844762642
0.003284508628708358	-0.0019350289731492418	0.007541450601792074
0.004854848774576754	0.00678321513807153	-0.008063016885419062
0.0016423865471440532	-0.006765252039261319	0.005449553588088546
0.010025312898983766	-0.0006752386466419482	0.0004037534402649128
0.0032251083945398756	0.0024810347264632715	-0.004918760808384418
0.00598236271083492	-0.0036718184588759827	-0.007249013697306186
-0.004270794813266594	0.009070794458222876	0.00828574833986448
-0.0018052178051206364	0.004390287527022134	-0.009825008420603574
-0.009901153795986448	0.004081915876823095	-0.0026497740609196015
0.006146290613894769	-0.005019953216605	0.007946988060185267
0.004777281880587354	-0.00732828021302067	-0.0008148785177503996
-0.00326560740800437	0.0017273785654553595	0.006190632107753134
0.009561127340452658	0.004997181298427741	0.009461352682881891
-0.008203093444996439	-0.007755161768009068	-0.007923824606702552
0.0029286425674120552	-0.007845823646644386	-0.0028367258882150102
0.0020347567721387076	-0.00797077179768228	0.0027569220713349555
-0.00956669232114908	0.009420290560121338	0.00508052243941319
0.00878215095898556	-0.0007536161502253672	-0.003823852794703911
-0.005600369401662685	0.007382651381106092	-0.006581751419166377
-0.007920695343586696	-0.0008745706202484427	0.0032041421497459935
0.0056153066594016535	-0.009455686891755792	-0.006373286619541452
-0.002331854375528764	0.009931811295065032	-0.006188547031920708
-0.003835739912432537	-0.00968213152028843	-0.002789864823748163
0.0034058871362130684	-0.004485860084588738	0.006028557369037969
-0.0016628650727089044	-0.005059686496332887	0.00178255573416582
0.006973446264860187	-0.008618020492339925	0.0013528300536125148
0.004743888502961986	-0.002263989231731543	-0.00497676104990012
0.003728976603463441	0.00967481495149284	-0.0021517735818331243
-0.009476719688073662	0.0010157905146845076	0.0010273420733575862
-0.008165866191868957	0.00188143873409298	0.007553570716729189
-0.00896200833762986	0.0024199796379609697	0.00764418402249822
-0.00014105330332966903	-0.0015453474660674128	0.0082875015856014
-0.006156687846282148	-0.007838365742594406	-0.003143380002767371
-0.007118276930971305	0.004670865249365046	-0.005515140733661179
0.0009359272523906444	-0.003074065628107388	-0.000498779068317929
0.006887925038708132	0.007815615023475284	-0.008612793259816483
-0.00883577190277519	-0.0012271788803094857	0.003954594821101307
0.0021849825290789614	0.004395994015625583	0.006469368391185359
0.0023675891938807394	-0.0029598237868780648	-0.0006562316723116735
-0.006971055310302003	0.007609015869772995	-0.00283125628715024
-0.007921865898384384	0.008296887681808272	-0.002170996511672638
-0.005782732412839133	-0.005265484731838061	-0.005572700419464508
0.008425713081655663	0.007468348871323485	-0.007011646316614474
0.00019407455609903902	-0.0031621034366031663	0.005124802761258998
0.005134205792779553	0.001543125654300613	-0.009194643259435236
0.0013524414492397923	0.009055710142190879	-0.0059506583216091345
0.0033910271869895016	-0.0023482035458249582	0.006708620679030499
0.009767906271579571	-0.002835438478373865	-0.0038090868215940096
-0.003142090307256446	-0.00088487905004901	0.004638146987330255
0.004402286008656987	-0.0072352219786268185	-0.004961583925331536
0.0037643558958877898	-0.0005138549179475229	0.00012796065487237496
-0.00613571494797183	-0.004509036456707751	-0.006087774529451312
0.002446308325390143	0.005794505055440222	-0.004521895955095447
0.0021649006679581115	0.002711851582495744	0.002114722389911535
-0.006295271240050172	0.0014493706159255486	-0.005854189269843335
-0.008189454058711366	0.0048518494256812005	0.0021713907172974077
-0.002971541074663013	0.007642984208998645	0.005340333127725937
-0.001404613965942804	-0.00495319094425575	-0.007389595061566728
-0.007737698723812105	0.001486222891636144	8.874659111920459e-05
0.008738241304552932	-0.0036495219730785927	-0.006754304645313744
0.005270249391042946	0.0006647912210240234	0.005797542366666822
0.005919162366984761	-0.006713433812321153	0.0008953037711952518
-0.005246273609456335	0.008873861045596333	-0.006780082274081715
-0.005729870801345793	0.0005664595917492798	0.0005041664303424148
-0.008424791952627759	-0.009012847645827632	-0.002626460816695377
0.006966521949513761	0.0035991199165159443	-0.009740175434311658
-0.004347938355359342	0.002724836690168639	0.005593741826815773
0.007724513650720199	-0.008065754469661943	-0.006006660324671035
-0.008156952711539238	0.0012483496315525786	0.004679002845369158
4.837699784411044e-05	-0.009490740195893204	-0.004018690649932502
0.003969380734999882	0.0059613760683625075	0.009186428176272923
-0.0010660508612049518	0.009026686169598041	0.005797971761560274
0.009790206275541535	0.0048584927344335945	-0.008121366231529255
-0.00834829788088863	0.003244134446244693	-0.008026481614818174
-0.0009622052940165479	0.0011310331202048635	0.0038871664038723584
0.0002587179794236137	-0.0010349324930591635	0.002005013246725442
-0.007412302508580012	-0.0003941893420726147	0.006116827312414759
3.785026279760732e-05	0.00942476581078462	0.004271500261729382
0.005825633888572624	-0.0045751234533732005	-0.00972166295227336
0.005673386838341444	-0.007730437601754235	-0.008014097089043543
0.001597449333009907	0.0016485076155108545	0.006580083241322077
-0.004457281851396506	0.009204734267374197	0.006441534061417391
0.0076466940705396825	-0.0068506889183626955	-0.008495500880332608
-0.007889041989920752	-0.0010199621688355125	0.0016968370595335548
-0.000583573331772393	-0.0015184550705349444	0.002107981844427549
0.00030719218559871996	-0.0071490416022708635	0.0068447662976909105
0.0032154319420346217	-0.00026826011494207255	-0.009072847409708063
-0.0013407565553307122	-0.008747728722888762	-0.0016591014751028612
-0.008721815906023798	0.0023161041589346088	-0.008270314832500427
-0.006537815439272902	-0.001649982679129634	-0.007416876997575848
-0.005799656350377106	-0.007081245187672327	-0.0022883477582751593
0.003128339957092009	-0.006751011907694416	0.0020647180916523733
-0.006603533407177547	0.0028598085750503356	0.002857198132941217
0.008927885104936547	-0.0039160417966241715	0.008925364704338088
0.0044912951709747025	0.0068286068752905806	-0.0013398584652418513
0.009997404733546702	-0.009640296514894817	-0.0043256488950733744
0.00633600071112536	-0.001500723167827055	-0.004045270492609481
-0.008287853450418235	0.004733841912961546	-0.0008076162482829677
0.0007315722735097459	-0.001977044483372473	0.007962278792207102
-0.0009778364334871864	0.007840870684739482	-0.008299194123247913
-0.009435744581455003	-0.003813845078847026	0.007175253333002394
0.003500384672034215	-0.00465867321647747	0.00906967801965588
0.0007443095238158139	0.004668613300395353	-0.00673342544551901
0.0063743738929887325	0.0064266561417260695	0.009285695306856797
0.008159855994931086	-0.009616223475287056	0.003609364908699661
0.003534894121071136	0.006211349907560802	0.009799585211834808
-0.009591404198475298	-0.009410207871951693	-0.0030186554971083487
0.005300721912759888	-0.006000597000146841	-0.003585831830153794
-0.0035940852693126767	7.753421160291811e-05	-0.003007975308907517
0.004638830546762557	-0.0001718805968984726	-0.0015230925320236979
0.002310681766310472	0.009050356072028889	-0.004237324480486284
0.009116588074962847	0.009689901143214122	0.0014887084605233504
0.0066305531401270185	0.004933790866434017	0.007298351865158436
-0.006903043353608956	0.0014360898360323664	0.00195921183181187
-0.005698448578679793	-0.001980272782580346	-0.007457670665865239
0.0040754789783898696	0.0067749610145277014	-0.006995926260447078
0.008892321635343547	0.001345614429896955	0.0067704909380450155
0.0003703078219867359	0.00790979805964953	-0.008562109011769759
-0.0024581386214309227	7.3900591328196485e-06	-0.008104913258831786
0.0001502757843596346	-0.0008911472741823419	-0.003838648445737008
-0.004500232268348725	0.007079534004679601	0.0030712159012581744
-0.00026073996753498904	0.0009956720957096498	-0.0033834079573184447
-0.008691413027948828	0.009810400439074258	0.007491409666694981
0.009794596817107724	0.005046818916180638	-0.0075311357727334115
-0.0032007312235511863	-0.008308051034999599	-0.008294478902208793
0.001497083884334699	-0.0022738236485122347	-0.0032870261103977345
0.0005211689132388394	0.0010670465073136376	-0.002581657335740428
0.0004017231843729402	0.00927488216901328	0.0026207604126813003
0.008115449078013221	-0.0033078562522037627	-0.004670170072547095
-0.0006590060592164999	-0.0004936298871368559	-0.006379676252110554
-0.009816012187580934	-0.004691138304115047	0.0054646388856566305
0.0043549790055874595	-0.0042259522605381	-0.0025212758343657223
-0.0003938022044764327	0.002912176078131849	-0.005107939274664261
0.0029631540283502848	0.007422674478411041	-0.001337901863396494
-0.004644842954136861	0.0033266920414957296	-0.003436408873031538
-0.004365888145608822	-0.006362216754016313	-0.006587901598315061
0.0008656995208245252	-0.002835551124658456	0.0025793927692574267
-0.0012935561611146524	0.005929501029857679	-0.00986640252203725
0.002265182607927671	0.005714119296018063	-0.005689854501935449
0.006785022570133636	0.004657831174394561	0.007008000120484373
0.002874400118496363	-0.006295472554653193	0.0024761131088877585
-0.008503596805759853	-0.005719172507866186	-0.003279174182986835
0.009589681972269885	-0.009237266115356437	0.0031926383638521336
0.0046865240765009905	0.005980138980085181	-0.0054554094517127675
0.002336920664863894	-0.005205075623195702	0.008835961960181956
-0.004231071872178497	0.0029334377241413117	-0.004014330849114853
-0.00991246118745618	0.005799310438399909	-0.010054458100613818
0.00017238928581820266	0.0038893821304786576	0.005043368015977191
0.005554376402404469	-0.0008898152157833586	0.0012759309246332309
-0.003898526068537996	-0.006075972960110226	0.004187634827624997
-0.0011543313493758128	0.005643935697766457	0.0016735161661148336
-0.003952440071172595	0.00890599602939511	0.009456732045299778
0.002179629398174232	-0.005134898135650757	-0.003274381613443336
0.002877672828259705	-0.007042156319664915	-0.0007147344769372257
-0.006420252102204295	-0.0013912345514073918	0.0017439264285995723
-0.009585963379202166	0.008970919844686618	-0.009843946065536985
0.00801345072512123	-0.0014901716041682538	0.003284417300893759
-0.00848881378985034	0.004670799647499951	-0.007866050747791935
0.006019427578864008	0.004311786040467794	-0.0017755569175854531
0.005855661051409512	0.009430251507006266	0.00960799941043251
0.0014089905317625287	0.000970408305492507	0.001102945152961391
0.003985064145561847	0.00241052536715153	-0.002932729887396481
0.006379341720764204	0.007792288865621222	-0.0014234554082751434
-0.002321040391681399	-0.0012764965782851873	0.0059532090379849495
-0.0004308566505674353	0.00842539439730327	-0.007610934818215813
0.0069036854661068525	0.0051852927203313425	-0.006512160821594698
-0.0019259237544711344	0.007978969491587527	-0.004557706654301217
-0.0034739923791152847	0.003930134970826641	-0.003859311048446161
0.0012815625511510727	-0.006363410008436104	0.002616277921453426
-0.009444621225008687	0.0014092624148549365	-0.004804152227340914
0.0039395609586461745	0.006893608064027321	0.008478422628232013
-0.007935456408972124	-0.009887429559289104	-0.007920430407657773
-0.0010682921452638064	0.00851467020742444	0.005775447114770878
0.002470201905946696	-0.0011932222428376674	0.002097586054103529
0.004319473346208866	0.007197202618247906	-0.0013158900792325703
-0.006264502030652168	-0.0015100162762590394	0.005155901673185531
-0.002237543824712288	-0.005747785988159651	-0.00249164255032263
-0.00240558092057791	-0.008005267702940057	0.00697197439862007
0.007898759517569302	0.0072790574655924	0.00924450299669494
-0.006724966176327453	0.005207251503727455	0.009887342483922593
0.005830264364531976	0.008812099872732416	-0.009942150506935268
0.0058789822580700216	0.008464987648843543	-0.007336788659220172
-0.0069309249848689535	0.003570615393394134	0.008960331616825927
-0.006694182871123347	-0.009269389190160867	0.004667176229249333
0.004886446011959521	-0.0025561689276422366	-0.0036695611147407325
0.007613982483140765	0.0004891776420843045	-0.0002582046695173007
-0.0037775071830308416	-0.006184420143583292	0.005100384950494811
-0.004210803461508214	-0.007834776462667	-0.008338490146756437
-0.0058971432237105	-0.0007865689493355421	0.0049000254289057465
0.0013989978471361068	0.008306155817885517	-0.005462779125339198
-0.00808269484710355	-0.009196211334092937	0.007600129429525234
0.0019293577002373104	-0.0019927081808323987	-0.006815815190696848
-0.0012922101911845927	0.00069190351221287	3.5046604907308654e-05
-0.005153655638361926	-0.0021960671973910006	0.006516533754938611
0.00921810688707057	7.487866676918545e-05	0.0013229600174226187
-0.00388964549973427	-0.0026396641435106876	-0.0013273855404328325
-0.0010279066919841873	-0.0019951827754109246	0.008888955746453172
0.00917677772082123	-0.001313311466847376	0.006808587786279562
0.0001119727982432251	-0.008277005544560137	0.007022128253656895
-0.007652074262727565	0.006289154656218482	0.0051440660615113595
0.004495444520021782	-0.00976923616438308	0.008983691537306151
0.009322278619855682	0.0034718140477949	-0.0012360123344084366
0.0006529972394380794	0.0032497485801762024	-0.0040188052589596335
-0.0013499456572141546	0.004030396406051063	-0.008009722322664307
0.006736190255710126	0.0066270622436999885	0.009005425119004947
0.002385407974953879	-0.0001889807989504614	-0.006080104269373693
-0.004630388859556001	0.0065795292605635575	0.003165981758683588
-0.009786593918099416	0.003308105792280176	-0.004077853838073957
-0.0025569636382284447	0.007688389429920416	0.0009646289367588653
0.0009011205335687708	-0.0006618458672576523	-0.006469538136818475
-0.0029649986874948353	0.0011954106732239116	-0.008906638731128494
-0.003909156815408014	0.003952355419714162	-0.004047267210356975
-0.00926896253030085	0.0076557605941618544	0.001982095992672626
0.007333103959839396	0.0053948167438614535	-0.009281544842974969
0.008461330356242221	0.007055148587634416	-0.007625965947202724
0.00973252637441732	-0.004385329028940706	0.003600161681886159
-0.008143812506016552	-0.0001276191857051516	0.005267379655172988
-0.004207178763760738	0.0012801521695278862	-0.003331790161538485
-0.0028473441117512505	-0.003245413885254664	0.0011086830927872458
0.006809425143170575	0.001032216573114737	0.009777780991523148
-0.0029379518457746424	-0.009708354362247762	0.005297707190467909
-0.005211743901639447	0.009270494807917955	0.004781738387612986
0.008498847052405707	0.0029458043415345712	-0.009371367754875836
0.0071138709331073635	-0.0005583501474072071	-0.008134973208068287
-0.003408040418156663	-0.0048855942162723265	0.0012695332093686524
-0.006282259461174257	-0.0025948344604186883	-0.00910262692063936
-0.00441591513218487	0.007445050186161661	0.0055343280440472275
-0.009390287409482426	-0.009939309535319593	0.005176423098400964
-0.0016557878832691615	-0.002025531338421198	-0.008114081129194789
-0.0078020815775341045	0.006307164007319821	0.0018181955397675881
0.003320847014116146	-0.00872286762351374	0.00555313641462638
-0.008494498305972858	0.009435038627104719	0.0009691054371217898
0.0025611486209604923	0.0031388659699921675	0.00023953957288679398
-0.001359721005817334	0.008450340151454705	-0.003986993359850163
0.003715510954271358	-0.00403451399593582	-0.005237200736364685
0.002962180246600091	0.008048459125353158	-0.001710783896668365
0.002288493136419401	-0.006405024493767307	-0.0037635095105471245
-0.005689180492752317	-0.004922104390520382	0.009689258900373096
-0.003234164808907078	-0.0021476670882882194	-0.008115102937719271
-0.008609587493289932	-0.00879462331827816	0.008946073141866198
-0.00529773915010757	0.0054834956039347075	0.009621440183882592
-0.003788104624726736	-0.0037698478454040174	0.0036891262217533666
-0.005672075722471056	0.002392210176202482	-0.0029896236062319503
-0.0008062122350586207	-0.009505020240267859	-0.003666606748006859
-0.004020339905159206	-0.0005443575368309517	0.006149558267057712
-0.007344767355333091	-0.005948279823215411	-0.0082307769871783
-0.006644200532856411	0.006048348321038783	-0.009391543597684723
-0.00606338024781659	0.0032015082553294282	0.004376374118872971
-0.004284922969173346	-0.00804754863235729	-0.007366276297660623
-0.006944150301629733	0.005843727767504286	0.006224972417655329
0.008087262645483878	0.0020252410612631895	0.006112549058467139
-0.004289470002384622	0.002341161271651163	-0.003790629473661558
0.009658237909545151	-0.005086676153854684	-0.0059302545143858215
-0.00520839008248603	-0.008716375063000485	-0.005527252211417042
0.006994401931148095	-0.006759820254887505	-0.008278582358491115
0.004423932173660779	0.0008914152873318402	-0.009272007786931399
0.005512340586102414	0.007280131861757626	-0.004061291533754495
-0.0018246047420619783	-0.003465672941351682	-0.006669144126007035
-0.0034621146190057343	0.0034698814937318863	0.0033817411236208243
0.004404250317051521	-0.008424604776394706	0.007375746927111975
0.0035438080819879154	0.001744094718368571	0.008313114320973066
0.006534306334623164	0.009265191188718637	-0.005134975202805164
0.008448831643287061	-0.003615463132046604	0.0030383560706853732
0.0007902232710955935	-0.008646976217401368	-0.007639954601623835
0.004055879951836403	-0.007698006726076907	-0.0036615823298631143
-0.007833719279042603	-0.008979224697092291	-0.0035774751017047576
0.007300659425228239	-0.0027690044769020025	0.008876570443165248
0.009181314702522226	-0.002243511980807692	-0.0007268138399896054
-0.00168888333914014	-0.005744375279178393	-0.009522738402310778
0.0038397614630484717	-0.003055483294585463	0.00040227681794683355
0.0029610925945962267	-0.002233408492158256	-0.008357120764896744
0.006407114190456722	-0.00860687382893069	-0.007651260636557597
0.006849024645891981	-0.005594475218543293	0.005673375735796252
0.0037019067080122144	-0.006584053846976395	0.008068582742114878
-0.0009623026944816874	-0.002626857928762027	-0.003419580838058281
-0.009284980176153612	-0.008726279601055507	0.0030701527788392514
0.007945742061476123	0.0023160358496324834	-0.002092966798212508
0.003830228165257483	0.0072686478032230484	0.0015464880322700984
0.008144487347144813	0.009867342418928938	0.007990602348182293
-0.001027104027722785	0.0011042651627066018	-0.004710517340808346
-0.003941442072626809	-0.003149037382484861	0.007427658222741463
-0.007403385183455999	3.521027962092964e-05	0.008181986077803145
-0.009321717070201973	0.0012192719384362966	0.0009194436858033471
-0.00444588414905487	0.008908552775038821	-0.0055190037235413915
0.0019116775963767749	0.00495046292914568	0.005139781776122492
0.00636089503159052	0.008901878826701251	0.007943890646645874
-0.009424954835143549	-0.0023516524518028756	-0.009496798173324033
0.007946967457238866	-0.0053722030312185936	-0.0019651148542078316
-0.0038074611807986224	-0.0037786231781611404	-0.006557648119774988
0.001144873023751665	-0.007960946809918178	0.005438330229691051
0.002471322741052634	-0.008859029328020563	-0.0074291657349696335
-0.0056192681263536985	-0.008566173412422188	0.006646502147771006
-0.004900632914954845	-0.00423954397833344	-0.005962150284311922
-0.006569400747501527	0.0024679310800151573	-0.0009561340553563506
0.005052451193213734	0.0019491867964124311	-0.0012132499617121643
-0.005464551263106493	0.0058641121142239475	-0.004310672106004184
0.00017154703457540957	-0.0062072897891793585	-0.004132047634977695
0.006010563628348568	0.008780969640270118	-0.005710300015963319
0.006814505765455083	-0.007104027539777118	0.006988094512731455
0.004014951195507703	0.0001775424332119864	-0.003845478511931273
-0.0011171423977728839	0.008270943016734375	0.007709192979017938
-0.002169001477776192	0.007386807177563294	0.008785304080554506
0.001472051199487897	0.006884762787175619	-0.003327478554883259
0.008642769158655788	0.007896184339677266	0.003397781558834889
0.009025854267359967	-0.0064943200230633685	0.0034844905060018878
3.576524972597264e-05	0.0006672627048008618	0.005597430008074796
-0.00915750231471559	0.007552635065874362	0.0017472283655655604
0.007323779164142626	-0.009632992625300884	0.004706916452514422
0.008873332017826096	0.006419013406941461	-0.00022194087562502074
0.009412448876244565	0.0021053873884874005	-0.006886733083471567
0.005885155914484255	-0.00932475328178377	-0.005217096647613231
-0.00439777613058368	-0.00853009818447185	-0.007172364497679216
-0.008370447275317768	0.000694956962849394	-0.006939910391886968
-0.0037356467805315426	-0.008847523431540409	0.008972776670719001
-0.001566590715700521	0.009196106583714003	-0.00917937287183406
0.0016551694400516875	0.0070228667385676125	0.0024187037217712083
-0.00010268728432378735	-0.007207776434258937	-0.00010096504500181451
-6.254603738872419e-05	-0.004513860574850285	-0.007103807335849368
0.002715175316610958	0.00471148839187919	0.0073126744632311304
-0.004503335509781373	0.003714619501503383	0.0013639211890927282
0.009745710356266632	-0.0013500791253804965	-0.0049348759916599625
0.0009611397004327549	-0.0006611742791721702	-0.009740764302142723
-0.0010456902185544629	0.0026585876929672656	0.0034724278431818613
-0.0009186116319471107	0.003757031590810443	-0.003365218584967739
-0.0008845211639981424	0.005394606162004351	0.005109971899465903
-0.006087629874959288	0.005257269483047649	-0.006847085664987613
0.0034913905335842137	0.0008083150218792488	-0.003680562808254746
-0.007838350362772202	-0.007963906324853866	-0.009754850359000236
0.0012445422299338406	0.006505029747703011	-0.0056139743824154265
-0.0030184960349515563	-0.009121787103200697	-0.008562226306312684
-0.009694715188713317	0.00868826614234777	0.008744538060096152
0.004271903451020314	0.00016836368968265077	-0.0023758981995080624
0.006416922080276359	-0.007838071207671335	-0.0074952025194597125
0.007672804848079917	0.007854086329254264	-0.0010863070788591483
-0.00207589237925407	0.0045328421205842895	-0.007474863913743327
0.00899290698171091	0.008497476987170445	0.003857853009538028
-0.0068628367126371825	0.0007077445315684782	0.005679339709504902
-0.006300757978167041	-0.002230724384566278	-0.009004390692359506
-0.003910755371813566	0.008221472843515877	-0.007497960606677342
-0.007753835904451924	0.007602880081378388	0.008467102842338555
0.00462604110555679	-0.005277440796541128	-7.668256683976762e-06
-0.003958045515842428	0.0063174478185520685	0.0023149137199321053
-0.004149945527889751	-0.00120113910149168	0.008037203359100369
0.006408907122446805	0.0032296496077698477	0.003173865417705448
-0.009146130548450987	0.007444807793820313	-0.00042321353923340833
0.0034175275919781922	-0.005864218687086668	-0.006226862470376425
0.0020209197498279215	-0.006932118651413787	0.005607913389696273
-0.009744538465354629	0.0012127937550873887	-0.005948795576598781
9.695674245580738e-05	-0.0011161546857970557	-0.007602063988696969
-0.009299581960440213	-0.0004130484241681061	0.004960262917564875
0.00768919741766096	0.00333055576363955	-0.0015913514349089764
0.0013379506754860014	0.003791732971654811	0.006799075142595982
0.006927227605735005	0.002706859805692881	-0.004884144844359225
0.0039032820728923927	0.009242871061474246	0.007978951260305213
-0.002180952399993377	0.0017858625165582138	0.004393641473350956
-0.007126564773496954	0.009359794991065321	-0.008756745937481124
0.0022479000074149286	0.007439418324502628	-0.0007059892128992162
0.003497330785271483	-0.0028460334400160128	0.005578597367825885
0.002190894618088454	0.0044080553238983015	0.003476724009131779
0.0011367515545144553	0.007779731058117209	0.0027910324221598233
0.0055537926963762346	-0.006632805348626239	-0.0051530777608637945
-0.0068735003335692515	0.00029871192188981287	0.008309853933107769
0.005748407483810383	0.002018606047496938	-0.000951896767234766
0.006202230275373463	0.0034810368952869833	-0.0007646133985117331
-0.001077327621497334	-0.00927277635811128	-0.008545522427681912
0.0003686962055112295	0.009635245800240388	0.004564346074365174
-0.007800459117959194	-0.00611852089765655	0.007933576899814374
-0.007738501993171009	0.0093576847056932	0.0020512163422171624
0.009503970034771884	-0.005458008098556188	0.008639692939742927
0.0024839407424247836	0.0042011967340864174	-0.00195706762090978
0.0026940057659458738	0.00866540818149449	0.005425999906970324
0.006811528717515116	-0.0012622480736048866	-0.0028464208604621847
-0.006637999629158857	0.004483534476077638	0.0008480504803578745
-0.007257790737457751	-0.0011774117286421134	0.00943728513269768
-0.005017807351159087	-0.008909283767024278	0.0014867366085495153
0.002730247820437102	-0.0017383231865754478	0.0023460785052344998
0.00881046445168451	0.004762298804975787	-0.005558756538559561
-0.0032214855699026247	-0.007038078251829207	0.005803710276526989
0.008481722145185765	-0.006872091703878976	-0.0038081644354051626
0.0018191960208570734	0.004661924931599502	0.004696771512891235
0.006592660778995028	-0.00030495488689986916	0.0002510417630041586
0.0018510858317017237	0.0030890809089002026	-0.0031030472032477947
-0.009169333648718695	-0.0012845121188675614	-0.007668821847789775
0.005268341775288735	0.007064277147050333	-0.008540288381664393
0.0007567812436635891	0.0045054553957009445	-0.009829200950736373
0.009694884201066557	0.009094116282959409	0.008162192557876157
0.004447446002298303	-0.00607514251002398	0.008314622507460026
0.005265004464457081	0.0059701840677740085	0.003160193948835842
0.004567252693809941	-0.006853235131165605	-0.004046436201911641
0.005757065256822461	-0.0011707287186401311	-0.009024402581919756
0.0010336749436817214	0.003445650838260291	-0.006816692648911068
-0.0017409474941274608	-0.005555832092783873	-7.513357429936134e-05
0.006407654750687313	0.006897155245621258	0.007892548935911785
0.007444349921639785	-0.0077601068908021535	-0.005842223257562753
-1.844661780784143e-05	0.005772792063458904	0.0065006510435591264
-0.008271805296362114	-0.009541974007376802	-0.0034791773894204993
-0.0059972300252997945	-0.006326201007942343	0.0008856974984963132
0.00827285867862513	0.00314808609690536	-0.0046559250121882036
-0.0040995510555944786	-0.00014960545764602755	-0.008595115245724368
0.007026951542060473	-0.0031896875607715716	-0.001418311034139209
0.002995001423408245	-0.003830724669848325	-0.003709110511519724
0.003566020734412161	0.0008578835423639665	-0.002022825258938354
0.0026104636391677816	-0.00310657323734145	-0.001513374940136654
-0.003944055848639083	0.006709390621791073	0.008412141665884163
-0.0019313049022661281	0.0014110490081655422	-0.005070148496452811
-0.007886079929886963	-0.008126414976205183	-0.005628599910240001
0.006081439190321442	0.0076132488399067635	0.004163231727631089
-0.007488564746033485	0.007070749579097389	0.000693969466006375
0.006080982826170856	0.0013215972720893553	-0.006476397709401503
0.0018885233413927002	0.00839884422325809	-0.006539189242362997
-0.003219766564183466	0.004142297189356686	0.00894318977273378
-0.0077717223705788974	-0.007145636093624071	-0.0030203279117744838
0.0039744876603569415	-0.004818820813273903	-0.005604890830311859
0.0038936613228619747	0.007855333079742238	0.009901627688441777
0.008290631843907914	0.009579238373718673	0.008980103832970984
-0.0006652669117913519	-0.008190441519520787	0.0024096023303679173
0.003901581397169899	0.006990637105606131	0.009987684456477509
0.0036924114677907797	0.006707889669881612	-0.0065650569486872985
0.009789978968454922	-0.008794137996011813	-0.00017170757409006032
-0.00039744558428092373	-0.002440189793459423	-0.009922390189548413
-0.007080698678126171	0.007454341485401599	-0.002200466917714066
-0.0041817098169866715	0.007535713368422825	-0.005981821905942352
0.006279131587552209	0.0034561888368403026	0.005210756938176563
0.0038356104026292717	-0.0046153082451081025	0.000563844058006099
-0.006933727698076096	0.001948589504034261	-0.005477447249902265
-0.001765199580329108	-0.0099354768459011	-0.006226628223489074
0.0025108053643708543	-0.0077538070813675565	0.0038671892713416124
0.00319636910135224	-0.0027304267689499794	-0.007493935545114922
0.007464029611090769	0.006950532662745337	-0.008878461577653813
0.009618829114741208	0.007716196497581682	-0.008832088242730282
-0.0007951725792852641	0.00976250382082981	0.0019774230219751967
0.006774558547937872	0.009142343649872426	-0.008671988977226784
-9.713259010348495e-05	0.005893259373181872	-0.0017918646864523852
0.004474546793986652	0.004411881847504051	-0.005590641233293269
0.0030266484344245847	-0.0011146548732725026	-0.0018816201230098372
0.0019226732541784124	0.007346038511423439	0.009462772493731736
-0.009267360222610167	0.0034757550581993226	-0.0013715997937420819
-0.00260238500547149	-0.004354294382202391	-0.0019289656820453555
-0.00649686777593784	0.00014644478117885502	0.0062206465018367005
0.0013759114698094384	-0.004717338363221439	0.0017623707698228106
-0.0046564007739087355	0.0039774411363171155	0.0037662716160598696
0.007743448034077952	0.004547572432291492	-0.0020416901049454695
-0.0059578509491306775	-0.0033173873857154593	0.006751743413875737
-0.008093276542609695	-0.004981264206029698	0.004929792914694146
-0.0012573659152948589	0.006268502742494218	-0.0038142213783741736
0.004362829924797815	-0.0010967815711261219	0.0005175289965140984
-0.005344662698084774	0.005467070680190884	0.0064741016028767445
-0.005448405715717475	0.006117458021586024	4.23445555687383e-05
0.009995316370914466	-0.0012090607339075264	-0.009155586785215738
0.0006297626559694427	-0.006004211853748446	0.0016265142420175682
0.004046483500870918	-0.006634717300455232	-0.001619114586941894
-0.0024914205486646825	-0.008495378464949332	-0.008152651229160052
0.0008619858082496278	0.004428696241937995	0.0050423522042689455
-0.007817103999921157	0.002046599962404614	0.008403529359953926
0.0017946077446108696	0.00831981898077205	-0.0016916102491151622
-0.00102697425051812	0.005375936239911469	0.00883429535672079
0.0005526668958293277	-0.002724287116172317	-0.002623943564821464
0.002956145511165024	0.008341604796611	0.0006319008066081998
0.005628843701544484	0.00418485250062473	0.0030348665317294736
-0.005117589109682057	-0.0017879615438335227	-0.0058741388333092785
0.008706495192068056	-0.008357419431147133	0.005036135417621667
-0.007755893827848246	0.0017412822805327414	0.008512367026633102
-0.001787848099100313	0.0010081047480062291	-7.907565958556462e-05
0.0046197517560955595	-0.00022197461924567188	0.005539103293252223
-0.009458139495640863	-0.005285865547807715	-0.008590157789561077
0.0013136295024128546	0.008312083076507767	0.006366362210984055
-0.0033296324327569057	0.008972357200714903	0.00016606737908492208
0.005843490292722851	-0.006082046620146388	0.0012301588557577254
0.003485426271343182	-0.003936686932514931	0.0065475819211770585
-0.009419273855824839	-0.006646796352542906	0.0009792936622846464
0.00797831296191596	-0.0008766437624489563	-0.0036013325978904998
-0.009595155905591856	0.004098722515073823	-0.006141049690405527
0.0016016789571302436	0.00488419000819461	-0.006244030127467227
-0.00418040594856401	-5.6741596712220344e-05	0.0031802975530785607
-0.0022351607837399045	0.00747240034271562	0.006717703246572476
-0.009409627374962783	0.008451349760128405	0.00737532265571003
0.003327299449615689	0.0092852153388097	0.007962651196560989
0.0009274918791567777	0.0029362028216794282	-0.0048032586090310785
-0.00044679309692151857	0.0038127495599076903	-0.0069778450673500785
0.006270199886914711	0.0038401647885117716	0.007796244735772263
-0.007868244908867039	-0.008942559580048363	0.00011052527835605022
0.005570163803166411	0.006686586636122571	-0.0016547957146912304
0.009530061606998331	-0.004877176233707672	0.004922662523130849
0.009324871287620672	-0.0030230656334462886	0.0072820547385581535
0.006779805222832476	0.009904859421172727	-0.00212724404329955
-0.00808791017583177	-0.0028964579735349313	0.00702892435197466
-0.00451995691176897	0.00041565252415877094	-0.006712955750287689
-0.006748338098488099	0.008155961083233671	-0.006473480189130985
-0.004018851501030055	-0.0020048748662921338	-0.006355056331323735
-0.0004554854445252311	-0.009669774028936281	0.007345679555829784
-0.004270131379239938	0.009451622940942036	0.002909564469344178
-0.0034910727457852977	0.0032306091135603666	-0.009069293309577299
0.008391850096969883	-0.009031714724721297	0.001534321812520464
0.005811124645784102	-0.003661712963656376	-0.005536154591056632
-0.0034931908720929918	-0.006725512192692771	0.006381522721304088
0.005960622271926775	-0.003408390411758097	-0.005436013816300338
-0.00941649572394218	-0.003075657882481096	0.007041389795775342
-0.004029562020128564	-0.005255875712315974	0.00851724151916827
-0.0022226313234694067	0.00794315140061183	-0.008493831211484356
-8.330907735371387e-05	0.00806619616352169	-0.009132187450528687
-0.004945330796751619	-0.0016073725751338027	0.004648541914566347
0.008764300947061633	0.009190049259761907	0.0023024681254416642
-0.00010455632876683711	-0.007609862354047477	0.010044288559645129
-0.005640232988719622	0.0022444654533772795	0.009535919891371914
0.0073768941476188895	-0.009366505238308927	-0.007124846923428355
-0.006104910889059902	0.009680908224742615	-0.006520902331854173
0.007677377191199984	-0.007771322670152941	0.00723438659394327
-0.009749749676325945	0.003076055989739177	-0.007443827920674908
0.006188477141657102	-0.0038837986905233372	0.006729117496804675
0.0024272099382879574	-0.005692908190442757	-0.003978875592555164
0.008674455827608575	0.001889559639525763	-0.006699769187466811
0.004870678849051608	0.0026519037114549563	0.003669545112675013
0.008957770215238275	-0.005551524875316112	-0.0012086594384835645
0.007845027416747164	-0.009020074176143275	-0.0005948791575747427
-0.007707401825058951	0.002609852235317135	-0.009640144820189508
-0.002730472827476304	0.003785622774390837	0.0006202721711107157
-0.004569862846509098	0.010012177397474026	-0.0026144799952786037
-0.0008263082648328202	-0.0072316562763426115	-0.0003684255596966505
0.006192705312127312	0.008322061835763943	-0.002836700524801115
-0.00588754983796573	-0.005913086391250832	-0.0018181010961873852
-0.0070821496907074715	-0.008085671028442477	-0.0065355259841446255
-0.002104896851429774	-0.002630550400437425	-0.0017815415302468874
-0.004744601692423207	-0.0076729157004475825	0.006652905846277306
-1.8674683018906832e-05	-0.002138958032606931	0.0017613103307331478
0.005302808643552728	-0.005810968012204091	-0.0028076740837721156
-0.006059677323019062	-0.006050017761797418	0.0040377941502807765
-0.004173983526659413	-0.003370856129358899	-0.009780325085626781
0.005972172097903298	-0.004784888656100756	0.002982923699938819
-0.008142345808492012	-0.007405608909522044	-0.004100745363667472
0.0029672095756551574	0.006337785129223682	0.00979901376875439
-0.009073424951234548	-0.005272141844069857	-0.002203441834898753
1.8072352270475864e-05	0.0010367761939466015	0.007662903504087796
0.007605416845319806	0.010309907122033408	-0.0015570672094397057
0.008799522643077496	-0.0017360792849939605	-0.008675506256951447
-0.005934147339606486	0.009120324261573167	0.0034312081723187546
-0.0028165344009524404	0.0026461182009691175	-0.00935442214004816
8.748846974765238e-05	-0.009089572615281838	0.010008053581469254
0.00040776147170399485	-0.0003398312763498671	-0.0006634989805242245
